digraph Tree {
node [shape=box] ;
0 [label="X[14] <= 6.45\nentropy = 0.651\nsamples = 5613\nvalue = [4675, 938]"] ;
1 [label="X[14] <= 5.75\nentropy = 0.38\nsamples = 2875\nvalue = [2663, 212]"] ;
0 -> 1 [labeldistance=2.5, labelangle=45, headlabel="True"] ;
2 [label="X[85] <= 2.25\nentropy = 0.276\nsamples = 1617\nvalue = [1540, 77]"] ;
1 -> 2 ;
3 [label="X[3] <= 27.5\nentropy = 0.156\nsamples = 664\nvalue = [649, 15]"] ;
2 -> 3 ;
4 [label="X[134] <= 8.394\nentropy = 0.205\nsamples = 435\nvalue = [421, 14]"] ;
3 -> 4 ;
5 [label="X[2] <= 0.5\nentropy = 0.158\nsamples = 391\nvalue = [382, 9]"] ;
4 -> 5 ;
6 [label="X[160] <= 9.5\nentropy = 0.041\nsamples = 228\nvalue = [227, 1]"] ;
5 -> 6 ;
7 [label="entropy = 0.0\nsamples = 223\nvalue = [223, 0]"] ;
6 -> 7 ;
8 [label="X[28] <= 8.5\nentropy = 0.722\nsamples = 5\nvalue = [4, 1]"] ;
6 -> 8 ;
9 [label="entropy = 0.0\nsamples = 4\nvalue = [4, 0]"] ;
8 -> 9 ;
10 [label="entropy = 0.0\nsamples = 1\nvalue = [0, 1]"] ;
8 -> 10 ;
11 [label="X[1] <= 0.193\nentropy = 0.282\nsamples = 163\nvalue = [155, 8]"] ;
5 -> 11 ;
12 [label="X[59] <= 3.451\nentropy = 0.446\nsamples = 86\nvalue = [78, 8]"] ;
11 -> 12 ;
13 [label="entropy = 0.0\nsamples = 24\nvalue = [24, 0]"] ;
12 -> 13 ;
14 [label="X[58] <= 5.298\nentropy = 0.555\nsamples = 62\nvalue = [54, 8]"] ;
12 -> 14 ;
15 [label="X[1] <= -0.465\nentropy = 0.642\nsamples = 49\nvalue = [41, 8]"] ;
14 -> 15 ;
16 [label="X[162] <= 4.696\nentropy = 0.918\nsamples = 3\nvalue = [1, 2]"] ;
15 -> 16 ;
17 [label="entropy = 0.0\nsamples = 1\nvalue = [1, 0]"] ;
16 -> 17 ;
18 [label="entropy = 0.0\nsamples = 2\nvalue = [0, 2]"] ;
16 -> 18 ;
19 [label="X[28] <= 3.0\nentropy = 0.559\nsamples = 46\nvalue = [40, 6]"] ;
15 -> 19 ;
20 [label="entropy = 0.0\nsamples = 14\nvalue = [14, 0]"] ;
19 -> 20 ;
21 [label="X[28] <= 5.139\nentropy = 0.696\nsamples = 32\nvalue = [26, 6]"] ;
19 -> 21 ;
22 [label="X[8] <= 25.0\nentropy = 1.0\nsamples = 8\nvalue = [4, 4]"] ;
21 -> 22 ;
23 [label="X[8] <= 15.5\nentropy = 0.918\nsamples = 6\nvalue = [2, 4]"] ;
22 -> 23 ;
24 [label="X[157] <= 4.832\nentropy = 0.918\nsamples = 3\nvalue = [2, 1]"] ;
23 -> 24 ;
25 [label="entropy = 0.0\nsamples = 2\nvalue = [2, 0]"] ;
24 -> 25 ;
26 [label="entropy = 0.0\nsamples = 1\nvalue = [0, 1]"] ;
24 -> 26 ;
27 [label="entropy = 0.0\nsamples = 3\nvalue = [0, 3]"] ;
23 -> 27 ;
28 [label="entropy = 0.0\nsamples = 2\nvalue = [2, 0]"] ;
22 -> 28 ;
29 [label="X[158] <= 5.5\nentropy = 0.414\nsamples = 24\nvalue = [22, 2]"] ;
21 -> 29 ;
30 [label="entropy = 0.0\nsamples = 1\nvalue = [0, 1]"] ;
29 -> 30 ;
31 [label="X[162] <= 4.5\nentropy = 0.258\nsamples = 23\nvalue = [22, 1]"] ;
29 -> 31 ;
32 [label="X[3] <= 25.0\nentropy = 1.0\nsamples = 2\nvalue = [1, 1]"] ;
31 -> 32 ;
33 [label="entropy = 0.0\nsamples = 1\nvalue = [0, 1]"] ;
32 -> 33 ;
34 [label="entropy = 0.0\nsamples = 1\nvalue = [1, 0]"] ;
32 -> 34 ;
35 [label="entropy = 0.0\nsamples = 21\nvalue = [21, 0]"] ;
31 -> 35 ;
36 [label="entropy = 0.0\nsamples = 13\nvalue = [13, 0]"] ;
14 -> 36 ;
37 [label="entropy = 0.0\nsamples = 77\nvalue = [77, 0]"] ;
11 -> 37 ;
38 [label="X[161] <= 7.829\nentropy = 0.511\nsamples = 44\nvalue = [39, 5]"] ;
4 -> 38 ;
39 [label="X[1] <= 0.39\nentropy = 0.206\nsamples = 31\nvalue = [30, 1]"] ;
38 -> 39 ;
40 [label="entropy = 0.0\nsamples = 24\nvalue = [24, 0]"] ;
39 -> 40 ;
41 [label="X[1] <= 0.42\nentropy = 0.592\nsamples = 7\nvalue = [6, 1]"] ;
39 -> 41 ;
42 [label="entropy = 0.0\nsamples = 1\nvalue = [0, 1]"] ;
41 -> 42 ;
43 [label="entropy = 0.0\nsamples = 6\nvalue = [6, 0]"] ;
41 -> 43 ;
44 [label="X[1] <= 0.095\nentropy = 0.89\nsamples = 13\nvalue = [9, 4]"] ;
38 -> 44 ;
45 [label="X[14] <= 3.0\nentropy = 0.811\nsamples = 4\nvalue = [1, 3]"] ;
44 -> 45 ;
46 [label="entropy = 0.0\nsamples = 1\nvalue = [1, 0]"] ;
45 -> 46 ;
47 [label="entropy = 0.0\nsamples = 3\nvalue = [0, 3]"] ;
45 -> 47 ;
48 [label="X[1] <= 0.515\nentropy = 0.503\nsamples = 9\nvalue = [8, 1]"] ;
44 -> 48 ;
49 [label="entropy = 0.0\nsamples = 8\nvalue = [8, 0]"] ;
48 -> 49 ;
50 [label="entropy = 0.0\nsamples = 1\nvalue = [0, 1]"] ;
48 -> 50 ;
51 [label="X[161] <= 4.5\nentropy = 0.041\nsamples = 229\nvalue = [228, 1]"] ;
3 -> 51 ;
52 [label="X[87] <= 2.611\nentropy = 0.918\nsamples = 3\nvalue = [2, 1]"] ;
51 -> 52 ;
53 [label="entropy = 0.0\nsamples = 1\nvalue = [0, 1]"] ;
52 -> 53 ;
54 [label="entropy = 0.0\nsamples = 2\nvalue = [2, 0]"] ;
52 -> 54 ;
55 [label="entropy = 0.0\nsamples = 226\nvalue = [226, 0]"] ;
51 -> 55 ;
56 [label="X[47] <= 9.5\nentropy = 0.347\nsamples = 953\nvalue = [891, 62]"] ;
2 -> 56 ;
57 [label="X[21] <= 15.5\nentropy = 0.362\nsamples = 898\nvalue = [836, 62]"] ;
56 -> 57 ;
58 [label="X[26] <= 5.003\nentropy = 0.352\nsamples = 889\nvalue = [830, 59]"] ;
57 -> 58 ;
59 [label="X[21] <= 12.0\nentropy = 0.425\nsamples = 462\nvalue = [422, 40]"] ;
58 -> 59 ;
60 [label="X[22] <= 1.5\nentropy = 0.453\nsamples = 411\nvalue = [372, 39]"] ;
59 -> 60 ;
61 [label="X[152] <= 3.339\nentropy = 0.863\nsamples = 14\nvalue = [10, 4]"] ;
60 -> 61 ;
62 [label="entropy = 0.0\nsamples = 2\nvalue = [0, 2]"] ;
61 -> 62 ;
63 [label="X[1] <= -0.055\nentropy = 0.65\nsamples = 12\nvalue = [10, 2]"] ;
61 -> 63 ;
64 [label="entropy = 0.0\nsamples = 1\nvalue = [0, 1]"] ;
63 -> 64 ;
65 [label="X[8] <= 13.91\nentropy = 0.439\nsamples = 11\nvalue = [10, 1]"] ;
63 -> 65 ;
66 [label="X[158] <= 7.12\nentropy = 1.0\nsamples = 2\nvalue = [1, 1]"] ;
65 -> 66 ;
67 [label="entropy = 0.0\nsamples = 1\nvalue = [0, 1]"] ;
66 -> 67 ;
68 [label="entropy = 0.0\nsamples = 1\nvalue = [1, 0]"] ;
66 -> 68 ;
69 [label="entropy = 0.0\nsamples = 9\nvalue = [9, 0]"] ;
65 -> 69 ;
70 [label="X[1] <= 0.625\nentropy = 0.43\nsamples = 397\nvalue = [362, 35]"] ;
60 -> 70 ;
71 [label="X[6] <= 7.927\nentropy = 0.389\nsamples = 354\nvalue = [327, 27]"] ;
70 -> 71 ;
72 [label="X[1] <= 0.535\nentropy = 0.413\nsamples = 325\nvalue = [298, 27]"] ;
71 -> 72 ;
73 [label="X[25] <= 5.5\nentropy = 0.436\nsamples = 300\nvalue = [273, 27]"] ;
72 -> 73 ;
74 [label="X[3] <= 26.182\nentropy = 0.396\nsamples = 268\nvalue = [247, 21]"] ;
73 -> 74 ;
75 [label="X[107] <= 1.772\nentropy = 0.515\nsamples = 139\nvalue = [123, 16]"] ;
74 -> 75 ;
76 [label="X[158] <= 8.5\nentropy = 0.881\nsamples = 20\nvalue = [14, 6]"] ;
75 -> 76 ;
77 [label="X[14] <= 2.5\nentropy = 0.672\nsamples = 17\nvalue = [14, 3]"] ;
76 -> 77 ;
78 [label="entropy = 0.0\nsamples = 1\nvalue = [0, 1]"] ;
77 -> 78 ;
79 [label="X[3] <= 25.5\nentropy = 0.544\nsamples = 16\nvalue = [14, 2]"] ;
77 -> 79 ;
80 [label="entropy = 0.0\nsamples = 12\nvalue = [12, 0]"] ;
79 -> 80 ;
81 [label="X[8] <= 17.14\nentropy = 1.0\nsamples = 4\nvalue = [2, 2]"] ;
79 -> 81 ;
82 [label="entropy = 0.0\nsamples = 2\nvalue = [0, 2]"] ;
81 -> 82 ;
83 [label="entropy = 0.0\nsamples = 2\nvalue = [2, 0]"] ;
81 -> 83 ;
84 [label="entropy = 0.0\nsamples = 3\nvalue = [0, 3]"] ;
76 -> 84 ;
85 [label="X[89] <= 4.832\nentropy = 0.416\nsamples = 119\nvalue = [109, 10]"] ;
75 -> 85 ;
86 [label="entropy = 0.0\nsamples = 50\nvalue = [50, 0]"] ;
85 -> 86 ;
87 [label="X[36] <= 1.5\nentropy = 0.597\nsamples = 69\nvalue = [59, 10]"] ;
85 -> 87 ;
88 [label="entropy = 0.0\nsamples = 12\nvalue = [12, 0]"] ;
87 -> 88 ;
89 [label="X[159] <= 4.0\nentropy = 0.67\nsamples = 57\nvalue = [47, 10]"] ;
87 -> 89 ;
90 [label="entropy = 0.0\nsamples = 1\nvalue = [0, 1]"] ;
89 -> 90 ;
91 [label="X[1] <= 0.44\nentropy = 0.636\nsamples = 56\nvalue = [47, 9]"] ;
89 -> 91 ;
92 [label="X[20] <= 25.5\nentropy = 0.713\nsamples = 46\nvalue = [37, 9]"] ;
91 -> 92 ;
93 [label="X[1] <= 0.405\nentropy = 0.863\nsamples = 28\nvalue = [20, 8]"] ;
92 -> 93 ;
94 [label="X[1] <= 0.185\nentropy = 0.779\nsamples = 26\nvalue = [20, 6]"] ;
93 -> 94 ;
95 [label="X[1] <= 0.1\nentropy = 0.881\nsamples = 20\nvalue = [14, 6]"] ;
94 -> 95 ;
96 [label="X[21] <= 10.5\nentropy = 0.831\nsamples = 19\nvalue = [14, 5]"] ;
95 -> 96 ;
97 [label="X[1] <= -0.32\nentropy = 0.764\nsamples = 18\nvalue = [14, 4]"] ;
96 -> 97 ;
98 [label="X[14] <= 2.0\nentropy = 1.0\nsamples = 4\nvalue = [2, 2]"] ;
97 -> 98 ;
99 [label="entropy = 0.0\nsamples = 1\nvalue = [1, 0]"] ;
98 -> 99 ;
100 [label="X[14] <= 4.5\nentropy = 0.918\nsamples = 3\nvalue = [1, 2]"] ;
98 -> 100 ;
101 [label="entropy = 0.0\nsamples = 2\nvalue = [0, 2]"] ;
100 -> 101 ;
102 [label="entropy = 0.0\nsamples = 1\nvalue = [1, 0]"] ;
100 -> 102 ;
103 [label="X[8] <= 16.59\nentropy = 0.592\nsamples = 14\nvalue = [12, 2]"] ;
97 -> 103 ;
104 [label="entropy = 0.0\nsamples = 7\nvalue = [7, 0]"] ;
103 -> 104 ;
105 [label="X[28] <= 6.0\nentropy = 0.863\nsamples = 7\nvalue = [5, 2]"] ;
103 -> 105 ;
106 [label="X[8] <= 19.09\nentropy = 0.65\nsamples = 6\nvalue = [5, 1]"] ;
105 -> 106 ;
107 [label="entropy = 0.0\nsamples = 1\nvalue = [0, 1]"] ;
106 -> 107 ;
108 [label="entropy = 0.0\nsamples = 5\nvalue = [5, 0]"] ;
106 -> 108 ;
109 [label="entropy = 0.0\nsamples = 1\nvalue = [0, 1]"] ;
105 -> 109 ;
110 [label="entropy = 0.0\nsamples = 1\nvalue = [0, 1]"] ;
96 -> 110 ;
111 [label="entropy = 0.0\nsamples = 1\nvalue = [0, 1]"] ;
95 -> 111 ;
112 [label="entropy = 0.0\nsamples = 6\nvalue = [6, 0]"] ;
94 -> 112 ;
113 [label="entropy = 0.0\nsamples = 2\nvalue = [0, 2]"] ;
93 -> 113 ;
114 [label="X[14] <= 3.5\nentropy = 0.31\nsamples = 18\nvalue = [17, 1]"] ;
92 -> 114 ;
115 [label="X[114] <= 5.298\nentropy = 0.918\nsamples = 3\nvalue = [2, 1]"] ;
114 -> 115 ;
116 [label="entropy = 0.0\nsamples = 1\nvalue = [0, 1]"] ;
115 -> 116 ;
117 [label="entropy = 0.0\nsamples = 2\nvalue = [2, 0]"] ;
115 -> 117 ;
118 [label="entropy = 0.0\nsamples = 15\nvalue = [15, 0]"] ;
114 -> 118 ;
119 [label="entropy = 0.0\nsamples = 10\nvalue = [10, 0]"] ;
91 -> 119 ;
120 [label="X[8] <= 18.56\nentropy = 0.237\nsamples = 129\nvalue = [124, 5]"] ;
74 -> 120 ;
121 [label="entropy = 0.0\nsamples = 71\nvalue = [71, 0]"] ;
120 -> 121 ;
122 [label="X[162] <= 6.5\nentropy = 0.424\nsamples = 58\nvalue = [53, 5]"] ;
120 -> 122 ;
123 [label="X[85] <= 5.5\nentropy = 1.0\nsamples = 4\nvalue = [2, 2]"] ;
122 -> 123 ;
124 [label="X[3] <= 29.0\nentropy = 0.918\nsamples = 3\nvalue = [2, 1]"] ;
123 -> 124 ;
125 [label="entropy = 0.0\nsamples = 2\nvalue = [2, 0]"] ;
124 -> 125 ;
126 [label="entropy = 0.0\nsamples = 1\nvalue = [0, 1]"] ;
124 -> 126 ;
127 [label="entropy = 0.0\nsamples = 1\nvalue = [0, 1]"] ;
123 -> 127 ;
128 [label="X[160] <= 6.5\nentropy = 0.31\nsamples = 54\nvalue = [51, 3]"] ;
122 -> 128 ;
129 [label="entropy = 0.0\nsamples = 1\nvalue = [0, 1]"] ;
128 -> 129 ;
130 [label="X[1] <= 0.525\nentropy = 0.232\nsamples = 53\nvalue = [51, 2]"] ;
128 -> 130 ;
131 [label="X[14] <= 2.5\nentropy = 0.137\nsamples = 52\nvalue = [51, 1]"] ;
130 -> 131 ;
132 [label="X[28] <= 3.0\nentropy = 0.722\nsamples = 5\nvalue = [4, 1]"] ;
131 -> 132 ;
133 [label="entropy = 0.0\nsamples = 4\nvalue = [4, 0]"] ;
132 -> 133 ;
134 [label="entropy = 0.0\nsamples = 1\nvalue = [0, 1]"] ;
132 -> 134 ;
135 [label="entropy = 0.0\nsamples = 47\nvalue = [47, 0]"] ;
131 -> 135 ;
136 [label="entropy = 0.0\nsamples = 1\nvalue = [0, 1]"] ;
130 -> 136 ;
137 [label="X[8] <= 3.0\nentropy = 0.696\nsamples = 32\nvalue = [26, 6]"] ;
73 -> 137 ;
138 [label="entropy = 0.0\nsamples = 1\nvalue = [0, 1]"] ;
137 -> 138 ;
139 [label="X[20] <= 28.0\nentropy = 0.637\nsamples = 31\nvalue = [26, 5]"] ;
137 -> 139 ;
140 [label="X[3] <= 30.5\nentropy = 0.792\nsamples = 21\nvalue = [16, 5]"] ;
139 -> 140 ;
141 [label="X[14] <= 4.5\nentropy = 0.722\nsamples = 20\nvalue = [16, 4]"] ;
140 -> 141 ;
142 [label="entropy = 0.0\nsamples = 8\nvalue = [8, 0]"] ;
141 -> 142 ;
143 [label="X[3] <= 23.5\nentropy = 0.918\nsamples = 12\nvalue = [8, 4]"] ;
141 -> 143 ;
144 [label="entropy = 0.0\nsamples = 1\nvalue = [0, 1]"] ;
143 -> 144 ;
145 [label="X[117] <= 5.298\nentropy = 0.845\nsamples = 11\nvalue = [8, 3]"] ;
143 -> 145 ;
146 [label="X[1] <= 0.265\nentropy = 0.985\nsamples = 7\nvalue = [4, 3]"] ;
145 -> 146 ;
147 [label="X[1] <= 0.113\nentropy = 0.918\nsamples = 6\nvalue = [4, 2]"] ;
146 -> 147 ;
148 [label="X[22] <= 4.0\nentropy = 0.918\nsamples = 3\nvalue = [1, 2]"] ;
147 -> 148 ;
149 [label="entropy = 0.0\nsamples = 1\nvalue = [1, 0]"] ;
148 -> 149 ;
150 [label="entropy = 0.0\nsamples = 2\nvalue = [0, 2]"] ;
148 -> 150 ;
151 [label="entropy = 0.0\nsamples = 3\nvalue = [3, 0]"] ;
147 -> 151 ;
152 [label="entropy = 0.0\nsamples = 1\nvalue = [0, 1]"] ;
146 -> 152 ;
153 [label="entropy = 0.0\nsamples = 4\nvalue = [4, 0]"] ;
145 -> 153 ;
154 [label="entropy = 0.0\nsamples = 1\nvalue = [0, 1]"] ;
140 -> 154 ;
155 [label="entropy = 0.0\nsamples = 10\nvalue = [10, 0]"] ;
139 -> 155 ;
156 [label="entropy = 0.0\nsamples = 25\nvalue = [25, 0]"] ;
72 -> 156 ;
157 [label="entropy = 0.0\nsamples = 29\nvalue = [29, 0]"] ;
71 -> 157 ;
158 [label="X[21] <= 7.5\nentropy = 0.693\nsamples = 43\nvalue = [35, 8]"] ;
70 -> 158 ;
159 [label="X[1] <= 0.635\nentropy = 0.276\nsamples = 21\nvalue = [20, 1]"] ;
158 -> 159 ;
160 [label="entropy = 0.0\nsamples = 1\nvalue = [0, 1]"] ;
159 -> 160 ;
161 [label="entropy = 0.0\nsamples = 20\nvalue = [20, 0]"] ;
159 -> 161 ;
162 [label="X[159] <= 8.547\nentropy = 0.902\nsamples = 22\nvalue = [15, 7]"] ;
158 -> 162 ;
163 [label="X[20] <= 27.5\nentropy = 0.811\nsamples = 20\nvalue = [15, 5]"] ;
162 -> 163 ;
164 [label="entropy = 0.0\nsamples = 6\nvalue = [6, 0]"] ;
163 -> 164 ;
165 [label="X[21] <= 9.5\nentropy = 0.94\nsamples = 14\nvalue = [9, 5]"] ;
163 -> 165 ;
166 [label="X[3] <= 27.0\nentropy = 0.994\nsamples = 11\nvalue = [6, 5]"] ;
165 -> 166 ;
167 [label="entropy = 0.0\nsamples = 2\nvalue = [0, 2]"] ;
166 -> 167 ;
168 [label="X[1] <= 0.675\nentropy = 0.918\nsamples = 9\nvalue = [6, 3]"] ;
166 -> 168 ;
169 [label="X[57] <= 9.326\nentropy = 0.811\nsamples = 4\nvalue = [1, 3]"] ;
168 -> 169 ;
170 [label="entropy = 0.0\nsamples = 3\nvalue = [0, 3]"] ;
169 -> 170 ;
171 [label="entropy = 0.0\nsamples = 1\nvalue = [1, 0]"] ;
169 -> 171 ;
172 [label="entropy = 0.0\nsamples = 5\nvalue = [5, 0]"] ;
168 -> 172 ;
173 [label="entropy = 0.0\nsamples = 3\nvalue = [3, 0]"] ;
165 -> 173 ;
174 [label="entropy = 0.0\nsamples = 2\nvalue = [0, 2]"] ;
162 -> 174 ;
175 [label="X[3] <= 21.5\nentropy = 0.139\nsamples = 51\nvalue = [50, 1]"] ;
59 -> 175 ;
176 [label="entropy = 0.0\nsamples = 1\nvalue = [0, 1]"] ;
175 -> 176 ;
177 [label="entropy = 0.0\nsamples = 50\nvalue = [50, 0]"] ;
175 -> 177 ;
178 [label="X[28] <= 2.5\nentropy = 0.263\nsamples = 427\nvalue = [408, 19]"] ;
58 -> 178 ;
179 [label="X[36] <= 1.5\nentropy = 0.11\nsamples = 205\nvalue = [202, 3]"] ;
178 -> 179 ;
180 [label="X[38] <= 6.5\nentropy = 0.297\nsamples = 57\nvalue = [54, 3]"] ;
179 -> 180 ;
181 [label="X[2] <= 0.5\nentropy = 0.918\nsamples = 3\nvalue = [1, 2]"] ;
180 -> 181 ;
182 [label="entropy = 0.0\nsamples = 2\nvalue = [0, 2]"] ;
181 -> 182 ;
183 [label="entropy = 0.0\nsamples = 1\nvalue = [1, 0]"] ;
181 -> 183 ;
184 [label="X[3] <= 24.5\nentropy = 0.133\nsamples = 54\nvalue = [53, 1]"] ;
180 -> 184 ;
185 [label="X[111] <= 5.298\nentropy = 0.592\nsamples = 7\nvalue = [6, 1]"] ;
184 -> 185 ;
186 [label="entropy = 0.0\nsamples = 6\nvalue = [6, 0]"] ;
185 -> 186 ;
187 [label="entropy = 0.0\nsamples = 1\nvalue = [0, 1]"] ;
185 -> 187 ;
188 [label="entropy = 0.0\nsamples = 47\nvalue = [47, 0]"] ;
184 -> 188 ;
189 [label="entropy = 0.0\nsamples = 148\nvalue = [148, 0]"] ;
179 -> 189 ;
190 [label="X[8] <= 37.5\nentropy = 0.374\nsamples = 222\nvalue = [206, 16]"] ;
178 -> 190 ;
191 [label="X[14] <= 3.5\nentropy = 0.343\nsamples = 219\nvalue = [205, 14]"] ;
190 -> 191 ;
192 [label="entropy = 0.0\nsamples = 66\nvalue = [66, 0]"] ;
191 -> 192 ;
193 [label="X[8] <= 18.09\nentropy = 0.441\nsamples = 153\nvalue = [139, 14]"] ;
191 -> 193 ;
194 [label="X[8] <= 17.425\nentropy = 0.606\nsamples = 74\nvalue = [63, 11]"] ;
193 -> 194 ;
195 [label="X[21] <= 12.0\nentropy = 0.544\nsamples = 72\nvalue = [63, 9]"] ;
194 -> 195 ;
196 [label="X[22] <= 3.5\nentropy = 0.657\nsamples = 53\nvalue = [44, 9]"] ;
195 -> 196 ;
197 [label="X[160] <= 8.194\nentropy = 0.799\nsamples = 33\nvalue = [25, 8]"] ;
196 -> 197 ;
198 [label="X[38] <= 9.5\nentropy = 0.391\nsamples = 13\nvalue = [12, 1]"] ;
197 -> 198 ;
199 [label="entropy = 0.0\nsamples = 11\nvalue = [11, 0]"] ;
198 -> 199 ;
200 [label="X[1] <= 0.325\nentropy = 1.0\nsamples = 2\nvalue = [1, 1]"] ;
198 -> 200 ;
201 [label="entropy = 0.0\nsamples = 1\nvalue = [1, 0]"] ;
200 -> 201 ;
202 [label="entropy = 0.0\nsamples = 1\nvalue = [0, 1]"] ;
200 -> 202 ;
203 [label="X[162] <= 8.196\nentropy = 0.934\nsamples = 20\nvalue = [13, 7]"] ;
197 -> 203 ;
204 [label="X[3] <= 29.5\nentropy = 0.989\nsamples = 16\nvalue = [9, 7]"] ;
203 -> 204 ;
205 [label="X[3] <= 28.0\nentropy = 1.0\nsamples = 14\nvalue = [7, 7]"] ;
204 -> 205 ;
206 [label="X[2] <= 0.5\nentropy = 0.98\nsamples = 12\nvalue = [7, 5]"] ;
205 -> 206 ;
207 [label="X[3] <= 26.5\nentropy = 0.811\nsamples = 8\nvalue = [6, 2]"] ;
206 -> 207 ;
208 [label="entropy = 0.0\nsamples = 5\nvalue = [5, 0]"] ;
207 -> 208 ;
209 [label="X[8] <= 2.5\nentropy = 0.918\nsamples = 3\nvalue = [1, 2]"] ;
207 -> 209 ;
210 [label="entropy = 0.0\nsamples = 1\nvalue = [1, 0]"] ;
209 -> 210 ;
211 [label="entropy = 0.0\nsamples = 2\nvalue = [0, 2]"] ;
209 -> 211 ;
212 [label="X[135] <= 4.085\nentropy = 0.811\nsamples = 4\nvalue = [1, 3]"] ;
206 -> 212 ;
213 [label="entropy = 0.0\nsamples = 2\nvalue = [0, 2]"] ;
212 -> 213 ;
214 [label="X[14] <= 4.5\nentropy = 1.0\nsamples = 2\nvalue = [1, 1]"] ;
212 -> 214 ;
215 [label="entropy = 0.0\nsamples = 1\nvalue = [0, 1]"] ;
214 -> 215 ;
216 [label="entropy = 0.0\nsamples = 1\nvalue = [1, 0]"] ;
214 -> 216 ;
217 [label="entropy = 0.0\nsamples = 2\nvalue = [0, 2]"] ;
205 -> 217 ;
218 [label="entropy = 0.0\nsamples = 2\nvalue = [2, 0]"] ;
204 -> 218 ;
219 [label="entropy = 0.0\nsamples = 4\nvalue = [4, 0]"] ;
203 -> 219 ;
220 [label="X[85] <= 9.0\nentropy = 0.286\nsamples = 20\nvalue = [19, 1]"] ;
196 -> 220 ;
221 [label="entropy = 0.0\nsamples = 16\nvalue = [16, 0]"] ;
220 -> 221 ;
222 [label="X[3] <= 28.0\nentropy = 0.811\nsamples = 4\nvalue = [3, 1]"] ;
220 -> 222 ;
223 [label="entropy = 0.0\nsamples = 3\nvalue = [3, 0]"] ;
222 -> 223 ;
224 [label="entropy = 0.0\nsamples = 1\nvalue = [0, 1]"] ;
222 -> 224 ;
225 [label="entropy = 0.0\nsamples = 19\nvalue = [19, 0]"] ;
195 -> 225 ;
226 [label="entropy = 0.0\nsamples = 2\nvalue = [0, 2]"] ;
194 -> 226 ;
227 [label="X[47] <= 3.5\nentropy = 0.233\nsamples = 79\nvalue = [76, 3]"] ;
193 -> 227 ;
228 [label="X[1] <= -0.05\nentropy = 0.811\nsamples = 8\nvalue = [6, 2]"] ;
227 -> 228 ;
229 [label="entropy = 0.0\nsamples = 1\nvalue = [0, 1]"] ;
228 -> 229 ;
230 [label="X[85] <= 5.0\nentropy = 0.592\nsamples = 7\nvalue = [6, 1]"] ;
228 -> 230 ;
231 [label="entropy = 0.0\nsamples = 4\nvalue = [4, 0]"] ;
230 -> 231 ;
232 [label="X[1] <= 0.315\nentropy = 0.918\nsamples = 3\nvalue = [2, 1]"] ;
230 -> 232 ;
233 [label="entropy = 0.0\nsamples = 1\nvalue = [0, 1]"] ;
232 -> 233 ;
234 [label="entropy = 0.0\nsamples = 2\nvalue = [2, 0]"] ;
232 -> 234 ;
235 [label="X[21] <= 2.5\nentropy = 0.107\nsamples = 71\nvalue = [70, 1]"] ;
227 -> 235 ;
236 [label="X[1] <= -0.015\nentropy = 0.918\nsamples = 3\nvalue = [2, 1]"] ;
235 -> 236 ;
237 [label="entropy = 0.0\nsamples = 2\nvalue = [2, 0]"] ;
236 -> 237 ;
238 [label="entropy = 0.0\nsamples = 1\nvalue = [0, 1]"] ;
236 -> 238 ;
239 [label="entropy = 0.0\nsamples = 68\nvalue = [68, 0]"] ;
235 -> 239 ;
240 [label="X[153] <= 6.995\nentropy = 0.918\nsamples = 3\nvalue = [1, 2]"] ;
190 -> 240 ;
241 [label="entropy = 0.0\nsamples = 2\nvalue = [0, 2]"] ;
240 -> 241 ;
242 [label="entropy = 0.0\nsamples = 1\nvalue = [1, 0]"] ;
240 -> 242 ;
243 [label="X[107] <= 10.259\nentropy = 0.918\nsamples = 9\nvalue = [6, 3]"] ;
57 -> 243 ;
244 [label="X[2] <= 0.5\nentropy = 0.971\nsamples = 5\nvalue = [2, 3]"] ;
243 -> 244 ;
245 [label="entropy = 0.0\nsamples = 2\nvalue = [0, 2]"] ;
244 -> 245 ;
246 [label="X[3] <= 24.5\nentropy = 0.918\nsamples = 3\nvalue = [2, 1]"] ;
244 -> 246 ;
247 [label="entropy = 0.0\nsamples = 1\nvalue = [0, 1]"] ;
246 -> 247 ;
248 [label="entropy = 0.0\nsamples = 2\nvalue = [2, 0]"] ;
246 -> 248 ;
249 [label="entropy = 0.0\nsamples = 4\nvalue = [4, 0]"] ;
243 -> 249 ;
250 [label="entropy = 0.0\nsamples = 55\nvalue = [55, 0]"] ;
56 -> 250 ;
251 [label="X[1] <= 0.285\nentropy = 0.492\nsamples = 1258\nvalue = [1123, 135]"] ;
1 -> 251 ;
252 [label="X[3] <= 20.5\nentropy = 0.387\nsamples = 725\nvalue = [670, 55]"] ;
251 -> 252 ;
253 [label="X[85] <= 1.5\nentropy = 0.98\nsamples = 12\nvalue = [7, 5]"] ;
252 -> 253 ;
254 [label="entropy = 0.0\nsamples = 4\nvalue = [4, 0]"] ;
253 -> 254 ;
255 [label="X[28] <= 4.5\nentropy = 0.954\nsamples = 8\nvalue = [3, 5]"] ;
253 -> 255 ;
256 [label="X[1] <= -0.055\nentropy = 0.811\nsamples = 4\nvalue = [3, 1]"] ;
255 -> 256 ;
257 [label="entropy = 0.0\nsamples = 2\nvalue = [2, 0]"] ;
256 -> 257 ;
258 [label="X[135] <= 7.163\nentropy = 1.0\nsamples = 2\nvalue = [1, 1]"] ;
256 -> 258 ;
259 [label="entropy = 0.0\nsamples = 1\nvalue = [0, 1]"] ;
258 -> 259 ;
260 [label="entropy = 0.0\nsamples = 1\nvalue = [1, 0]"] ;
258 -> 260 ;
261 [label="entropy = 0.0\nsamples = 4\nvalue = [0, 4]"] ;
255 -> 261 ;
262 [label="X[1] <= -0.165\nentropy = 0.366\nsamples = 713\nvalue = [663, 50]"] ;
252 -> 262 ;
263 [label="X[162] <= 6.5\nentropy = 0.539\nsamples = 154\nvalue = [135, 19]"] ;
262 -> 263 ;
264 [label="X[28] <= 5.5\nentropy = 0.954\nsamples = 16\nvalue = [10, 6]"] ;
263 -> 264 ;
265 [label="X[38] <= 7.5\nentropy = 0.954\nsamples = 8\nvalue = [3, 5]"] ;
264 -> 265 ;
266 [label="X[7] <= 6.23\nentropy = 0.811\nsamples = 4\nvalue = [3, 1]"] ;
265 -> 266 ;
267 [label="entropy = 0.0\nsamples = 2\nvalue = [2, 0]"] ;
266 -> 267 ;
268 [label="X[3] <= 25.0\nentropy = 1.0\nsamples = 2\nvalue = [1, 1]"] ;
266 -> 268 ;
269 [label="entropy = 0.0\nsamples = 1\nvalue = [1, 0]"] ;
268 -> 269 ;
270 [label="entropy = 0.0\nsamples = 1\nvalue = [0, 1]"] ;
268 -> 270 ;
271 [label="entropy = 0.0\nsamples = 4\nvalue = [0, 4]"] ;
265 -> 271 ;
272 [label="X[26] <= 4.0\nentropy = 0.544\nsamples = 8\nvalue = [7, 1]"] ;
264 -> 272 ;
273 [label="entropy = 0.0\nsamples = 1\nvalue = [0, 1]"] ;
272 -> 273 ;
274 [label="entropy = 0.0\nsamples = 7\nvalue = [7, 0]"] ;
272 -> 274 ;
275 [label="X[26] <= 4.5\nentropy = 0.45\nsamples = 138\nvalue = [125, 13]"] ;
263 -> 275 ;
276 [label="X[3] <= 26.5\nentropy = 0.672\nsamples = 51\nvalue = [42, 9]"] ;
275 -> 276 ;
277 [label="X[1] <= -0.175\nentropy = 0.79\nsamples = 38\nvalue = [29, 9]"] ;
276 -> 277 ;
278 [label="X[0] <= 0.5\nentropy = 0.684\nsamples = 33\nvalue = [27, 6]"] ;
277 -> 278 ;
279 [label="entropy = 0.0\nsamples = 13\nvalue = [13, 0]"] ;
278 -> 279 ;
280 [label="X[61] <= 4.832\nentropy = 0.881\nsamples = 20\nvalue = [14, 6]"] ;
278 -> 280 ;
281 [label="entropy = 0.0\nsamples = 7\nvalue = [7, 0]"] ;
280 -> 281 ;
282 [label="X[158] <= 7.12\nentropy = 0.996\nsamples = 13\nvalue = [7, 6]"] ;
280 -> 282 ;
283 [label="entropy = 0.0\nsamples = 3\nvalue = [3, 0]"] ;
282 -> 283 ;
284 [label="X[38] <= 8.5\nentropy = 0.971\nsamples = 10\nvalue = [4, 6]"] ;
282 -> 284 ;
285 [label="X[3] <= 25.5\nentropy = 0.985\nsamples = 7\nvalue = [4, 3]"] ;
284 -> 285 ;
286 [label="X[28] <= 3.0\nentropy = 0.971\nsamples = 5\nvalue = [2, 3]"] ;
285 -> 286 ;
287 [label="entropy = 0.0\nsamples = 2\nvalue = [0, 2]"] ;
286 -> 287 ;
288 [label="X[26] <= 2.0\nentropy = 0.918\nsamples = 3\nvalue = [2, 1]"] ;
286 -> 288 ;
289 [label="entropy = 0.0\nsamples = 1\nvalue = [0, 1]"] ;
288 -> 289 ;
290 [label="entropy = 0.0\nsamples = 2\nvalue = [2, 0]"] ;
288 -> 290 ;
291 [label="entropy = 0.0\nsamples = 2\nvalue = [2, 0]"] ;
285 -> 291 ;
292 [label="entropy = 0.0\nsamples = 3\nvalue = [0, 3]"] ;
284 -> 292 ;
293 [label="X[28] <= 4.5\nentropy = 0.971\nsamples = 5\nvalue = [2, 3]"] ;
277 -> 293 ;
294 [label="entropy = 0.0\nsamples = 3\nvalue = [0, 3]"] ;
293 -> 294 ;
295 [label="entropy = 0.0\nsamples = 2\nvalue = [2, 0]"] ;
293 -> 295 ;
296 [label="entropy = 0.0\nsamples = 13\nvalue = [13, 0]"] ;
276 -> 296 ;
297 [label="X[85] <= 2.75\nentropy = 0.269\nsamples = 87\nvalue = [83, 4]"] ;
275 -> 297 ;
298 [label="entropy = 0.0\nsamples = 47\nvalue = [47, 0]"] ;
297 -> 298 ;
299 [label="X[0] <= 0.5\nentropy = 0.469\nsamples = 40\nvalue = [36, 4]"] ;
297 -> 299 ;
300 [label="X[8] <= 18.3\nentropy = 0.764\nsamples = 18\nvalue = [14, 4]"] ;
299 -> 300 ;
301 [label="X[38] <= 7.5\nentropy = 0.991\nsamples = 9\nvalue = [5, 4]"] ;
300 -> 301 ;
302 [label="entropy = 0.0\nsamples = 3\nvalue = [3, 0]"] ;
301 -> 302 ;
303 [label="X[85] <= 6.5\nentropy = 0.918\nsamples = 6\nvalue = [2, 4]"] ;
301 -> 303 ;
304 [label="entropy = 0.0\nsamples = 4\nvalue = [0, 4]"] ;
303 -> 304 ;
305 [label="entropy = 0.0\nsamples = 2\nvalue = [2, 0]"] ;
303 -> 305 ;
306 [label="entropy = 0.0\nsamples = 9\nvalue = [9, 0]"] ;
300 -> 306 ;
307 [label="entropy = 0.0\nsamples = 22\nvalue = [22, 0]"] ;
299 -> 307 ;
308 [label="X[3] <= 22.5\nentropy = 0.309\nsamples = 559\nvalue = [528, 31]"] ;
262 -> 308 ;
309 [label="entropy = 0.0\nsamples = 65\nvalue = [65, 0]"] ;
308 -> 309 ;
310 [label="X[20] <= 31.5\nentropy = 0.338\nsamples = 494\nvalue = [463, 31]"] ;
308 -> 310 ;
311 [label="X[8] <= 17.865\nentropy = 0.365\nsamples = 444\nvalue = [413, 31]"] ;
310 -> 311 ;
312 [label="X[26] <= 1.5\nentropy = 0.256\nsamples = 233\nvalue = [223, 10]"] ;
311 -> 312 ;
313 [label="X[3] <= 27.5\nentropy = 0.971\nsamples = 5\nvalue = [3, 2]"] ;
312 -> 313 ;
314 [label="entropy = 0.0\nsamples = 2\nvalue = [2, 0]"] ;
313 -> 314 ;
315 [label="X[1] <= 0.02\nentropy = 0.918\nsamples = 3\nvalue = [1, 2]"] ;
313 -> 315 ;
316 [label="entropy = 0.0\nsamples = 2\nvalue = [0, 2]"] ;
315 -> 316 ;
317 [label="entropy = 0.0\nsamples = 1\nvalue = [1, 0]"] ;
315 -> 317 ;
318 [label="X[1] <= 0.075\nentropy = 0.219\nsamples = 228\nvalue = [220, 8]"] ;
312 -> 318 ;
319 [label="entropy = 0.0\nsamples = 96\nvalue = [96, 0]"] ;
318 -> 319 ;
320 [label="X[158] <= 3.0\nentropy = 0.33\nsamples = 132\nvalue = [124, 8]"] ;
318 -> 320 ;
321 [label="entropy = 0.0\nsamples = 1\nvalue = [0, 1]"] ;
320 -> 321 ;
322 [label="X[3] <= 29.5\nentropy = 0.301\nsamples = 131\nvalue = [124, 7]"] ;
320 -> 322 ;
323 [label="X[8] <= 16.5\nentropy = 0.369\nsamples = 99\nvalue = [92, 7]"] ;
322 -> 323 ;
324 [label="X[8] <= 16.305\nentropy = 0.447\nsamples = 75\nvalue = [68, 7]"] ;
323 -> 324 ;
325 [label="X[104] <= 4.832\nentropy = 0.406\nsamples = 74\nvalue = [68, 6]"] ;
324 -> 325 ;
326 [label="entropy = 0.0\nsamples = 24\nvalue = [24, 0]"] ;
325 -> 326 ;
327 [label="X[20] <= 21.5\nentropy = 0.529\nsamples = 50\nvalue = [44, 6]"] ;
325 -> 327 ;
328 [label="entropy = 0.0\nsamples = 1\nvalue = [0, 1]"] ;
327 -> 328 ;
329 [label="X[8] <= 15.28\nentropy = 0.475\nsamples = 49\nvalue = [44, 5]"] ;
327 -> 329 ;
330 [label="X[137] <= 5.298\nentropy = 0.414\nsamples = 48\nvalue = [44, 4]"] ;
329 -> 330 ;
331 [label="entropy = 0.0\nsamples = 20\nvalue = [20, 0]"] ;
330 -> 331 ;
332 [label="X[1] <= 0.16\nentropy = 0.592\nsamples = 28\nvalue = [24, 4]"] ;
330 -> 332 ;
333 [label="entropy = 0.0\nsamples = 11\nvalue = [11, 0]"] ;
332 -> 333 ;
334 [label="X[1] <= 0.235\nentropy = 0.787\nsamples = 17\nvalue = [13, 4]"] ;
332 -> 334 ;
335 [label="X[25] <= 2.061\nentropy = 0.918\nsamples = 12\nvalue = [8, 4]"] ;
334 -> 335 ;
336 [label="X[162] <= 8.196\nentropy = 0.722\nsamples = 10\nvalue = [8, 2]"] ;
335 -> 336 ;
337 [label="X[1] <= 0.175\nentropy = 0.503\nsamples = 9\nvalue = [8, 1]"] ;
336 -> 337 ;
338 [label="entropy = 0.0\nsamples = 1\nvalue = [0, 1]"] ;
337 -> 338 ;
339 [label="entropy = 0.0\nsamples = 8\nvalue = [8, 0]"] ;
337 -> 339 ;
340 [label="entropy = 0.0\nsamples = 1\nvalue = [0, 1]"] ;
336 -> 340 ;
341 [label="entropy = 0.0\nsamples = 2\nvalue = [0, 2]"] ;
335 -> 341 ;
342 [label="entropy = 0.0\nsamples = 5\nvalue = [5, 0]"] ;
334 -> 342 ;
343 [label="entropy = 0.0\nsamples = 1\nvalue = [0, 1]"] ;
329 -> 343 ;
344 [label="entropy = 0.0\nsamples = 1\nvalue = [0, 1]"] ;
324 -> 344 ;
345 [label="entropy = 0.0\nsamples = 24\nvalue = [24, 0]"] ;
323 -> 345 ;
346 [label="entropy = 0.0\nsamples = 32\nvalue = [32, 0]"] ;
322 -> 346 ;
347 [label="X[2] <= 0.5\nentropy = 0.467\nsamples = 211\nvalue = [190, 21]"] ;
311 -> 347 ;
348 [label="X[91] <= 1.399\nentropy = 0.313\nsamples = 124\nvalue = [117, 7]"] ;
347 -> 348 ;
349 [label="X[159] <= 7.5\nentropy = 1.0\nsamples = 4\nvalue = [2, 2]"] ;
348 -> 349 ;
350 [label="entropy = 0.0\nsamples = 1\nvalue = [1, 0]"] ;
349 -> 350 ;
351 [label="X[147] <= 1.212\nentropy = 0.918\nsamples = 3\nvalue = [1, 2]"] ;
349 -> 351 ;
352 [label="X[1] <= 0.12\nentropy = 1.0\nsamples = 2\nvalue = [1, 1]"] ;
351 -> 352 ;
353 [label="entropy = 0.0\nsamples = 1\nvalue = [1, 0]"] ;
352 -> 353 ;
354 [label="entropy = 0.0\nsamples = 1\nvalue = [0, 1]"] ;
352 -> 354 ;
355 [label="entropy = 0.0\nsamples = 1\nvalue = [0, 1]"] ;
351 -> 355 ;
356 [label="X[1] <= 0.145\nentropy = 0.25\nsamples = 120\nvalue = [115, 5]"] ;
348 -> 356 ;
357 [label="entropy = 0.0\nsamples = 69\nvalue = [69, 0]"] ;
356 -> 357 ;
358 [label="X[38] <= 9.5\nentropy = 0.463\nsamples = 51\nvalue = [46, 5]"] ;
356 -> 358 ;
359 [label="X[119] <= 4.832\nentropy = 0.276\nsamples = 42\nvalue = [40, 2]"] ;
358 -> 359 ;
360 [label="X[25] <= 3.5\nentropy = 0.619\nsamples = 13\nvalue = [11, 2]"] ;
359 -> 360 ;
361 [label="X[36] <= 7.5\nentropy = 0.414\nsamples = 12\nvalue = [11, 1]"] ;
360 -> 361 ;
362 [label="entropy = 0.0\nsamples = 11\nvalue = [11, 0]"] ;
361 -> 362 ;
363 [label="entropy = 0.0\nsamples = 1\nvalue = [0, 1]"] ;
361 -> 363 ;
364 [label="entropy = 0.0\nsamples = 1\nvalue = [0, 1]"] ;
360 -> 364 ;
365 [label="entropy = 0.0\nsamples = 29\nvalue = [29, 0]"] ;
359 -> 365 ;
366 [label="X[21] <= 8.0\nentropy = 0.918\nsamples = 9\nvalue = [6, 3]"] ;
358 -> 366 ;
367 [label="X[3] <= 23.5\nentropy = 0.811\nsamples = 4\nvalue = [1, 3]"] ;
366 -> 367 ;
368 [label="entropy = 0.0\nsamples = 1\nvalue = [1, 0]"] ;
367 -> 368 ;
369 [label="entropy = 0.0\nsamples = 3\nvalue = [0, 3]"] ;
367 -> 369 ;
370 [label="entropy = 0.0\nsamples = 5\nvalue = [5, 0]"] ;
366 -> 370 ;
371 [label="X[36] <= 6.5\nentropy = 0.637\nsamples = 87\nvalue = [73, 14]"] ;
347 -> 371 ;
372 [label="X[3] <= 23.5\nentropy = 0.7\nsamples = 74\nvalue = [60, 14]"] ;
371 -> 372 ;
373 [label="X[26] <= 6.5\nentropy = 0.961\nsamples = 13\nvalue = [8, 5]"] ;
372 -> 373 ;
374 [label="X[105] <= 4.197\nentropy = 1.0\nsamples = 10\nvalue = [5, 5]"] ;
373 -> 374 ;
375 [label="entropy = 0.0\nsamples = 2\nvalue = [0, 2]"] ;
374 -> 375 ;
376 [label="X[1] <= -0.08\nentropy = 0.954\nsamples = 8\nvalue = [5, 3]"] ;
374 -> 376 ;
377 [label="entropy = 0.0\nsamples = 2\nvalue = [0, 2]"] ;
376 -> 377 ;
378 [label="X[142] <= 4.832\nentropy = 0.65\nsamples = 6\nvalue = [5, 1]"] ;
376 -> 378 ;
379 [label="X[1] <= 0.03\nentropy = 1.0\nsamples = 2\nvalue = [1, 1]"] ;
378 -> 379 ;
380 [label="entropy = 0.0\nsamples = 1\nvalue = [1, 0]"] ;
379 -> 380 ;
381 [label="entropy = 0.0\nsamples = 1\nvalue = [0, 1]"] ;
379 -> 381 ;
382 [label="entropy = 0.0\nsamples = 4\nvalue = [4, 0]"] ;
378 -> 382 ;
383 [label="entropy = 0.0\nsamples = 3\nvalue = [3, 0]"] ;
373 -> 383 ;
384 [label="X[3] <= 24.5\nentropy = 0.604\nsamples = 61\nvalue = [52, 9]"] ;
372 -> 384 ;
385 [label="entropy = 0.0\nsamples = 15\nvalue = [15, 0]"] ;
384 -> 385 ;
386 [label="X[27] <= 2.5\nentropy = 0.713\nsamples = 46\nvalue = [37, 9]"] ;
384 -> 386 ;
387 [label="X[26] <= 5.5\nentropy = 0.8\nsamples = 37\nvalue = [28, 9]"] ;
386 -> 387 ;
388 [label="X[85] <= 2.75\nentropy = 0.663\nsamples = 29\nvalue = [24, 5]"] ;
387 -> 388 ;
389 [label="entropy = 0.0\nsamples = 12\nvalue = [12, 0]"] ;
388 -> 389 ;
390 [label="X[28] <= 6.5\nentropy = 0.874\nsamples = 17\nvalue = [12, 5]"] ;
388 -> 390 ;
391 [label="entropy = 0.0\nsamples = 7\nvalue = [7, 0]"] ;
390 -> 391 ;
392 [label="X[158] <= 7.62\nentropy = 1.0\nsamples = 10\nvalue = [5, 5]"] ;
390 -> 392 ;
393 [label="X[8] <= 18.665\nentropy = 0.65\nsamples = 6\nvalue = [1, 5]"] ;
392 -> 393 ;
394 [label="entropy = 0.0\nsamples = 1\nvalue = [1, 0]"] ;
393 -> 394 ;
395 [label="entropy = 0.0\nsamples = 5\nvalue = [0, 5]"] ;
393 -> 395 ;
396 [label="entropy = 0.0\nsamples = 4\nvalue = [4, 0]"] ;
392 -> 396 ;
397 [label="X[3] <= 29.5\nentropy = 1.0\nsamples = 8\nvalue = [4, 4]"] ;
387 -> 397 ;
398 [label="X[47] <= 2.5\nentropy = 0.722\nsamples = 5\nvalue = [1, 4]"] ;
397 -> 398 ;
399 [label="entropy = 0.0\nsamples = 1\nvalue = [1, 0]"] ;
398 -> 399 ;
400 [label="entropy = 0.0\nsamples = 4\nvalue = [0, 4]"] ;
398 -> 400 ;
401 [label="entropy = 0.0\nsamples = 3\nvalue = [3, 0]"] ;
397 -> 401 ;
402 [label="entropy = 0.0\nsamples = 9\nvalue = [9, 0]"] ;
386 -> 402 ;
403 [label="entropy = 0.0\nsamples = 13\nvalue = [13, 0]"] ;
371 -> 403 ;
404 [label="entropy = 0.0\nsamples = 50\nvalue = [50, 0]"] ;
310 -> 404 ;
405 [label="X[20] <= 29.5\nentropy = 0.61\nsamples = 533\nvalue = [453, 80]"] ;
251 -> 405 ;
406 [label="X[158] <= 4.5\nentropy = 0.67\nsamples = 439\nvalue = [362, 77]"] ;
405 -> 406 ;
407 [label="X[1] <= 0.445\nentropy = 0.946\nsamples = 11\nvalue = [4, 7]"] ;
406 -> 407 ;
408 [label="entropy = 0.0\nsamples = 4\nvalue = [0, 4]"] ;
407 -> 408 ;
409 [label="X[8] <= 11.0\nentropy = 0.985\nsamples = 7\nvalue = [4, 3]"] ;
407 -> 409 ;
410 [label="entropy = 0.0\nsamples = 2\nvalue = [0, 2]"] ;
409 -> 410 ;
411 [label="X[8] <= 19.0\nentropy = 0.722\nsamples = 5\nvalue = [4, 1]"] ;
409 -> 411 ;
412 [label="entropy = 0.0\nsamples = 3\nvalue = [3, 0]"] ;
411 -> 412 ;
413 [label="X[159] <= 4.0\nentropy = 1.0\nsamples = 2\nvalue = [1, 1]"] ;
411 -> 413 ;
414 [label="entropy = 0.0\nsamples = 1\nvalue = [1, 0]"] ;
413 -> 414 ;
415 [label="entropy = 0.0\nsamples = 1\nvalue = [0, 1]"] ;
413 -> 415 ;
416 [label="X[85] <= 3.104\nentropy = 0.643\nsamples = 428\nvalue = [358, 70]"] ;
406 -> 416 ;
417 [label="X[36] <= 2.5\nentropy = 0.487\nsamples = 227\nvalue = [203, 24]"] ;
416 -> 417 ;
418 [label="X[159] <= 9.5\nentropy = 0.306\nsamples = 128\nvalue = [121, 7]"] ;
417 -> 418 ;
419 [label="X[8] <= 17.695\nentropy = 0.21\nsamples = 121\nvalue = [117, 4]"] ;
418 -> 419 ;
420 [label="X[22] <= 3.5\nentropy = 0.402\nsamples = 50\nvalue = [46, 4]"] ;
419 -> 420 ;
421 [label="X[160] <= 8.694\nentropy = 0.179\nsamples = 37\nvalue = [36, 1]"] ;
420 -> 421 ;
422 [label="entropy = 0.0\nsamples = 33\nvalue = [33, 0]"] ;
421 -> 422 ;
423 [label="X[142] <= 5.298\nentropy = 0.811\nsamples = 4\nvalue = [3, 1]"] ;
421 -> 423 ;
424 [label="entropy = 0.0\nsamples = 3\nvalue = [3, 0]"] ;
423 -> 424 ;
425 [label="entropy = 0.0\nsamples = 1\nvalue = [0, 1]"] ;
423 -> 425 ;
426 [label="X[1] <= 0.375\nentropy = 0.779\nsamples = 13\nvalue = [10, 3]"] ;
420 -> 426 ;
427 [label="entropy = 0.0\nsamples = 4\nvalue = [4, 0]"] ;
426 -> 427 ;
428 [label="X[1] <= 0.395\nentropy = 0.918\nsamples = 9\nvalue = [6, 3]"] ;
426 -> 428 ;
429 [label="entropy = 0.0\nsamples = 1\nvalue = [0, 1]"] ;
428 -> 429 ;
430 [label="X[27] <= 2.5\nentropy = 0.811\nsamples = 8\nvalue = [6, 2]"] ;
428 -> 430 ;
431 [label="X[59] <= 3.433\nentropy = 0.592\nsamples = 7\nvalue = [6, 1]"] ;
430 -> 431 ;
432 [label="entropy = 0.0\nsamples = 5\nvalue = [5, 0]"] ;
431 -> 432 ;
433 [label="X[8] <= 7.5\nentropy = 1.0\nsamples = 2\nvalue = [1, 1]"] ;
431 -> 433 ;
434 [label="entropy = 0.0\nsamples = 1\nvalue = [1, 0]"] ;
433 -> 434 ;
435 [label="entropy = 0.0\nsamples = 1\nvalue = [0, 1]"] ;
433 -> 435 ;
436 [label="entropy = 0.0\nsamples = 1\nvalue = [0, 1]"] ;
430 -> 436 ;
437 [label="entropy = 0.0\nsamples = 71\nvalue = [71, 0]"] ;
419 -> 437 ;
438 [label="X[27] <= 1.5\nentropy = 0.985\nsamples = 7\nvalue = [4, 3]"] ;
418 -> 438 ;
439 [label="X[1] <= 0.62\nentropy = 0.971\nsamples = 5\nvalue = [2, 3]"] ;
438 -> 439 ;
440 [label="entropy = 0.0\nsamples = 3\nvalue = [0, 3]"] ;
439 -> 440 ;
441 [label="entropy = 0.0\nsamples = 2\nvalue = [2, 0]"] ;
439 -> 441 ;
442 [label="entropy = 0.0\nsamples = 2\nvalue = [2, 0]"] ;
438 -> 442 ;
443 [label="X[36] <= 3.5\nentropy = 0.662\nsamples = 99\nvalue = [82, 17]"] ;
417 -> 443 ;
444 [label="X[20] <= 24.5\nentropy = 0.906\nsamples = 28\nvalue = [19, 9]"] ;
443 -> 444 ;
445 [label="X[8] <= 11.5\nentropy = 0.684\nsamples = 22\nvalue = [18, 4]"] ;
444 -> 445 ;
446 [label="entropy = 0.0\nsamples = 2\nvalue = [0, 2]"] ;
445 -> 446 ;
447 [label="X[156] <= 3.451\nentropy = 0.469\nsamples = 20\nvalue = [18, 2]"] ;
445 -> 447 ;
448 [label="X[3] <= 23.5\nentropy = 0.971\nsamples = 5\nvalue = [3, 2]"] ;
447 -> 448 ;
449 [label="entropy = 0.0\nsamples = 2\nvalue = [2, 0]"] ;
448 -> 449 ;
450 [label="X[2] <= 0.5\nentropy = 0.918\nsamples = 3\nvalue = [1, 2]"] ;
448 -> 450 ;
451 [label="entropy = 0.0\nsamples = 2\nvalue = [0, 2]"] ;
450 -> 451 ;
452 [label="entropy = 0.0\nsamples = 1\nvalue = [1, 0]"] ;
450 -> 452 ;
453 [label="entropy = 0.0\nsamples = 15\nvalue = [15, 0]"] ;
447 -> 453 ;
454 [label="X[10] <= 4.832\nentropy = 0.65\nsamples = 6\nvalue = [1, 5]"] ;
444 -> 454 ;
455 [label="X[1] <= 0.395\nentropy = 0.918\nsamples = 3\nvalue = [1, 2]"] ;
454 -> 455 ;
456 [label="entropy = 0.0\nsamples = 1\nvalue = [0, 1]"] ;
455 -> 456 ;
457 [label="X[1] <= 0.6\nentropy = 1.0\nsamples = 2\nvalue = [1, 1]"] ;
455 -> 457 ;
458 [label="entropy = 0.0\nsamples = 1\nvalue = [1, 0]"] ;
457 -> 458 ;
459 [label="entropy = 0.0\nsamples = 1\nvalue = [0, 1]"] ;
457 -> 459 ;
460 [label="entropy = 0.0\nsamples = 3\nvalue = [0, 3]"] ;
454 -> 460 ;
461 [label="X[2] <= 0.5\nentropy = 0.508\nsamples = 71\nvalue = [63, 8]"] ;
443 -> 461 ;
462 [label="X[36] <= 8.5\nentropy = 0.258\nsamples = 46\nvalue = [44, 2]"] ;
461 -> 462 ;
463 [label="X[1] <= 0.575\nentropy = 0.154\nsamples = 45\nvalue = [44, 1]"] ;
462 -> 463 ;
464 [label="entropy = 0.0\nsamples = 37\nvalue = [37, 0]"] ;
463 -> 464 ;
465 [label="X[1] <= 0.595\nentropy = 0.544\nsamples = 8\nvalue = [7, 1]"] ;
463 -> 465 ;
466 [label="X[47] <= 5.785\nentropy = 1.0\nsamples = 2\nvalue = [1, 1]"] ;
465 -> 466 ;
467 [label="entropy = 0.0\nsamples = 1\nvalue = [0, 1]"] ;
466 -> 467 ;
468 [label="entropy = 0.0\nsamples = 1\nvalue = [1, 0]"] ;
466 -> 468 ;
469 [label="entropy = 0.0\nsamples = 6\nvalue = [6, 0]"] ;
465 -> 469 ;
470 [label="entropy = 0.0\nsamples = 1\nvalue = [0, 1]"] ;
462 -> 470 ;
471 [label="X[28] <= 8.5\nentropy = 0.795\nsamples = 25\nvalue = [19, 6]"] ;
461 -> 471 ;
472 [label="X[3] <= 26.682\nentropy = 0.918\nsamples = 18\nvalue = [12, 6]"] ;
471 -> 472 ;
473 [label="X[3] <= 22.0\nentropy = 0.469\nsamples = 10\nvalue = [9, 1]"] ;
472 -> 473 ;
474 [label="X[61] <= 5.764\nentropy = 1.0\nsamples = 2\nvalue = [1, 1]"] ;
473 -> 474 ;
475 [label="entropy = 0.0\nsamples = 1\nvalue = [1, 0]"] ;
474 -> 475 ;
476 [label="entropy = 0.0\nsamples = 1\nvalue = [0, 1]"] ;
474 -> 476 ;
477 [label="entropy = 0.0\nsamples = 8\nvalue = [8, 0]"] ;
473 -> 477 ;
478 [label="X[20] <= 23.5\nentropy = 0.954\nsamples = 8\nvalue = [3, 5]"] ;
472 -> 478 ;
479 [label="entropy = 0.0\nsamples = 2\nvalue = [0, 2]"] ;
478 -> 479 ;
480 [label="X[25] <= 3.0\nentropy = 1.0\nsamples = 6\nvalue = [3, 3]"] ;
478 -> 480 ;
481 [label="X[8] <= 17.5\nentropy = 0.811\nsamples = 4\nvalue = [1, 3]"] ;
480 -> 481 ;
482 [label="X[0] <= 0.5\nentropy = 1.0\nsamples = 2\nvalue = [1, 1]"] ;
481 -> 482 ;
483 [label="entropy = 0.0\nsamples = 1\nvalue = [0, 1]"] ;
482 -> 483 ;
484 [label="entropy = 0.0\nsamples = 1\nvalue = [1, 0]"] ;
482 -> 484 ;
485 [label="entropy = 0.0\nsamples = 2\nvalue = [0, 2]"] ;
481 -> 485 ;
486 [label="entropy = 0.0\nsamples = 2\nvalue = [2, 0]"] ;
480 -> 486 ;
487 [label="entropy = 0.0\nsamples = 7\nvalue = [7, 0]"] ;
471 -> 487 ;
488 [label="X[14] <= 6.2\nentropy = 0.776\nsamples = 201\nvalue = [155, 46]"] ;
416 -> 488 ;
489 [label="X[1] <= 0.54\nentropy = 0.831\nsamples = 171\nvalue = [126, 45]"] ;
488 -> 489 ;
490 [label="X[1] <= 0.515\nentropy = 0.892\nsamples = 123\nvalue = [85, 38]"] ;
489 -> 490 ;
491 [label="X[38] <= 9.5\nentropy = 0.841\nsamples = 115\nvalue = [84, 31]"] ;
490 -> 491 ;
492 [label="X[28] <= 6.5\nentropy = 0.895\nsamples = 93\nvalue = [64, 29]"] ;
491 -> 492 ;
493 [label="X[22] <= 2.5\nentropy = 0.738\nsamples = 48\nvalue = [38, 10]"] ;
492 -> 493 ;
494 [label="X[27] <= 4.5\nentropy = 0.276\nsamples = 21\nvalue = [20, 1]"] ;
493 -> 494 ;
495 [label="entropy = 0.0\nsamples = 20\nvalue = [20, 0]"] ;
494 -> 495 ;
496 [label="entropy = 0.0\nsamples = 1\nvalue = [0, 1]"] ;
494 -> 496 ;
497 [label="X[25] <= 1.5\nentropy = 0.918\nsamples = 27\nvalue = [18, 9]"] ;
493 -> 497 ;
498 [label="entropy = 0.0\nsamples = 10\nvalue = [10, 0]"] ;
497 -> 498 ;
499 [label="X[152] <= 5.298\nentropy = 0.998\nsamples = 17\nvalue = [8, 9]"] ;
497 -> 499 ;
500 [label="X[36] <= 6.5\nentropy = 0.985\nsamples = 14\nvalue = [8, 6]"] ;
499 -> 500 ;
501 [label="X[3] <= 27.5\nentropy = 0.918\nsamples = 12\nvalue = [8, 4]"] ;
500 -> 501 ;
502 [label="X[118] <= 4.832\nentropy = 1.0\nsamples = 8\nvalue = [4, 4]"] ;
501 -> 502 ;
503 [label="X[1] <= 0.395\nentropy = 0.918\nsamples = 6\nvalue = [2, 4]"] ;
502 -> 503 ;
504 [label="X[8] <= 23.5\nentropy = 0.918\nsamples = 3\nvalue = [2, 1]"] ;
503 -> 504 ;
505 [label="entropy = 0.0\nsamples = 2\nvalue = [2, 0]"] ;
504 -> 505 ;
506 [label="entropy = 0.0\nsamples = 1\nvalue = [0, 1]"] ;
504 -> 506 ;
507 [label="entropy = 0.0\nsamples = 3\nvalue = [0, 3]"] ;
503 -> 507 ;
508 [label="entropy = 0.0\nsamples = 2\nvalue = [2, 0]"] ;
502 -> 508 ;
509 [label="entropy = 0.0\nsamples = 4\nvalue = [4, 0]"] ;
501 -> 509 ;
510 [label="entropy = 0.0\nsamples = 2\nvalue = [0, 2]"] ;
500 -> 510 ;
511 [label="entropy = 0.0\nsamples = 3\nvalue = [0, 3]"] ;
499 -> 511 ;
512 [label="X[3] <= 29.0\nentropy = 0.982\nsamples = 45\nvalue = [26, 19]"] ;
492 -> 512 ;
513 [label="X[8] <= 16.825\nentropy = 0.896\nsamples = 32\nvalue = [22, 10]"] ;
512 -> 513 ;
514 [label="X[22] <= 3.5\nentropy = 1.0\nsamples = 16\nvalue = [8, 8]"] ;
513 -> 514 ;
515 [label="X[36] <= 3.5\nentropy = 0.961\nsamples = 13\nvalue = [8, 5]"] ;
514 -> 515 ;
516 [label="X[109] <= 6.528\nentropy = 0.954\nsamples = 8\nvalue = [3, 5]"] ;
515 -> 516 ;
517 [label="X[26] <= 5.0\nentropy = 1.0\nsamples = 6\nvalue = [3, 3]"] ;
516 -> 517 ;
518 [label="entropy = 0.0\nsamples = 2\nvalue = [0, 2]"] ;
517 -> 518 ;
519 [label="X[8] <= 16.335\nentropy = 0.811\nsamples = 4\nvalue = [3, 1]"] ;
517 -> 519 ;
520 [label="entropy = 0.0\nsamples = 3\nvalue = [3, 0]"] ;
519 -> 520 ;
521 [label="entropy = 0.0\nsamples = 1\nvalue = [0, 1]"] ;
519 -> 521 ;
522 [label="entropy = 0.0\nsamples = 2\nvalue = [0, 2]"] ;
516 -> 522 ;
523 [label="entropy = 0.0\nsamples = 5\nvalue = [5, 0]"] ;
515 -> 523 ;
524 [label="entropy = 0.0\nsamples = 3\nvalue = [0, 3]"] ;
514 -> 524 ;
525 [label="X[38] <= 5.5\nentropy = 0.544\nsamples = 16\nvalue = [14, 2]"] ;
513 -> 525 ;
526 [label="entropy = 0.0\nsamples = 1\nvalue = [0, 1]"] ;
525 -> 526 ;
527 [label="X[36] <= 7.5\nentropy = 0.353\nsamples = 15\nvalue = [14, 1]"] ;
525 -> 527 ;
528 [label="entropy = 0.0\nsamples = 13\nvalue = [13, 0]"] ;
527 -> 528 ;
529 [label="X[1] <= 0.32\nentropy = 1.0\nsamples = 2\nvalue = [1, 1]"] ;
527 -> 529 ;
530 [label="entropy = 0.0\nsamples = 1\nvalue = [1, 0]"] ;
529 -> 530 ;
531 [label="entropy = 0.0\nsamples = 1\nvalue = [0, 1]"] ;
529 -> 531 ;
532 [label="X[1] <= 0.38\nentropy = 0.89\nsamples = 13\nvalue = [4, 9]"] ;
512 -> 532 ;
533 [label="entropy = 0.0\nsamples = 8\nvalue = [0, 8]"] ;
532 -> 533 ;
534 [label="X[1] <= 0.475\nentropy = 0.722\nsamples = 5\nvalue = [4, 1]"] ;
532 -> 534 ;
535 [label="entropy = 0.0\nsamples = 4\nvalue = [4, 0]"] ;
534 -> 535 ;
536 [label="entropy = 0.0\nsamples = 1\nvalue = [0, 1]"] ;
534 -> 536 ;
537 [label="X[8] <= 19.785\nentropy = 0.439\nsamples = 22\nvalue = [20, 2]"] ;
491 -> 537 ;
538 [label="entropy = 0.0\nsamples = 15\nvalue = [15, 0]"] ;
537 -> 538 ;
539 [label="X[159] <= 8.047\nentropy = 0.863\nsamples = 7\nvalue = [5, 2]"] ;
537 -> 539 ;
540 [label="entropy = 0.0\nsamples = 2\nvalue = [0, 2]"] ;
539 -> 540 ;
541 [label="entropy = 0.0\nsamples = 5\nvalue = [5, 0]"] ;
539 -> 541 ;
542 [label="X[25] <= 1.5\nentropy = 0.544\nsamples = 8\nvalue = [1, 7]"] ;
490 -> 542 ;
543 [label="entropy = 0.0\nsamples = 6\nvalue = [0, 6]"] ;
542 -> 543 ;
544 [label="X[110] <= 4.57\nentropy = 1.0\nsamples = 2\nvalue = [1, 1]"] ;
542 -> 544 ;
545 [label="entropy = 0.0\nsamples = 1\nvalue = [1, 0]"] ;
544 -> 545 ;
546 [label="entropy = 0.0\nsamples = 1\nvalue = [0, 1]"] ;
544 -> 546 ;
547 [label="X[1] <= 0.61\nentropy = 0.599\nsamples = 48\nvalue = [41, 7]"] ;
489 -> 547 ;
548 [label="entropy = 0.0\nsamples = 16\nvalue = [16, 0]"] ;
547 -> 548 ;
549 [label="X[2] <= 0.5\nentropy = 0.758\nsamples = 32\nvalue = [25, 7]"] ;
547 -> 549 ;
550 [label="X[3] <= 29.5\nentropy = 0.985\nsamples = 14\nvalue = [8, 6]"] ;
549 -> 550 ;
551 [label="X[26] <= 6.5\nentropy = 0.994\nsamples = 11\nvalue = [5, 6]"] ;
550 -> 551 ;
552 [label="X[85] <= 5.5\nentropy = 0.954\nsamples = 8\nvalue = [5, 3]"] ;
551 -> 552 ;
553 [label="X[36] <= 4.0\nentropy = 0.971\nsamples = 5\nvalue = [2, 3]"] ;
552 -> 553 ;
554 [label="X[3] <= 24.5\nentropy = 0.918\nsamples = 3\nvalue = [2, 1]"] ;
553 -> 554 ;
555 [label="entropy = 0.0\nsamples = 2\nvalue = [2, 0]"] ;
554 -> 555 ;
556 [label="entropy = 0.0\nsamples = 1\nvalue = [0, 1]"] ;
554 -> 556 ;
557 [label="entropy = 0.0\nsamples = 2\nvalue = [0, 2]"] ;
553 -> 557 ;
558 [label="entropy = 0.0\nsamples = 3\nvalue = [3, 0]"] ;
552 -> 558 ;
559 [label="entropy = 0.0\nsamples = 3\nvalue = [0, 3]"] ;
551 -> 559 ;
560 [label="entropy = 0.0\nsamples = 3\nvalue = [3, 0]"] ;
550 -> 560 ;
561 [label="X[8] <= 11.25\nentropy = 0.31\nsamples = 18\nvalue = [17, 1]"] ;
549 -> 561 ;
562 [label="X[140] <= 5.129\nentropy = 1.0\nsamples = 2\nvalue = [1, 1]"] ;
561 -> 562 ;
563 [label="entropy = 0.0\nsamples = 1\nvalue = [1, 0]"] ;
562 -> 563 ;
564 [label="entropy = 0.0\nsamples = 1\nvalue = [0, 1]"] ;
562 -> 564 ;
565 [label="entropy = 0.0\nsamples = 16\nvalue = [16, 0]"] ;
561 -> 565 ;
566 [label="X[1] <= 0.7\nentropy = 0.211\nsamples = 30\nvalue = [29, 1]"] ;
488 -> 566 ;
567 [label="entropy = 0.0\nsamples = 28\nvalue = [28, 0]"] ;
566 -> 567 ;
568 [label="X[150] <= 6.342\nentropy = 1.0\nsamples = 2\nvalue = [1, 1]"] ;
566 -> 568 ;
569 [label="entropy = 0.0\nsamples = 1\nvalue = [0, 1]"] ;
568 -> 569 ;
570 [label="entropy = 0.0\nsamples = 1\nvalue = [1, 0]"] ;
568 -> 570 ;
571 [label="X[85] <= 9.0\nentropy = 0.204\nsamples = 94\nvalue = [91, 3]"] ;
405 -> 571 ;
572 [label="X[145] <= 2.332\nentropy = 0.15\nsamples = 93\nvalue = [91, 2]"] ;
571 -> 572 ;
573 [label="X[8] <= 16.825\nentropy = 0.592\nsamples = 14\nvalue = [12, 2]"] ;
572 -> 573 ;
574 [label="X[52] <= 1.772\nentropy = 1.0\nsamples = 4\nvalue = [2, 2]"] ;
573 -> 574 ;
575 [label="X[1] <= 0.51\nentropy = 0.918\nsamples = 3\nvalue = [2, 1]"] ;
574 -> 575 ;
576 [label="entropy = 0.0\nsamples = 2\nvalue = [2, 0]"] ;
575 -> 576 ;
577 [label="entropy = 0.0\nsamples = 1\nvalue = [0, 1]"] ;
575 -> 577 ;
578 [label="entropy = 0.0\nsamples = 1\nvalue = [0, 1]"] ;
574 -> 578 ;
579 [label="entropy = 0.0\nsamples = 10\nvalue = [10, 0]"] ;
573 -> 579 ;
580 [label="entropy = 0.0\nsamples = 79\nvalue = [79, 0]"] ;
572 -> 580 ;
581 [label="entropy = 0.0\nsamples = 1\nvalue = [0, 1]"] ;
571 -> 581 ;
582 [label="X[85] <= 2.75\nentropy = 0.834\nsamples = 2738\nvalue = [2012, 726]"] ;
0 -> 582 [labeldistance=2.5, labelangle=-45, headlabel="False"] ;
583 [label="X[85] <= 0.75\nentropy = 0.666\nsamples = 1089\nvalue = [900, 189]"] ;
582 -> 583 ;
584 [label="X[55] <= 13.523\nentropy = 0.327\nsamples = 200\nvalue = [188, 12]"] ;
583 -> 584 ;
585 [label="X[1] <= -0.005\nentropy = 0.27\nsamples = 195\nvalue = [186, 9]"] ;
584 -> 585 ;
586 [label="entropy = 0.0\nsamples = 50\nvalue = [50, 0]"] ;
585 -> 586 ;
587 [label="X[21] <= 8.5\nentropy = 0.336\nsamples = 145\nvalue = [136, 9]"] ;
585 -> 587 ;
588 [label="X[1] <= 0.655\nentropy = 0.477\nsamples = 78\nvalue = [70, 8]"] ;
587 -> 588 ;
589 [label="X[1] <= 0.185\nentropy = 0.402\nsamples = 75\nvalue = [69, 6]"] ;
588 -> 589 ;
590 [label="X[162] <= 6.0\nentropy = 0.65\nsamples = 30\nvalue = [25, 5]"] ;
589 -> 590 ;
591 [label="entropy = 0.0\nsamples = 1\nvalue = [0, 1]"] ;
590 -> 591 ;
592 [label="X[1] <= 0.175\nentropy = 0.579\nsamples = 29\nvalue = [25, 4]"] ;
590 -> 592 ;
593 [label="X[22] <= 2.5\nentropy = 0.491\nsamples = 28\nvalue = [25, 3]"] ;
592 -> 593 ;
594 [label="X[57] <= 5.764\nentropy = 0.696\nsamples = 16\nvalue = [13, 3]"] ;
593 -> 594 ;
595 [label="X[1] <= 0.01\nentropy = 0.881\nsamples = 10\nvalue = [7, 3]"] ;
594 -> 595 ;
596 [label="entropy = 0.0\nsamples = 1\nvalue = [0, 1]"] ;
595 -> 596 ;
597 [label="X[2] <= 0.5\nentropy = 0.764\nsamples = 9\nvalue = [7, 2]"] ;
595 -> 597 ;
598 [label="entropy = 0.0\nsamples = 5\nvalue = [5, 0]"] ;
597 -> 598 ;
599 [label="X[156] <= 3.246\nentropy = 1.0\nsamples = 4\nvalue = [2, 2]"] ;
597 -> 599 ;
600 [label="entropy = 0.0\nsamples = 1\nvalue = [0, 1]"] ;
599 -> 600 ;
601 [label="X[8] <= 17.5\nentropy = 0.918\nsamples = 3\nvalue = [2, 1]"] ;
599 -> 601 ;
602 [label="X[14] <= 8.5\nentropy = 1.0\nsamples = 2\nvalue = [1, 1]"] ;
601 -> 602 ;
603 [label="entropy = 0.0\nsamples = 1\nvalue = [1, 0]"] ;
602 -> 603 ;
604 [label="entropy = 0.0\nsamples = 1\nvalue = [0, 1]"] ;
602 -> 604 ;
605 [label="entropy = 0.0\nsamples = 1\nvalue = [1, 0]"] ;
601 -> 605 ;
606 [label="entropy = 0.0\nsamples = 6\nvalue = [6, 0]"] ;
594 -> 606 ;
607 [label="entropy = 0.0\nsamples = 12\nvalue = [12, 0]"] ;
593 -> 607 ;
608 [label="entropy = 0.0\nsamples = 1\nvalue = [0, 1]"] ;
592 -> 608 ;
609 [label="X[160] <= 4.5\nentropy = 0.154\nsamples = 45\nvalue = [44, 1]"] ;
589 -> 609 ;
610 [label="X[2] <= 0.5\nentropy = 1.0\nsamples = 2\nvalue = [1, 1]"] ;
609 -> 610 ;
611 [label="entropy = 0.0\nsamples = 1\nvalue = [0, 1]"] ;
610 -> 611 ;
612 [label="entropy = 0.0\nsamples = 1\nvalue = [1, 0]"] ;
610 -> 612 ;
613 [label="entropy = 0.0\nsamples = 43\nvalue = [43, 0]"] ;
609 -> 613 ;
614 [label="X[1] <= 0.81\nentropy = 0.918\nsamples = 3\nvalue = [1, 2]"] ;
588 -> 614 ;
615 [label="entropy = 0.0\nsamples = 2\nvalue = [0, 2]"] ;
614 -> 615 ;
616 [label="entropy = 0.0\nsamples = 1\nvalue = [1, 0]"] ;
614 -> 616 ;
617 [label="X[28] <= 15.0\nentropy = 0.112\nsamples = 67\nvalue = [66, 1]"] ;
587 -> 617 ;
618 [label="entropy = 0.0\nsamples = 62\nvalue = [62, 0]"] ;
617 -> 618 ;
619 [label="X[3] <= 26.0\nentropy = 0.722\nsamples = 5\nvalue = [4, 1]"] ;
617 -> 619 ;
620 [label="entropy = 0.0\nsamples = 1\nvalue = [0, 1]"] ;
619 -> 620 ;
621 [label="entropy = 0.0\nsamples = 4\nvalue = [4, 0]"] ;
619 -> 621 ;
622 [label="X[8] <= 13.5\nentropy = 0.971\nsamples = 5\nvalue = [2, 3]"] ;
584 -> 622 ;
623 [label="entropy = 0.0\nsamples = 2\nvalue = [0, 2]"] ;
622 -> 623 ;
624 [label="X[1] <= 0.015\nentropy = 0.918\nsamples = 3\nvalue = [2, 1]"] ;
622 -> 624 ;
625 [label="entropy = 0.0\nsamples = 1\nvalue = [0, 1]"] ;
624 -> 625 ;
626 [label="entropy = 0.0\nsamples = 2\nvalue = [2, 0]"] ;
624 -> 626 ;
627 [label="X[14] <= 7.5\nentropy = 0.72\nsamples = 889\nvalue = [712, 177]"] ;
583 -> 627 ;
628 [label="X[26] <= 2.5\nentropy = 0.616\nsamples = 367\nvalue = [311, 56]"] ;
627 -> 628 ;
629 [label="X[20] <= 28.0\nentropy = 1.0\nsamples = 12\nvalue = [6, 6]"] ;
628 -> 629 ;
630 [label="X[38] <= 6.0\nentropy = 0.863\nsamples = 7\nvalue = [5, 2]"] ;
629 -> 630 ;
631 [label="entropy = 0.0\nsamples = 1\nvalue = [0, 1]"] ;
630 -> 631 ;
632 [label="X[1] <= -0.09\nentropy = 0.65\nsamples = 6\nvalue = [5, 1]"] ;
630 -> 632 ;
633 [label="X[1] <= -0.34\nentropy = 1.0\nsamples = 2\nvalue = [1, 1]"] ;
632 -> 633 ;
634 [label="entropy = 0.0\nsamples = 1\nvalue = [1, 0]"] ;
633 -> 634 ;
635 [label="entropy = 0.0\nsamples = 1\nvalue = [0, 1]"] ;
633 -> 635 ;
636 [label="entropy = 0.0\nsamples = 4\nvalue = [4, 0]"] ;
632 -> 636 ;
637 [label="X[1] <= -0.465\nentropy = 0.722\nsamples = 5\nvalue = [1, 4]"] ;
629 -> 637 ;
638 [label="entropy = 0.0\nsamples = 1\nvalue = [1, 0]"] ;
637 -> 638 ;
639 [label="entropy = 0.0\nsamples = 4\nvalue = [0, 4]"] ;
637 -> 639 ;
640 [label="X[47] <= 2.5\nentropy = 0.586\nsamples = 355\nvalue = [305, 50]"] ;
628 -> 640 ;
641 [label="entropy = 0.0\nsamples = 23\nvalue = [23, 0]"] ;
640 -> 641 ;
642 [label="X[20] <= 28.5\nentropy = 0.611\nsamples = 332\nvalue = [282, 50]"] ;
640 -> 642 ;
643 [label="X[20] <= 24.5\nentropy = 0.674\nsamples = 254\nvalue = [209, 45]"] ;
642 -> 643 ;
644 [label="X[8] <= 15.5\nentropy = 0.463\nsamples = 102\nvalue = [92, 10]"] ;
643 -> 644 ;
645 [label="X[1] <= -0.195\nentropy = 0.151\nsamples = 46\nvalue = [45, 1]"] ;
644 -> 645 ;
646 [label="X[27] <= 2.5\nentropy = 0.722\nsamples = 5\nvalue = [4, 1]"] ;
645 -> 646 ;
647 [label="entropy = 0.0\nsamples = 1\nvalue = [0, 1]"] ;
646 -> 647 ;
648 [label="entropy = 0.0\nsamples = 4\nvalue = [4, 0]"] ;
646 -> 648 ;
649 [label="entropy = 0.0\nsamples = 41\nvalue = [41, 0]"] ;
645 -> 649 ;
650 [label="X[1] <= 0.405\nentropy = 0.636\nsamples = 56\nvalue = [47, 9]"] ;
644 -> 650 ;
651 [label="X[1] <= -0.305\nentropy = 0.384\nsamples = 40\nvalue = [37, 3]"] ;
650 -> 651 ;
652 [label="X[1] <= -0.34\nentropy = 1.0\nsamples = 4\nvalue = [2, 2]"] ;
651 -> 652 ;
653 [label="entropy = 0.0\nsamples = 2\nvalue = [2, 0]"] ;
652 -> 653 ;
654 [label="entropy = 0.0\nsamples = 2\nvalue = [0, 2]"] ;
652 -> 654 ;
655 [label="X[38] <= 5.5\nentropy = 0.183\nsamples = 36\nvalue = [35, 1]"] ;
651 -> 655 ;
656 [label="X[140] <= 4.832\nentropy = 0.918\nsamples = 3\nvalue = [2, 1]"] ;
655 -> 656 ;
657 [label="entropy = 0.0\nsamples = 2\nvalue = [2, 0]"] ;
656 -> 657 ;
658 [label="entropy = 0.0\nsamples = 1\nvalue = [0, 1]"] ;
656 -> 658 ;
659 [label="entropy = 0.0\nsamples = 33\nvalue = [33, 0]"] ;
655 -> 659 ;
660 [label="X[8] <= 17.89\nentropy = 0.954\nsamples = 16\nvalue = [10, 6]"] ;
650 -> 660 ;
661 [label="entropy = 0.0\nsamples = 3\nvalue = [0, 3]"] ;
660 -> 661 ;
662 [label="X[38] <= 9.5\nentropy = 0.779\nsamples = 13\nvalue = [10, 3]"] ;
660 -> 662 ;
663 [label="X[8] <= 27.5\nentropy = 0.469\nsamples = 10\nvalue = [9, 1]"] ;
662 -> 663 ;
664 [label="entropy = 0.0\nsamples = 9\nvalue = [9, 0]"] ;
663 -> 664 ;
665 [label="entropy = 0.0\nsamples = 1\nvalue = [0, 1]"] ;
663 -> 665 ;
666 [label="X[100] <= 6.23\nentropy = 0.918\nsamples = 3\nvalue = [1, 2]"] ;
662 -> 666 ;
667 [label="entropy = 0.0\nsamples = 2\nvalue = [0, 2]"] ;
666 -> 667 ;
668 [label="entropy = 0.0\nsamples = 1\nvalue = [1, 0]"] ;
666 -> 668 ;
669 [label="X[21] <= 7.331\nentropy = 0.778\nsamples = 152\nvalue = [117, 35]"] ;
643 -> 669 ;
670 [label="X[160] <= 7.5\nentropy = 0.974\nsamples = 37\nvalue = [22, 15]"] ;
669 -> 670 ;
671 [label="X[1] <= 0.11\nentropy = 0.918\nsamples = 12\nvalue = [4, 8]"] ;
670 -> 671 ;
672 [label="X[1] <= -0.2\nentropy = 0.811\nsamples = 4\nvalue = [3, 1]"] ;
671 -> 672 ;
673 [label="entropy = 0.0\nsamples = 1\nvalue = [0, 1]"] ;
672 -> 673 ;
674 [label="entropy = 0.0\nsamples = 3\nvalue = [3, 0]"] ;
672 -> 674 ;
675 [label="X[1] <= 0.6\nentropy = 0.544\nsamples = 8\nvalue = [1, 7]"] ;
671 -> 675 ;
676 [label="entropy = 0.0\nsamples = 7\nvalue = [0, 7]"] ;
675 -> 676 ;
677 [label="entropy = 0.0\nsamples = 1\nvalue = [1, 0]"] ;
675 -> 677 ;
678 [label="X[145] <= 6.528\nentropy = 0.855\nsamples = 25\nvalue = [18, 7]"] ;
670 -> 678 ;
679 [label="X[159] <= 8.547\nentropy = 0.934\nsamples = 20\nvalue = [13, 7]"] ;
678 -> 679 ;
680 [label="X[1] <= 0.005\nentropy = 0.977\nsamples = 17\nvalue = [10, 7]"] ;
679 -> 680 ;
681 [label="X[8] <= 12.5\nentropy = 0.811\nsamples = 4\nvalue = [1, 3]"] ;
680 -> 681 ;
682 [label="entropy = 0.0\nsamples = 1\nvalue = [1, 0]"] ;
681 -> 682 ;
683 [label="entropy = 0.0\nsamples = 3\nvalue = [0, 3]"] ;
681 -> 683 ;
684 [label="X[137] <= 5.298\nentropy = 0.89\nsamples = 13\nvalue = [9, 4]"] ;
680 -> 684 ;
685 [label="X[1] <= 0.285\nentropy = 0.971\nsamples = 10\nvalue = [6, 4]"] ;
684 -> 685 ;
686 [label="entropy = 0.0\nsamples = 2\nvalue = [2, 0]"] ;
685 -> 686 ;
687 [label="X[26] <= 4.5\nentropy = 1.0\nsamples = 8\nvalue = [4, 4]"] ;
685 -> 687 ;
688 [label="entropy = 0.0\nsamples = 1\nvalue = [0, 1]"] ;
687 -> 688 ;
689 [label="X[3] <= 31.0\nentropy = 0.985\nsamples = 7\nvalue = [4, 3]"] ;
687 -> 689 ;
690 [label="X[1] <= 0.415\nentropy = 0.918\nsamples = 6\nvalue = [4, 2]"] ;
689 -> 690 ;
691 [label="entropy = 0.0\nsamples = 2\nvalue = [2, 0]"] ;
690 -> 691 ;
692 [label="X[141] <= 3.264\nentropy = 1.0\nsamples = 4\nvalue = [2, 2]"] ;
690 -> 692 ;
693 [label="entropy = 0.0\nsamples = 1\nvalue = [1, 0]"] ;
692 -> 693 ;
694 [label="X[1] <= 0.765\nentropy = 0.918\nsamples = 3\nvalue = [1, 2]"] ;
692 -> 694 ;
695 [label="entropy = 0.0\nsamples = 2\nvalue = [0, 2]"] ;
694 -> 695 ;
696 [label="entropy = 0.0\nsamples = 1\nvalue = [1, 0]"] ;
694 -> 696 ;
697 [label="entropy = 0.0\nsamples = 1\nvalue = [0, 1]"] ;
689 -> 697 ;
698 [label="entropy = 0.0\nsamples = 3\nvalue = [3, 0]"] ;
684 -> 698 ;
699 [label="entropy = 0.0\nsamples = 3\nvalue = [3, 0]"] ;
679 -> 699 ;
700 [label="entropy = 0.0\nsamples = 5\nvalue = [5, 0]"] ;
678 -> 700 ;
701 [label="X[161] <= 5.5\nentropy = 0.667\nsamples = 115\nvalue = [95, 20]"] ;
669 -> 701 ;
702 [label="entropy = 0.0\nsamples = 3\nvalue = [0, 3]"] ;
701 -> 702 ;
703 [label="X[161] <= 9.5\nentropy = 0.614\nsamples = 112\nvalue = [95, 17]"] ;
701 -> 703 ;
704 [label="X[36] <= 5.5\nentropy = 0.544\nsamples = 104\nvalue = [91, 13]"] ;
703 -> 704 ;
705 [label="X[8] <= 32.5\nentropy = 0.364\nsamples = 72\nvalue = [67, 5]"] ;
704 -> 705 ;
706 [label="X[47] <= 4.285\nentropy = 0.313\nsamples = 71\nvalue = [67, 4]"] ;
705 -> 706 ;
707 [label="entropy = 0.0\nsamples = 1\nvalue = [0, 1]"] ;
706 -> 707 ;
708 [label="X[161] <= 6.5\nentropy = 0.255\nsamples = 70\nvalue = [67, 3]"] ;
706 -> 708 ;
709 [label="X[8] <= 11.0\nentropy = 0.918\nsamples = 6\nvalue = [4, 2]"] ;
708 -> 709 ;
710 [label="entropy = 0.0\nsamples = 1\nvalue = [0, 1]"] ;
709 -> 710 ;
711 [label="X[1] <= 0.53\nentropy = 0.722\nsamples = 5\nvalue = [4, 1]"] ;
709 -> 711 ;
712 [label="entropy = 0.0\nsamples = 4\nvalue = [4, 0]"] ;
711 -> 712 ;
713 [label="entropy = 0.0\nsamples = 1\nvalue = [0, 1]"] ;
711 -> 713 ;
714 [label="X[22] <= 1.5\nentropy = 0.116\nsamples = 64\nvalue = [63, 1]"] ;
708 -> 714 ;
715 [label="X[105] <= 9.028\nentropy = 1.0\nsamples = 2\nvalue = [1, 1]"] ;
714 -> 715 ;
716 [label="entropy = 0.0\nsamples = 1\nvalue = [1, 0]"] ;
715 -> 716 ;
717 [label="entropy = 0.0\nsamples = 1\nvalue = [0, 1]"] ;
715 -> 717 ;
718 [label="entropy = 0.0\nsamples = 62\nvalue = [62, 0]"] ;
714 -> 718 ;
719 [label="entropy = 0.0\nsamples = 1\nvalue = [0, 1]"] ;
705 -> 719 ;
720 [label="X[1] <= 0.055\nentropy = 0.811\nsamples = 32\nvalue = [24, 8]"] ;
704 -> 720 ;
721 [label="X[1] <= -0.535\nentropy = 0.353\nsamples = 15\nvalue = [14, 1]"] ;
720 -> 721 ;
722 [label="X[27] <= 1.5\nentropy = 0.918\nsamples = 3\nvalue = [2, 1]"] ;
721 -> 722 ;
723 [label="entropy = 0.0\nsamples = 2\nvalue = [2, 0]"] ;
722 -> 723 ;
724 [label="entropy = 0.0\nsamples = 1\nvalue = [0, 1]"] ;
722 -> 724 ;
725 [label="entropy = 0.0\nsamples = 12\nvalue = [12, 0]"] ;
721 -> 725 ;
726 [label="X[28] <= 9.5\nentropy = 0.977\nsamples = 17\nvalue = [10, 7]"] ;
720 -> 726 ;
727 [label="X[27] <= 3.5\nentropy = 0.946\nsamples = 11\nvalue = [4, 7]"] ;
726 -> 727 ;
728 [label="X[1] <= 0.29\nentropy = 0.881\nsamples = 10\nvalue = [3, 7]"] ;
727 -> 728 ;
729 [label="X[8] <= 16.14\nentropy = 1.0\nsamples = 6\nvalue = [3, 3]"] ;
728 -> 729 ;
730 [label="entropy = 0.0\nsamples = 2\nvalue = [2, 0]"] ;
729 -> 730 ;
731 [label="X[8] <= 24.405\nentropy = 0.811\nsamples = 4\nvalue = [1, 3]"] ;
729 -> 731 ;
732 [label="entropy = 0.0\nsamples = 3\nvalue = [0, 3]"] ;
731 -> 732 ;
733 [label="entropy = 0.0\nsamples = 1\nvalue = [1, 0]"] ;
731 -> 733 ;
734 [label="entropy = 0.0\nsamples = 4\nvalue = [0, 4]"] ;
728 -> 734 ;
735 [label="entropy = 0.0\nsamples = 1\nvalue = [1, 0]"] ;
727 -> 735 ;
736 [label="entropy = 0.0\nsamples = 6\nvalue = [6, 0]"] ;
726 -> 736 ;
737 [label="X[3] <= 27.5\nentropy = 1.0\nsamples = 8\nvalue = [4, 4]"] ;
703 -> 737 ;
738 [label="X[3] <= 23.5\nentropy = 0.811\nsamples = 4\nvalue = [1, 3]"] ;
737 -> 738 ;
739 [label="entropy = 0.0\nsamples = 1\nvalue = [1, 0]"] ;
738 -> 739 ;
740 [label="entropy = 0.0\nsamples = 3\nvalue = [0, 3]"] ;
738 -> 740 ;
741 [label="X[2] <= 0.5\nentropy = 0.811\nsamples = 4\nvalue = [3, 1]"] ;
737 -> 741 ;
742 [label="X[1] <= 0.18\nentropy = 1.0\nsamples = 2\nvalue = [1, 1]"] ;
741 -> 742 ;
743 [label="entropy = 0.0\nsamples = 1\nvalue = [1, 0]"] ;
742 -> 743 ;
744 [label="entropy = 0.0\nsamples = 1\nvalue = [0, 1]"] ;
742 -> 744 ;
745 [label="entropy = 0.0\nsamples = 2\nvalue = [2, 0]"] ;
741 -> 745 ;
746 [label="X[1] <= 0.395\nentropy = 0.344\nsamples = 78\nvalue = [73, 5]"] ;
642 -> 746 ;
747 [label="X[36] <= 2.5\nentropy = 0.496\nsamples = 46\nvalue = [41, 5]"] ;
746 -> 747 ;
748 [label="X[20] <= 32.5\nentropy = 0.691\nsamples = 27\nvalue = [22, 5]"] ;
747 -> 748 ;
749 [label="X[21] <= 7.5\nentropy = 0.454\nsamples = 21\nvalue = [19, 2]"] ;
748 -> 749 ;
750 [label="X[8] <= 20.205\nentropy = 0.811\nsamples = 8\nvalue = [6, 2]"] ;
749 -> 750 ;
751 [label="X[8] <= 15.92\nentropy = 1.0\nsamples = 4\nvalue = [2, 2]"] ;
750 -> 751 ;
752 [label="entropy = 0.0\nsamples = 2\nvalue = [2, 0]"] ;
751 -> 752 ;
753 [label="entropy = 0.0\nsamples = 2\nvalue = [0, 2]"] ;
751 -> 753 ;
754 [label="entropy = 0.0\nsamples = 4\nvalue = [4, 0]"] ;
750 -> 754 ;
755 [label="entropy = 0.0\nsamples = 13\nvalue = [13, 0]"] ;
749 -> 755 ;
756 [label="X[8] <= 12.5\nentropy = 1.0\nsamples = 6\nvalue = [3, 3]"] ;
748 -> 756 ;
757 [label="entropy = 0.0\nsamples = 2\nvalue = [0, 2]"] ;
756 -> 757 ;
758 [label="X[8] <= 17.995\nentropy = 0.811\nsamples = 4\nvalue = [3, 1]"] ;
756 -> 758 ;
759 [label="entropy = 0.0\nsamples = 3\nvalue = [3, 0]"] ;
758 -> 759 ;
760 [label="entropy = 0.0\nsamples = 1\nvalue = [0, 1]"] ;
758 -> 760 ;
761 [label="entropy = 0.0\nsamples = 19\nvalue = [19, 0]"] ;
747 -> 761 ;
762 [label="entropy = 0.0\nsamples = 32\nvalue = [32, 0]"] ;
746 -> 762 ;
763 [label="X[3] <= 28.5\nentropy = 0.781\nsamples = 522\nvalue = [401, 121]"] ;
627 -> 763 ;
764 [label="X[162] <= 8.5\nentropy = 0.825\nsamples = 402\nvalue = [298, 104]"] ;
763 -> 764 ;
765 [label="X[28] <= 4.5\nentropy = 0.857\nsamples = 338\nvalue = [243, 95]"] ;
764 -> 765 ;
766 [label="X[106] <= 2.332\nentropy = 0.934\nsamples = 120\nvalue = [78, 42]"] ;
765 -> 766 ;
767 [label="X[20] <= 29.5\nentropy = 0.619\nsamples = 26\nvalue = [22, 4]"] ;
766 -> 767 ;
768 [label="X[14] <= 8.5\nentropy = 0.837\nsamples = 15\nvalue = [11, 4]"] ;
767 -> 768 ;
769 [label="X[27] <= 2.5\nentropy = 0.971\nsamples = 10\nvalue = [6, 4]"] ;
768 -> 769 ;
770 [label="X[159] <= 7.547\nentropy = 0.811\nsamples = 8\nvalue = [6, 2]"] ;
769 -> 770 ;
771 [label="entropy = 0.0\nsamples = 4\nvalue = [4, 0]"] ;
770 -> 771 ;
772 [label="X[8] <= 18.09\nentropy = 1.0\nsamples = 4\nvalue = [2, 2]"] ;
770 -> 772 ;
773 [label="entropy = 0.0\nsamples = 2\nvalue = [0, 2]"] ;
772 -> 773 ;
774 [label="entropy = 0.0\nsamples = 2\nvalue = [2, 0]"] ;
772 -> 774 ;
775 [label="entropy = 0.0\nsamples = 2\nvalue = [0, 2]"] ;
769 -> 775 ;
776 [label="entropy = 0.0\nsamples = 5\nvalue = [5, 0]"] ;
768 -> 776 ;
777 [label="entropy = 0.0\nsamples = 11\nvalue = [11, 0]"] ;
767 -> 777 ;
778 [label="X[141] <= 11.191\nentropy = 0.973\nsamples = 94\nvalue = [56, 38]"] ;
766 -> 778 ;
779 [label="X[36] <= 7.5\nentropy = 0.982\nsamples = 90\nvalue = [52, 38]"] ;
778 -> 779 ;
780 [label="X[158] <= 6.5\nentropy = 0.988\nsamples = 87\nvalue = [49, 38]"] ;
779 -> 780 ;
781 [label="X[117] <= 3.264\nentropy = 0.971\nsamples = 20\nvalue = [8, 12]"] ;
780 -> 781 ;
782 [label="entropy = 0.0\nsamples = 2\nvalue = [2, 0]"] ;
781 -> 782 ;
783 [label="X[1] <= -0.18\nentropy = 0.918\nsamples = 18\nvalue = [6, 12]"] ;
781 -> 783 ;
784 [label="entropy = 0.0\nsamples = 3\nvalue = [0, 3]"] ;
783 -> 784 ;
785 [label="X[1] <= 0.085\nentropy = 0.971\nsamples = 15\nvalue = [6, 9]"] ;
783 -> 785 ;
786 [label="X[28] <= 2.5\nentropy = 0.722\nsamples = 5\nvalue = [4, 1]"] ;
785 -> 786 ;
787 [label="entropy = 0.0\nsamples = 4\nvalue = [4, 0]"] ;
786 -> 787 ;
788 [label="entropy = 0.0\nsamples = 1\nvalue = [0, 1]"] ;
786 -> 788 ;
789 [label="X[3] <= 27.5\nentropy = 0.722\nsamples = 10\nvalue = [2, 8]"] ;
785 -> 789 ;
790 [label="X[1] <= 0.63\nentropy = 0.503\nsamples = 9\nvalue = [1, 8]"] ;
789 -> 790 ;
791 [label="entropy = 0.0\nsamples = 8\nvalue = [0, 8]"] ;
790 -> 791 ;
792 [label="entropy = 0.0\nsamples = 1\nvalue = [1, 0]"] ;
790 -> 792 ;
793 [label="entropy = 0.0\nsamples = 1\nvalue = [1, 0]"] ;
789 -> 793 ;
794 [label="X[3] <= 27.5\nentropy = 0.964\nsamples = 67\nvalue = [41, 26]"] ;
780 -> 794 ;
795 [label="X[20] <= 22.5\nentropy = 0.938\nsamples = 62\nvalue = [40, 22]"] ;
794 -> 795 ;
796 [label="entropy = 0.0\nsamples = 4\nvalue = [4, 0]"] ;
795 -> 796 ;
797 [label="X[1] <= 0.235\nentropy = 0.958\nsamples = 58\nvalue = [36, 22]"] ;
795 -> 797 ;
798 [label="X[14] <= 9.5\nentropy = 0.999\nsamples = 33\nvalue = [17, 16]"] ;
797 -> 798 ;
799 [label="X[21] <= 4.5\nentropy = 0.997\nsamples = 30\nvalue = [14, 16]"] ;
798 -> 799 ;
800 [label="X[36] <= 5.5\nentropy = 0.764\nsamples = 9\nvalue = [7, 2]"] ;
799 -> 800 ;
801 [label="entropy = 0.0\nsamples = 6\nvalue = [6, 0]"] ;
800 -> 801 ;
802 [label="X[8] <= 13.73\nentropy = 0.918\nsamples = 3\nvalue = [1, 2]"] ;
800 -> 802 ;
803 [label="entropy = 0.0\nsamples = 1\nvalue = [0, 1]"] ;
802 -> 803 ;
804 [label="X[14] <= 8.5\nentropy = 1.0\nsamples = 2\nvalue = [1, 1]"] ;
802 -> 804 ;
805 [label="entropy = 0.0\nsamples = 1\nvalue = [1, 0]"] ;
804 -> 805 ;
806 [label="entropy = 0.0\nsamples = 1\nvalue = [0, 1]"] ;
804 -> 806 ;
807 [label="X[162] <= 5.5\nentropy = 0.918\nsamples = 21\nvalue = [7, 14]"] ;
799 -> 807 ;
808 [label="entropy = 0.0\nsamples = 2\nvalue = [2, 0]"] ;
807 -> 808 ;
809 [label="X[21] <= 7.5\nentropy = 0.831\nsamples = 19\nvalue = [5, 14]"] ;
807 -> 809 ;
810 [label="entropy = 0.0\nsamples = 5\nvalue = [0, 5]"] ;
809 -> 810 ;
811 [label="X[21] <= 8.5\nentropy = 0.94\nsamples = 14\nvalue = [5, 9]"] ;
809 -> 811 ;
812 [label="entropy = 0.0\nsamples = 1\nvalue = [1, 0]"] ;
811 -> 812 ;
813 [label="X[3] <= 25.5\nentropy = 0.89\nsamples = 13\nvalue = [4, 9]"] ;
811 -> 813 ;
814 [label="entropy = 0.0\nsamples = 5\nvalue = [0, 5]"] ;
813 -> 814 ;
815 [label="X[1] <= 0.025\nentropy = 1.0\nsamples = 8\nvalue = [4, 4]"] ;
813 -> 815 ;
816 [label="entropy = 0.0\nsamples = 2\nvalue = [0, 2]"] ;
815 -> 816 ;
817 [label="X[1] <= 0.13\nentropy = 0.918\nsamples = 6\nvalue = [4, 2]"] ;
815 -> 817 ;
818 [label="entropy = 0.0\nsamples = 3\nvalue = [3, 0]"] ;
817 -> 818 ;
819 [label="X[3] <= 26.5\nentropy = 0.918\nsamples = 3\nvalue = [1, 2]"] ;
817 -> 819 ;
820 [label="entropy = 0.0\nsamples = 1\nvalue = [1, 0]"] ;
819 -> 820 ;
821 [label="entropy = 0.0\nsamples = 2\nvalue = [0, 2]"] ;
819 -> 821 ;
822 [label="entropy = 0.0\nsamples = 3\nvalue = [3, 0]"] ;
798 -> 822 ;
823 [label="X[36] <= 1.5\nentropy = 0.795\nsamples = 25\nvalue = [19, 6]"] ;
797 -> 823 ;
824 [label="X[20] <= 25.0\nentropy = 0.991\nsamples = 9\nvalue = [4, 5]"] ;
823 -> 824 ;
825 [label="entropy = 0.0\nsamples = 3\nvalue = [0, 3]"] ;
824 -> 825 ;
826 [label="X[3] <= 25.5\nentropy = 0.918\nsamples = 6\nvalue = [4, 2]"] ;
824 -> 826 ;
827 [label="X[8] <= 12.5\nentropy = 0.918\nsamples = 3\nvalue = [1, 2]"] ;
826 -> 827 ;
828 [label="entropy = 0.0\nsamples = 1\nvalue = [1, 0]"] ;
827 -> 828 ;
829 [label="entropy = 0.0\nsamples = 2\nvalue = [0, 2]"] ;
827 -> 829 ;
830 [label="entropy = 0.0\nsamples = 3\nvalue = [3, 0]"] ;
826 -> 830 ;
831 [label="X[89] <= 3.264\nentropy = 0.337\nsamples = 16\nvalue = [15, 1]"] ;
823 -> 831 ;
832 [label="entropy = 0.0\nsamples = 1\nvalue = [0, 1]"] ;
831 -> 832 ;
833 [label="entropy = 0.0\nsamples = 15\nvalue = [15, 0]"] ;
831 -> 833 ;
834 [label="X[161] <= 7.829\nentropy = 0.722\nsamples = 5\nvalue = [1, 4]"] ;
794 -> 834 ;
835 [label="entropy = 0.0\nsamples = 4\nvalue = [0, 4]"] ;
834 -> 835 ;
836 [label="entropy = 0.0\nsamples = 1\nvalue = [1, 0]"] ;
834 -> 836 ;
837 [label="entropy = 0.0\nsamples = 3\nvalue = [3, 0]"] ;
779 -> 837 ;
838 [label="entropy = 0.0\nsamples = 4\nvalue = [4, 0]"] ;
778 -> 838 ;
839 [label="X[22] <= 5.0\nentropy = 0.8\nsamples = 218\nvalue = [165, 53]"] ;
765 -> 839 ;
840 [label="X[47] <= 5.785\nentropy = 0.778\nsamples = 213\nvalue = [164, 49]"] ;
839 -> 840 ;
841 [label="X[26] <= 2.5\nentropy = 0.803\nsamples = 200\nvalue = [151, 49]"] ;
840 -> 841 ;
842 [label="X[3] <= 23.5\nentropy = 0.722\nsamples = 5\nvalue = [1, 4]"] ;
841 -> 842 ;
843 [label="entropy = 0.0\nsamples = 1\nvalue = [1, 0]"] ;
842 -> 843 ;
844 [label="entropy = 0.0\nsamples = 4\nvalue = [0, 4]"] ;
842 -> 844 ;
845 [label="X[8] <= 15.28\nentropy = 0.779\nsamples = 195\nvalue = [150, 45]"] ;
841 -> 845 ;
846 [label="X[161] <= 7.829\nentropy = 0.562\nsamples = 76\nvalue = [66, 10]"] ;
845 -> 846 ;
847 [label="X[8] <= 13.82\nentropy = 0.65\nsamples = 60\nvalue = [50, 10]"] ;
846 -> 847 ;
848 [label="X[160] <= 6.0\nentropy = 0.837\nsamples = 30\nvalue = [22, 8]"] ;
847 -> 848 ;
849 [label="entropy = 0.0\nsamples = 2\nvalue = [0, 2]"] ;
848 -> 849 ;
850 [label="X[8] <= 11.5\nentropy = 0.75\nsamples = 28\nvalue = [22, 6]"] ;
848 -> 850 ;
851 [label="X[36] <= 8.5\nentropy = 0.619\nsamples = 26\nvalue = [22, 4]"] ;
850 -> 851 ;
852 [label="X[1] <= 0.28\nentropy = 0.529\nsamples = 25\nvalue = [22, 3]"] ;
851 -> 852 ;
853 [label="entropy = 0.0\nsamples = 14\nvalue = [14, 0]"] ;
852 -> 853 ;
854 [label="X[1] <= 0.37\nentropy = 0.845\nsamples = 11\nvalue = [8, 3]"] ;
852 -> 854 ;
855 [label="entropy = 0.0\nsamples = 2\nvalue = [0, 2]"] ;
854 -> 855 ;
856 [label="X[161] <= 6.0\nentropy = 0.503\nsamples = 9\nvalue = [8, 1]"] ;
854 -> 856 ;
857 [label="entropy = 0.0\nsamples = 1\nvalue = [0, 1]"] ;
856 -> 857 ;
858 [label="entropy = 0.0\nsamples = 8\nvalue = [8, 0]"] ;
856 -> 858 ;
859 [label="entropy = 0.0\nsamples = 1\nvalue = [0, 1]"] ;
851 -> 859 ;
860 [label="entropy = 0.0\nsamples = 2\nvalue = [0, 2]"] ;
850 -> 860 ;
861 [label="X[20] <= 21.5\nentropy = 0.353\nsamples = 30\nvalue = [28, 2]"] ;
847 -> 861 ;
862 [label="X[3] <= 21.5\nentropy = 0.918\nsamples = 3\nvalue = [1, 2]"] ;
861 -> 862 ;
863 [label="entropy = 0.0\nsamples = 1\nvalue = [0, 1]"] ;
862 -> 863 ;
864 [label="X[21] <= 4.5\nentropy = 1.0\nsamples = 2\nvalue = [1, 1]"] ;
862 -> 864 ;
865 [label="entropy = 0.0\nsamples = 1\nvalue = [0, 1]"] ;
864 -> 865 ;
866 [label="entropy = 0.0\nsamples = 1\nvalue = [1, 0]"] ;
864 -> 866 ;
867 [label="entropy = 0.0\nsamples = 27\nvalue = [27, 0]"] ;
861 -> 867 ;
868 [label="entropy = 0.0\nsamples = 16\nvalue = [16, 0]"] ;
846 -> 868 ;
869 [label="X[159] <= 9.5\nentropy = 0.874\nsamples = 119\nvalue = [84, 35]"] ;
845 -> 869 ;
870 [label="X[1] <= 0.695\nentropy = 0.841\nsamples = 115\nvalue = [84, 31]"] ;
869 -> 870 ;
871 [label="X[27] <= 3.5\nentropy = 0.822\nsamples = 113\nvalue = [84, 29]"] ;
870 -> 871 ;
872 [label="X[8] <= 21.205\nentropy = 0.858\nsamples = 103\nvalue = [74, 29]"] ;
871 -> 872 ;
873 [label="X[87] <= 1.399\nentropy = 0.922\nsamples = 80\nvalue = [53, 27]"] ;
872 -> 873 ;
874 [label="entropy = 0.0\nsamples = 5\nvalue = [5, 0]"] ;
873 -> 874 ;
875 [label="X[159] <= 6.5\nentropy = 0.943\nsamples = 75\nvalue = [48, 27]"] ;
873 -> 875 ;
876 [label="entropy = 0.0\nsamples = 4\nvalue = [4, 0]"] ;
875 -> 876 ;
877 [label="X[38] <= 3.5\nentropy = 0.958\nsamples = 71\nvalue = [44, 27]"] ;
875 -> 877 ;
878 [label="entropy = 0.0\nsamples = 4\nvalue = [4, 0]"] ;
877 -> 878 ;
879 [label="X[161] <= 7.829\nentropy = 0.973\nsamples = 67\nvalue = [40, 27]"] ;
877 -> 879 ;
880 [label="X[8] <= 16.5\nentropy = 0.994\nsamples = 55\nvalue = [30, 25]"] ;
879 -> 880 ;
881 [label="entropy = 0.0\nsamples = 3\nvalue = [0, 3]"] ;
880 -> 881 ;
882 [label="X[3] <= 26.682\nentropy = 0.983\nsamples = 52\nvalue = [30, 22]"] ;
880 -> 882 ;
883 [label="X[21] <= 14.0\nentropy = 0.999\nsamples = 37\nvalue = [18, 19]"] ;
882 -> 883 ;
884 [label="X[3] <= 22.5\nentropy = 0.99\nsamples = 34\nvalue = [15, 19]"] ;
883 -> 884 ;
885 [label="X[26] <= 5.5\nentropy = 0.881\nsamples = 10\nvalue = [7, 3]"] ;
884 -> 885 ;
886 [label="entropy = 0.0\nsamples = 2\nvalue = [0, 2]"] ;
885 -> 886 ;
887 [label="X[21] <= 3.0\nentropy = 0.544\nsamples = 8\nvalue = [7, 1]"] ;
885 -> 887 ;
888 [label="entropy = 0.0\nsamples = 1\nvalue = [0, 1]"] ;
887 -> 888 ;
889 [label="entropy = 0.0\nsamples = 7\nvalue = [7, 0]"] ;
887 -> 889 ;
890 [label="X[85] <= 1.5\nentropy = 0.918\nsamples = 24\nvalue = [8, 16]"] ;
884 -> 890 ;
891 [label="entropy = 0.0\nsamples = 5\nvalue = [0, 5]"] ;
890 -> 891 ;
892 [label="X[14] <= 8.5\nentropy = 0.982\nsamples = 19\nvalue = [8, 11]"] ;
890 -> 892 ;
893 [label="X[114] <= 2.332\nentropy = 0.98\nsamples = 12\nvalue = [7, 5]"] ;
892 -> 893 ;
894 [label="entropy = 0.0\nsamples = 2\nvalue = [0, 2]"] ;
893 -> 894 ;
895 [label="X[20] <= 26.5\nentropy = 0.881\nsamples = 10\nvalue = [7, 3]"] ;
893 -> 895 ;
896 [label="entropy = 0.0\nsamples = 5\nvalue = [5, 0]"] ;
895 -> 896 ;
897 [label="X[27] <= 1.5\nentropy = 0.971\nsamples = 5\nvalue = [2, 3]"] ;
895 -> 897 ;
898 [label="entropy = 0.0\nsamples = 3\nvalue = [0, 3]"] ;
897 -> 898 ;
899 [label="entropy = 0.0\nsamples = 2\nvalue = [2, 0]"] ;
897 -> 899 ;
900 [label="X[1] <= -0.3\nentropy = 0.592\nsamples = 7\nvalue = [1, 6]"] ;
892 -> 900 ;
901 [label="entropy = 0.0\nsamples = 1\nvalue = [1, 0]"] ;
900 -> 901 ;
902 [label="entropy = 0.0\nsamples = 6\nvalue = [0, 6]"] ;
900 -> 902 ;
903 [label="entropy = 0.0\nsamples = 3\nvalue = [3, 0]"] ;
883 -> 903 ;
904 [label="X[2] <= 0.5\nentropy = 0.722\nsamples = 15\nvalue = [12, 3]"] ;
882 -> 904 ;
905 [label="entropy = 0.0\nsamples = 9\nvalue = [9, 0]"] ;
904 -> 905 ;
906 [label="X[139] <= 3.433\nentropy = 1.0\nsamples = 6\nvalue = [3, 3]"] ;
904 -> 906 ;
907 [label="entropy = 0.0\nsamples = 2\nvalue = [0, 2]"] ;
906 -> 907 ;
908 [label="X[26] <= 6.5\nentropy = 0.811\nsamples = 4\nvalue = [3, 1]"] ;
906 -> 908 ;
909 [label="entropy = 0.0\nsamples = 3\nvalue = [3, 0]"] ;
908 -> 909 ;
910 [label="entropy = 0.0\nsamples = 1\nvalue = [0, 1]"] ;
908 -> 910 ;
911 [label="X[20] <= 24.5\nentropy = 0.65\nsamples = 12\nvalue = [10, 2]"] ;
879 -> 911 ;
912 [label="entropy = 0.0\nsamples = 1\nvalue = [0, 1]"] ;
911 -> 912 ;
913 [label="X[8] <= 20.205\nentropy = 0.439\nsamples = 11\nvalue = [10, 1]"] ;
911 -> 913 ;
914 [label="entropy = 0.0\nsamples = 10\nvalue = [10, 0]"] ;
913 -> 914 ;
915 [label="entropy = 0.0\nsamples = 1\nvalue = [0, 1]"] ;
913 -> 915 ;
916 [label="X[26] <= 6.5\nentropy = 0.426\nsamples = 23\nvalue = [21, 2]"] ;
872 -> 916 ;
917 [label="entropy = 0.0\nsamples = 19\nvalue = [19, 0]"] ;
916 -> 917 ;
918 [label="X[1] <= 0.155\nentropy = 1.0\nsamples = 4\nvalue = [2, 2]"] ;
916 -> 918 ;
919 [label="entropy = 0.0\nsamples = 2\nvalue = [0, 2]"] ;
918 -> 919 ;
920 [label="entropy = 0.0\nsamples = 2\nvalue = [2, 0]"] ;
918 -> 920 ;
921 [label="entropy = 0.0\nsamples = 10\nvalue = [10, 0]"] ;
871 -> 921 ;
922 [label="entropy = 0.0\nsamples = 2\nvalue = [0, 2]"] ;
870 -> 922 ;
923 [label="entropy = 0.0\nsamples = 4\nvalue = [0, 4]"] ;
869 -> 923 ;
924 [label="entropy = 0.0\nsamples = 13\nvalue = [13, 0]"] ;
840 -> 924 ;
925 [label="X[20] <= 27.5\nentropy = 0.722\nsamples = 5\nvalue = [1, 4]"] ;
839 -> 925 ;
926 [label="entropy = 0.0\nsamples = 4\nvalue = [0, 4]"] ;
925 -> 926 ;
927 [label="entropy = 0.0\nsamples = 1\nvalue = [1, 0]"] ;
925 -> 927 ;
928 [label="X[22] <= 1.5\nentropy = 0.586\nsamples = 64\nvalue = [55, 9]"] ;
764 -> 928 ;
929 [label="entropy = 0.0\nsamples = 2\nvalue = [0, 2]"] ;
928 -> 929 ;
930 [label="X[3] <= 23.5\nentropy = 0.509\nsamples = 62\nvalue = [55, 7]"] ;
928 -> 930 ;
931 [label="entropy = 0.0\nsamples = 17\nvalue = [17, 0]"] ;
930 -> 931 ;
932 [label="X[1] <= 0.405\nentropy = 0.624\nsamples = 45\nvalue = [38, 7]"] ;
930 -> 932 ;
933 [label="X[1] <= 0.175\nentropy = 0.758\nsamples = 32\nvalue = [25, 7]"] ;
932 -> 933 ;
934 [label="X[36] <= 7.5\nentropy = 0.323\nsamples = 17\nvalue = [16, 1]"] ;
933 -> 934 ;
935 [label="entropy = 0.0\nsamples = 16\nvalue = [16, 0]"] ;
934 -> 935 ;
936 [label="entropy = 0.0\nsamples = 1\nvalue = [0, 1]"] ;
934 -> 936 ;
937 [label="X[1] <= 0.27\nentropy = 0.971\nsamples = 15\nvalue = [9, 6]"] ;
933 -> 937 ;
938 [label="X[159] <= 8.5\nentropy = 0.65\nsamples = 6\nvalue = [1, 5]"] ;
937 -> 938 ;
939 [label="entropy = 0.0\nsamples = 1\nvalue = [1, 0]"] ;
938 -> 939 ;
940 [label="entropy = 0.0\nsamples = 5\nvalue = [0, 5]"] ;
938 -> 940 ;
941 [label="X[21] <= 11.5\nentropy = 0.503\nsamples = 9\nvalue = [8, 1]"] ;
937 -> 941 ;
942 [label="entropy = 0.0\nsamples = 8\nvalue = [8, 0]"] ;
941 -> 942 ;
943 [label="entropy = 0.0\nsamples = 1\nvalue = [0, 1]"] ;
941 -> 943 ;
944 [label="entropy = 0.0\nsamples = 13\nvalue = [13, 0]"] ;
932 -> 944 ;
945 [label="X[21] <= 13.5\nentropy = 0.589\nsamples = 120\nvalue = [103, 17]"] ;
763 -> 945 ;
946 [label="X[47] <= 12.5\nentropy = 0.469\nsamples = 110\nvalue = [99, 11]"] ;
945 -> 946 ;
947 [label="X[8] <= 19.785\nentropy = 0.442\nsamples = 109\nvalue = [99, 10]"] ;
946 -> 947 ;
948 [label="X[25] <= 2.5\nentropy = 0.255\nsamples = 70\nvalue = [67, 3]"] ;
947 -> 948 ;
949 [label="entropy = 0.0\nsamples = 42\nvalue = [42, 0]"] ;
948 -> 949 ;
950 [label="X[38] <= 5.5\nentropy = 0.491\nsamples = 28\nvalue = [25, 3]"] ;
948 -> 950 ;
951 [label="X[8] <= 12.5\nentropy = 1.0\nsamples = 4\nvalue = [2, 2]"] ;
950 -> 951 ;
952 [label="entropy = 0.0\nsamples = 2\nvalue = [2, 0]"] ;
951 -> 952 ;
953 [label="entropy = 0.0\nsamples = 2\nvalue = [0, 2]"] ;
951 -> 953 ;
954 [label="X[21] <= 5.5\nentropy = 0.25\nsamples = 24\nvalue = [23, 1]"] ;
950 -> 954 ;
955 [label="X[3] <= 31.0\nentropy = 0.918\nsamples = 3\nvalue = [2, 1]"] ;
954 -> 955 ;
956 [label="entropy = 0.0\nsamples = 1\nvalue = [0, 1]"] ;
955 -> 956 ;
957 [label="entropy = 0.0\nsamples = 2\nvalue = [2, 0]"] ;
955 -> 957 ;
958 [label="entropy = 0.0\nsamples = 21\nvalue = [21, 0]"] ;
954 -> 958 ;
959 [label="X[134] <= 4.832\nentropy = 0.679\nsamples = 39\nvalue = [32, 7]"] ;
947 -> 959 ;
960 [label="X[38] <= 6.5\nentropy = 0.918\nsamples = 18\nvalue = [12, 6]"] ;
959 -> 960 ;
961 [label="entropy = 0.0\nsamples = 5\nvalue = [5, 0]"] ;
960 -> 961 ;
962 [label="X[21] <= 8.5\nentropy = 0.996\nsamples = 13\nvalue = [7, 6]"] ;
960 -> 962 ;
963 [label="X[20] <= 25.5\nentropy = 0.863\nsamples = 7\nvalue = [2, 5]"] ;
962 -> 963 ;
964 [label="entropy = 0.0\nsamples = 3\nvalue = [0, 3]"] ;
963 -> 964 ;
965 [label="X[8] <= 27.5\nentropy = 1.0\nsamples = 4\nvalue = [2, 2]"] ;
963 -> 965 ;
966 [label="X[1] <= 0.5\nentropy = 0.918\nsamples = 3\nvalue = [2, 1]"] ;
965 -> 966 ;
967 [label="entropy = 0.0\nsamples = 2\nvalue = [2, 0]"] ;
966 -> 967 ;
968 [label="entropy = 0.0\nsamples = 1\nvalue = [0, 1]"] ;
966 -> 968 ;
969 [label="entropy = 0.0\nsamples = 1\nvalue = [0, 1]"] ;
965 -> 969 ;
970 [label="X[25] <= 1.5\nentropy = 0.65\nsamples = 6\nvalue = [5, 1]"] ;
962 -> 970 ;
971 [label="X[3] <= 29.5\nentropy = 1.0\nsamples = 2\nvalue = [1, 1]"] ;
970 -> 971 ;
972 [label="entropy = 0.0\nsamples = 1\nvalue = [1, 0]"] ;
971 -> 972 ;
973 [label="entropy = 0.0\nsamples = 1\nvalue = [0, 1]"] ;
971 -> 973 ;
974 [label="entropy = 0.0\nsamples = 4\nvalue = [4, 0]"] ;
970 -> 974 ;
975 [label="X[20] <= 32.5\nentropy = 0.276\nsamples = 21\nvalue = [20, 1]"] ;
959 -> 975 ;
976 [label="entropy = 0.0\nsamples = 19\nvalue = [19, 0]"] ;
975 -> 976 ;
977 [label="X[36] <= 3.0\nentropy = 1.0\nsamples = 2\nvalue = [1, 1]"] ;
975 -> 977 ;
978 [label="entropy = 0.0\nsamples = 1\nvalue = [1, 0]"] ;
977 -> 978 ;
979 [label="entropy = 0.0\nsamples = 1\nvalue = [0, 1]"] ;
977 -> 979 ;
980 [label="entropy = 0.0\nsamples = 1\nvalue = [0, 1]"] ;
946 -> 980 ;
981 [label="X[38] <= 8.5\nentropy = 0.971\nsamples = 10\nvalue = [4, 6]"] ;
945 -> 981 ;
982 [label="entropy = 0.0\nsamples = 2\nvalue = [2, 0]"] ;
981 -> 982 ;
983 [label="X[90] <= 5.298\nentropy = 0.811\nsamples = 8\nvalue = [2, 6]"] ;
981 -> 983 ;
984 [label="X[14] <= 8.5\nentropy = 1.0\nsamples = 4\nvalue = [2, 2]"] ;
983 -> 984 ;
985 [label="entropy = 0.0\nsamples = 1\nvalue = [1, 0]"] ;
984 -> 985 ;
986 [label="X[3] <= 34.5\nentropy = 0.918\nsamples = 3\nvalue = [1, 2]"] ;
984 -> 986 ;
987 [label="entropy = 0.0\nsamples = 2\nvalue = [0, 2]"] ;
986 -> 987 ;
988 [label="entropy = 0.0\nsamples = 1\nvalue = [1, 0]"] ;
986 -> 988 ;
989 [label="entropy = 0.0\nsamples = 4\nvalue = [0, 4]"] ;
983 -> 989 ;
990 [label="X[14] <= 8.5\nentropy = 0.91\nsamples = 1649\nvalue = [1112, 537]"] ;
582 -> 990 ;
991 [label="X[147] <= 2.518\nentropy = 0.856\nsamples = 1227\nvalue = [883, 344]"] ;
990 -> 991 ;
992 [label="X[8] <= 17.13\nentropy = 0.736\nsamples = 290\nvalue = [230, 60]"] ;
991 -> 992 ;
993 [label="X[158] <= 7.12\nentropy = 0.922\nsamples = 89\nvalue = [59, 30]"] ;
992 -> 993 ;
994 [label="X[2] <= 0.5\nentropy = 0.881\nsamples = 10\nvalue = [3, 7]"] ;
993 -> 994 ;
995 [label="X[1] <= 0.555\nentropy = 0.544\nsamples = 8\nvalue = [1, 7]"] ;
994 -> 995 ;
996 [label="entropy = 0.0\nsamples = 7\nvalue = [0, 7]"] ;
995 -> 996 ;
997 [label="entropy = 0.0\nsamples = 1\nvalue = [1, 0]"] ;
995 -> 997 ;
998 [label="entropy = 0.0\nsamples = 2\nvalue = [2, 0]"] ;
994 -> 998 ;
999 [label="X[3] <= 24.5\nentropy = 0.87\nsamples = 79\nvalue = [56, 23]"] ;
993 -> 999 ;
1000 [label="entropy = 0.0\nsamples = 14\nvalue = [14, 0]"] ;
999 -> 1000 ;
1001 [label="X[26] <= 4.5\nentropy = 0.937\nsamples = 65\nvalue = [42, 23]"] ;
999 -> 1001 ;
1002 [label="X[25] <= 1.5\nentropy = 0.999\nsamples = 31\nvalue = [16, 15]"] ;
1001 -> 1002 ;
1003 [label="X[2] <= 0.5\nentropy = 0.874\nsamples = 17\nvalue = [12, 5]"] ;
1002 -> 1003 ;
1004 [label="X[14] <= 7.5\nentropy = 0.991\nsamples = 9\nvalue = [4, 5]"] ;
1003 -> 1004 ;
1005 [label="X[8] <= 15.845\nentropy = 0.65\nsamples = 6\nvalue = [1, 5]"] ;
1004 -> 1005 ;
1006 [label="entropy = 0.0\nsamples = 4\nvalue = [0, 4]"] ;
1005 -> 1006 ;
1007 [label="X[20] <= 26.5\nentropy = 1.0\nsamples = 2\nvalue = [1, 1]"] ;
1005 -> 1007 ;
1008 [label="entropy = 0.0\nsamples = 1\nvalue = [1, 0]"] ;
1007 -> 1008 ;
1009 [label="entropy = 0.0\nsamples = 1\nvalue = [0, 1]"] ;
1007 -> 1009 ;
1010 [label="entropy = 0.0\nsamples = 3\nvalue = [3, 0]"] ;
1004 -> 1010 ;
1011 [label="entropy = 0.0\nsamples = 8\nvalue = [8, 0]"] ;
1003 -> 1011 ;
1012 [label="X[58] <= 1.585\nentropy = 0.863\nsamples = 14\nvalue = [4, 10]"] ;
1002 -> 1012 ;
1013 [label="X[1] <= -0.01\nentropy = 0.971\nsamples = 5\nvalue = [3, 2]"] ;
1012 -> 1013 ;
1014 [label="entropy = 0.0\nsamples = 1\nvalue = [0, 1]"] ;
1013 -> 1014 ;
1015 [label="X[158] <= 8.12\nentropy = 0.811\nsamples = 4\nvalue = [3, 1]"] ;
1013 -> 1015 ;
1016 [label="entropy = 0.0\nsamples = 2\nvalue = [2, 0]"] ;
1015 -> 1016 ;
1017 [label="X[3] <= 29.5\nentropy = 1.0\nsamples = 2\nvalue = [1, 1]"] ;
1015 -> 1017 ;
1018 [label="entropy = 0.0\nsamples = 1\nvalue = [1, 0]"] ;
1017 -> 1018 ;
1019 [label="entropy = 0.0\nsamples = 1\nvalue = [0, 1]"] ;
1017 -> 1019 ;
1020 [label="X[8] <= 15.845\nentropy = 0.503\nsamples = 9\nvalue = [1, 8]"] ;
1012 -> 1020 ;
1021 [label="X[3] <= 28.0\nentropy = 0.918\nsamples = 3\nvalue = [1, 2]"] ;
1020 -> 1021 ;
1022 [label="entropy = 0.0\nsamples = 1\nvalue = [1, 0]"] ;
1021 -> 1022 ;
1023 [label="entropy = 0.0\nsamples = 2\nvalue = [0, 2]"] ;
1021 -> 1023 ;
1024 [label="entropy = 0.0\nsamples = 6\nvalue = [0, 6]"] ;
1020 -> 1024 ;
1025 [label="X[3] <= 26.5\nentropy = 0.787\nsamples = 34\nvalue = [26, 8]"] ;
1001 -> 1025 ;
1026 [label="entropy = 0.0\nsamples = 9\nvalue = [9, 0]"] ;
1025 -> 1026 ;
1027 [label="X[159] <= 10.5\nentropy = 0.904\nsamples = 25\nvalue = [17, 8]"] ;
1025 -> 1027 ;
1028 [label="X[1] <= 0.17\nentropy = 0.828\nsamples = 23\nvalue = [17, 6]"] ;
1027 -> 1028 ;
1029 [label="entropy = 0.0\nsamples = 9\nvalue = [9, 0]"] ;
1028 -> 1029 ;
1030 [label="X[28] <= 4.0\nentropy = 0.985\nsamples = 14\nvalue = [8, 6]"] ;
1028 -> 1030 ;
1031 [label="X[8] <= 14.29\nentropy = 0.544\nsamples = 8\nvalue = [7, 1]"] ;
1030 -> 1031 ;
1032 [label="X[146] <= 1.772\nentropy = 1.0\nsamples = 2\nvalue = [1, 1]"] ;
1031 -> 1032 ;
1033 [label="entropy = 0.0\nsamples = 1\nvalue = [0, 1]"] ;
1032 -> 1033 ;
1034 [label="entropy = 0.0\nsamples = 1\nvalue = [1, 0]"] ;
1032 -> 1034 ;
1035 [label="entropy = 0.0\nsamples = 6\nvalue = [6, 0]"] ;
1031 -> 1035 ;
1036 [label="X[8] <= 13.25\nentropy = 0.65\nsamples = 6\nvalue = [1, 5]"] ;
1030 -> 1036 ;
1037 [label="entropy = 0.0\nsamples = 1\nvalue = [1, 0]"] ;
1036 -> 1037 ;
1038 [label="entropy = 0.0\nsamples = 5\nvalue = [0, 5]"] ;
1036 -> 1038 ;
1039 [label="entropy = 0.0\nsamples = 2\nvalue = [0, 2]"] ;
1027 -> 1039 ;
1040 [label="X[0] <= 0.5\nentropy = 0.608\nsamples = 201\nvalue = [171, 30]"] ;
992 -> 1040 ;
1041 [label="X[3] <= 27.5\nentropy = 0.811\nsamples = 84\nvalue = [63, 21]"] ;
1040 -> 1041 ;
1042 [label="X[161] <= 7.329\nentropy = 0.943\nsamples = 50\nvalue = [32, 18]"] ;
1041 -> 1042 ;
1043 [label="X[160] <= 7.5\nentropy = 0.811\nsamples = 8\nvalue = [2, 6]"] ;
1042 -> 1043 ;
1044 [label="entropy = 0.0\nsamples = 1\nvalue = [1, 0]"] ;
1043 -> 1044 ;
1045 [label="X[8] <= 19.1\nentropy = 0.592\nsamples = 7\nvalue = [1, 6]"] ;
1043 -> 1045 ;
1046 [label="X[8] <= 18.415\nentropy = 0.918\nsamples = 3\nvalue = [1, 2]"] ;
1045 -> 1046 ;
1047 [label="entropy = 0.0\nsamples = 2\nvalue = [0, 2]"] ;
1046 -> 1047 ;
1048 [label="entropy = 0.0\nsamples = 1\nvalue = [1, 0]"] ;
1046 -> 1048 ;
1049 [label="entropy = 0.0\nsamples = 4\nvalue = [0, 4]"] ;
1045 -> 1049 ;
1050 [label="X[1] <= 0.3\nentropy = 0.863\nsamples = 42\nvalue = [30, 12]"] ;
1042 -> 1050 ;
1051 [label="X[159] <= 7.5\nentropy = 0.963\nsamples = 31\nvalue = [19, 12]"] ;
1050 -> 1051 ;
1052 [label="entropy = 0.0\nsamples = 4\nvalue = [4, 0]"] ;
1051 -> 1052 ;
1053 [label="X[8] <= 19.1\nentropy = 0.991\nsamples = 27\nvalue = [15, 12]"] ;
1051 -> 1053 ;
1054 [label="X[20] <= 24.5\nentropy = 0.684\nsamples = 11\nvalue = [9, 2]"] ;
1053 -> 1054 ;
1055 [label="X[3] <= 22.5\nentropy = 1.0\nsamples = 4\nvalue = [2, 2]"] ;
1054 -> 1055 ;
1056 [label="entropy = 0.0\nsamples = 1\nvalue = [1, 0]"] ;
1055 -> 1056 ;
1057 [label="X[14] <= 7.5\nentropy = 0.918\nsamples = 3\nvalue = [1, 2]"] ;
1055 -> 1057 ;
1058 [label="entropy = 0.0\nsamples = 2\nvalue = [0, 2]"] ;
1057 -> 1058 ;
1059 [label="entropy = 0.0\nsamples = 1\nvalue = [1, 0]"] ;
1057 -> 1059 ;
1060 [label="entropy = 0.0\nsamples = 7\nvalue = [7, 0]"] ;
1054 -> 1060 ;
1061 [label="X[160] <= 10.5\nentropy = 0.954\nsamples = 16\nvalue = [6, 10]"] ;
1053 -> 1061 ;
1062 [label="X[25] <= 1.5\nentropy = 1.0\nsamples = 12\nvalue = [6, 6]"] ;
1061 -> 1062 ;
1063 [label="entropy = 0.0\nsamples = 4\nvalue = [4, 0]"] ;
1062 -> 1063 ;
1064 [label="X[156] <= 1.585\nentropy = 0.811\nsamples = 8\nvalue = [2, 6]"] ;
1062 -> 1064 ;
1065 [label="entropy = 0.0\nsamples = 1\nvalue = [1, 0]"] ;
1064 -> 1065 ;
1066 [label="X[1] <= 0.25\nentropy = 0.592\nsamples = 7\nvalue = [1, 6]"] ;
1064 -> 1066 ;
1067 [label="entropy = 0.0\nsamples = 6\nvalue = [0, 6]"] ;
1066 -> 1067 ;
1068 [label="entropy = 0.0\nsamples = 1\nvalue = [1, 0]"] ;
1066 -> 1068 ;
1069 [label="entropy = 0.0\nsamples = 4\nvalue = [0, 4]"] ;
1061 -> 1069 ;
1070 [label="entropy = 0.0\nsamples = 11\nvalue = [11, 0]"] ;
1050 -> 1070 ;
1071 [label="X[28] <= 5.5\nentropy = 0.431\nsamples = 34\nvalue = [31, 3]"] ;
1041 -> 1071 ;
1072 [label="entropy = 0.0\nsamples = 22\nvalue = [22, 0]"] ;
1071 -> 1072 ;
1073 [label="X[1] <= 0.305\nentropy = 0.811\nsamples = 12\nvalue = [9, 3]"] ;
1071 -> 1073 ;
1074 [label="entropy = 0.0\nsamples = 6\nvalue = [6, 0]"] ;
1073 -> 1074 ;
1075 [label="X[1] <= 0.455\nentropy = 1.0\nsamples = 6\nvalue = [3, 3]"] ;
1073 -> 1075 ;
1076 [label="entropy = 0.0\nsamples = 3\nvalue = [0, 3]"] ;
1075 -> 1076 ;
1077 [label="entropy = 0.0\nsamples = 3\nvalue = [3, 0]"] ;
1075 -> 1077 ;
1078 [label="X[162] <= 7.696\nentropy = 0.391\nsamples = 117\nvalue = [108, 9]"] ;
1040 -> 1078 ;
1079 [label="X[87] <= 1.772\nentropy = 0.512\nsamples = 79\nvalue = [70, 9]"] ;
1078 -> 1079 ;
1080 [label="X[38] <= 6.5\nentropy = 0.286\nsamples = 60\nvalue = [57, 3]"] ;
1079 -> 1080 ;
1081 [label="X[8] <= 18.275\nentropy = 0.61\nsamples = 20\nvalue = [17, 3]"] ;
1080 -> 1081 ;
1082 [label="entropy = 0.0\nsamples = 12\nvalue = [12, 0]"] ;
1081 -> 1082 ;
1083 [label="X[28] <= 7.5\nentropy = 0.954\nsamples = 8\nvalue = [5, 3]"] ;
1081 -> 1083 ;
1084 [label="X[1] <= 0.12\nentropy = 1.0\nsamples = 6\nvalue = [3, 3]"] ;
1083 -> 1084 ;
1085 [label="entropy = 0.0\nsamples = 2\nvalue = [0, 2]"] ;
1084 -> 1085 ;
1086 [label="X[8] <= 18.76\nentropy = 0.811\nsamples = 4\nvalue = [3, 1]"] ;
1084 -> 1086 ;
1087 [label="entropy = 0.0\nsamples = 1\nvalue = [0, 1]"] ;
1086 -> 1087 ;
1088 [label="entropy = 0.0\nsamples = 3\nvalue = [3, 0]"] ;
1086 -> 1088 ;
1089 [label="entropy = 0.0\nsamples = 2\nvalue = [2, 0]"] ;
1083 -> 1089 ;
1090 [label="entropy = 0.0\nsamples = 40\nvalue = [40, 0]"] ;
1080 -> 1090 ;
1091 [label="X[14] <= 7.5\nentropy = 0.9\nsamples = 19\nvalue = [13, 6]"] ;
1079 -> 1091 ;
1092 [label="X[21] <= 9.0\nentropy = 0.619\nsamples = 13\nvalue = [11, 2]"] ;
1091 -> 1092 ;
1093 [label="entropy = 0.0\nsamples = 8\nvalue = [8, 0]"] ;
1092 -> 1093 ;
1094 [label="X[3] <= 25.0\nentropy = 0.971\nsamples = 5\nvalue = [3, 2]"] ;
1092 -> 1094 ;
1095 [label="entropy = 0.0\nsamples = 3\nvalue = [3, 0]"] ;
1094 -> 1095 ;
1096 [label="entropy = 0.0\nsamples = 2\nvalue = [0, 2]"] ;
1094 -> 1096 ;
1097 [label="X[26] <= 4.5\nentropy = 0.918\nsamples = 6\nvalue = [2, 4]"] ;
1091 -> 1097 ;
1098 [label="X[38] <= 6.0\nentropy = 0.722\nsamples = 5\nvalue = [1, 4]"] ;
1097 -> 1098 ;
1099 [label="entropy = 0.0\nsamples = 1\nvalue = [1, 0]"] ;
1098 -> 1099 ;
1100 [label="entropy = 0.0\nsamples = 4\nvalue = [0, 4]"] ;
1098 -> 1100 ;
1101 [label="entropy = 0.0\nsamples = 1\nvalue = [1, 0]"] ;
1097 -> 1101 ;
1102 [label="entropy = 0.0\nsamples = 38\nvalue = [38, 0]"] ;
1078 -> 1102 ;
1103 [label="X[162] <= 7.696\nentropy = 0.885\nsamples = 937\nvalue = [653, 284]"] ;
991 -> 1103 ;
1104 [label="X[25] <= 4.5\nentropy = 0.845\nsamples = 716\nvalue = [521, 195]"] ;
1103 -> 1104 ;
1105 [label="X[1] <= 0.415\nentropy = 0.873\nsamples = 651\nvalue = [460, 191]"] ;
1104 -> 1105 ;
1106 [label="X[8] <= 37.5\nentropy = 0.82\nsamples = 458\nvalue = [341, 117]"] ;
1105 -> 1106 ;
1107 [label="X[3] <= 21.5\nentropy = 0.808\nsamples = 452\nvalue = [340, 112]"] ;
1106 -> 1107 ;
1108 [label="X[20] <= 22.5\nentropy = 1.0\nsamples = 18\nvalue = [9, 9]"] ;
1107 -> 1108 ;
1109 [label="entropy = 0.0\nsamples = 5\nvalue = [0, 5]"] ;
1108 -> 1109 ;
1110 [label="X[27] <= 1.5\nentropy = 0.89\nsamples = 13\nvalue = [9, 4]"] ;
1108 -> 1110 ;
1111 [label="entropy = 0.0\nsamples = 5\nvalue = [5, 0]"] ;
1110 -> 1111 ;
1112 [label="X[8] <= 17.5\nentropy = 1.0\nsamples = 8\nvalue = [4, 4]"] ;
1110 -> 1112 ;
1113 [label="entropy = 0.0\nsamples = 3\nvalue = [0, 3]"] ;
1112 -> 1113 ;
1114 [label="X[1] <= 0.215\nentropy = 0.722\nsamples = 5\nvalue = [4, 1]"] ;
1112 -> 1114 ;
1115 [label="entropy = 0.0\nsamples = 3\nvalue = [3, 0]"] ;
1114 -> 1115 ;
1116 [label="X[8] <= 27.5\nentropy = 1.0\nsamples = 2\nvalue = [1, 1]"] ;
1114 -> 1116 ;
1117 [label="entropy = 0.0\nsamples = 1\nvalue = [0, 1]"] ;
1116 -> 1117 ;
1118 [label="entropy = 0.0\nsamples = 1\nvalue = [1, 0]"] ;
1116 -> 1118 ;
1119 [label="X[25] <= 2.061\nentropy = 0.791\nsamples = 434\nvalue = [331, 103]"] ;
1107 -> 1119 ;
1120 [label="X[21] <= 10.5\nentropy = 0.751\nsamples = 367\nvalue = [288, 79]"] ;
1119 -> 1120 ;
1121 [label="X[123] <= 15.388\nentropy = 0.797\nsamples = 290\nvalue = [220, 70]"] ;
1120 -> 1121 ;
1122 [label="X[59] <= 6.995\nentropy = 0.782\nsamples = 284\nvalue = [218, 66]"] ;
1121 -> 1122 ;
1123 [label="X[38] <= 8.5\nentropy = 0.833\nsamples = 216\nvalue = [159, 57]"] ;
1122 -> 1123 ;
1124 [label="X[20] <= 32.0\nentropy = 0.759\nsamples = 146\nvalue = [114, 32]"] ;
1123 -> 1124 ;
1125 [label="X[1] <= -0.08\nentropy = 0.716\nsamples = 137\nvalue = [110, 27]"] ;
1124 -> 1125 ;
1126 [label="X[1] <= -0.35\nentropy = 0.353\nsamples = 30\nvalue = [28, 2]"] ;
1125 -> 1126 ;
1127 [label="X[47] <= 8.785\nentropy = 0.863\nsamples = 7\nvalue = [5, 2]"] ;
1126 -> 1127 ;
1128 [label="X[162] <= 5.5\nentropy = 0.65\nsamples = 6\nvalue = [5, 1]"] ;
1127 -> 1128 ;
1129 [label="entropy = 0.0\nsamples = 1\nvalue = [0, 1]"] ;
1128 -> 1129 ;
1130 [label="entropy = 0.0\nsamples = 5\nvalue = [5, 0]"] ;
1128 -> 1130 ;
1131 [label="entropy = 0.0\nsamples = 1\nvalue = [0, 1]"] ;
1127 -> 1131 ;
1132 [label="entropy = 0.0\nsamples = 23\nvalue = [23, 0]"] ;
1126 -> 1132 ;
1133 [label="X[1] <= 0.025\nentropy = 0.784\nsamples = 107\nvalue = [82, 25]"] ;
1125 -> 1133 ;
1134 [label="X[159] <= 7.5\nentropy = 0.985\nsamples = 21\nvalue = [12, 9]"] ;
1133 -> 1134 ;
1135 [label="X[3] <= 26.5\nentropy = 0.918\nsamples = 12\nvalue = [4, 8]"] ;
1134 -> 1135 ;
1136 [label="X[8] <= 26.0\nentropy = 0.544\nsamples = 8\nvalue = [1, 7]"] ;
1135 -> 1136 ;
1137 [label="entropy = 0.0\nsamples = 6\nvalue = [0, 6]"] ;
1136 -> 1137 ;
1138 [label="X[2] <= 0.5\nentropy = 1.0\nsamples = 2\nvalue = [1, 1]"] ;
1136 -> 1138 ;
1139 [label="entropy = 0.0\nsamples = 1\nvalue = [1, 0]"] ;
1138 -> 1139 ;
1140 [label="entropy = 0.0\nsamples = 1\nvalue = [0, 1]"] ;
1138 -> 1140 ;
1141 [label="X[28] <= 1.5\nentropy = 0.811\nsamples = 4\nvalue = [3, 1]"] ;
1135 -> 1141 ;
1142 [label="entropy = 0.0\nsamples = 1\nvalue = [0, 1]"] ;
1141 -> 1142 ;
1143 [label="entropy = 0.0\nsamples = 3\nvalue = [3, 0]"] ;
1141 -> 1143 ;
1144 [label="X[38] <= 5.0\nentropy = 0.503\nsamples = 9\nvalue = [8, 1]"] ;
1134 -> 1144 ;
1145 [label="entropy = 0.0\nsamples = 1\nvalue = [0, 1]"] ;
1144 -> 1145 ;
1146 [label="entropy = 0.0\nsamples = 8\nvalue = [8, 0]"] ;
1144 -> 1146 ;
1147 [label="X[159] <= 6.5\nentropy = 0.693\nsamples = 86\nvalue = [70, 16]"] ;
1133 -> 1147 ;
1148 [label="entropy = 0.0\nsamples = 15\nvalue = [15, 0]"] ;
1147 -> 1148 ;
1149 [label="X[22] <= 5.0\nentropy = 0.77\nsamples = 71\nvalue = [55, 16]"] ;
1147 -> 1149 ;
1150 [label="X[8] <= 16.335\nentropy = 0.71\nsamples = 67\nvalue = [54, 13]"] ;
1149 -> 1150 ;
1151 [label="X[26] <= 6.5\nentropy = 0.874\nsamples = 34\nvalue = [24, 10]"] ;
1150 -> 1151 ;
1152 [label="X[3] <= 29.5\nentropy = 0.575\nsamples = 22\nvalue = [19, 3]"] ;
1151 -> 1152 ;
1153 [label="X[26] <= 3.5\nentropy = 0.297\nsamples = 19\nvalue = [18, 1]"] ;
1152 -> 1153 ;
1154 [label="X[8] <= 12.5\nentropy = 1.0\nsamples = 2\nvalue = [1, 1]"] ;
1153 -> 1154 ;
1155 [label="entropy = 0.0\nsamples = 1\nvalue = [1, 0]"] ;
1154 -> 1155 ;
1156 [label="entropy = 0.0\nsamples = 1\nvalue = [0, 1]"] ;
1154 -> 1156 ;
1157 [label="entropy = 0.0\nsamples = 17\nvalue = [17, 0]"] ;
1153 -> 1157 ;
1158 [label="X[3] <= 35.5\nentropy = 0.918\nsamples = 3\nvalue = [1, 2]"] ;
1152 -> 1158 ;
1159 [label="entropy = 0.0\nsamples = 2\nvalue = [0, 2]"] ;
1158 -> 1159 ;
1160 [label="entropy = 0.0\nsamples = 1\nvalue = [1, 0]"] ;
1158 -> 1160 ;
1161 [label="X[1] <= 0.115\nentropy = 0.98\nsamples = 12\nvalue = [5, 7]"] ;
1151 -> 1161 ;
1162 [label="entropy = 0.0\nsamples = 2\nvalue = [2, 0]"] ;
1161 -> 1162 ;
1163 [label="X[85] <= 5.0\nentropy = 0.881\nsamples = 10\nvalue = [3, 7]"] ;
1161 -> 1163 ;
1164 [label="X[3] <= 26.0\nentropy = 0.971\nsamples = 5\nvalue = [3, 2]"] ;
1163 -> 1164 ;
1165 [label="entropy = 0.0\nsamples = 3\nvalue = [3, 0]"] ;
1164 -> 1165 ;
1166 [label="entropy = 0.0\nsamples = 2\nvalue = [0, 2]"] ;
1164 -> 1166 ;
1167 [label="entropy = 0.0\nsamples = 5\nvalue = [0, 5]"] ;
1163 -> 1167 ;
1168 [label="X[3] <= 32.0\nentropy = 0.439\nsamples = 33\nvalue = [30, 3]"] ;
1150 -> 1168 ;
1169 [label="X[8] <= 32.5\nentropy = 0.337\nsamples = 32\nvalue = [30, 2]"] ;
1168 -> 1169 ;
1170 [label="X[47] <= 3.5\nentropy = 0.206\nsamples = 31\nvalue = [30, 1]"] ;
1169 -> 1170 ;
1171 [label="X[1] <= 0.168\nentropy = 0.65\nsamples = 6\nvalue = [5, 1]"] ;
1170 -> 1171 ;
1172 [label="entropy = 0.0\nsamples = 1\nvalue = [0, 1]"] ;
1171 -> 1172 ;
1173 [label="entropy = 0.0\nsamples = 5\nvalue = [5, 0]"] ;
1171 -> 1173 ;
1174 [label="entropy = 0.0\nsamples = 25\nvalue = [25, 0]"] ;
1170 -> 1174 ;
1175 [label="entropy = 0.0\nsamples = 1\nvalue = [0, 1]"] ;
1169 -> 1175 ;
1176 [label="entropy = 0.0\nsamples = 1\nvalue = [0, 1]"] ;
1168 -> 1176 ;
1177 [label="X[28] <= 1.5\nentropy = 0.811\nsamples = 4\nvalue = [1, 3]"] ;
1149 -> 1177 ;
1178 [label="entropy = 0.0\nsamples = 1\nvalue = [1, 0]"] ;
1177 -> 1178 ;
1179 [label="entropy = 0.0\nsamples = 3\nvalue = [0, 3]"] ;
1177 -> 1179 ;
1180 [label="X[1] <= 0.14\nentropy = 0.991\nsamples = 9\nvalue = [4, 5]"] ;
1124 -> 1180 ;
1181 [label="X[158] <= 6.62\nentropy = 0.722\nsamples = 5\nvalue = [1, 4]"] ;
1180 -> 1181 ;
1182 [label="entropy = 0.0\nsamples = 1\nvalue = [1, 0]"] ;
1181 -> 1182 ;
1183 [label="entropy = 0.0\nsamples = 4\nvalue = [0, 4]"] ;
1181 -> 1183 ;
1184 [label="X[3] <= 27.5\nentropy = 0.811\nsamples = 4\nvalue = [3, 1]"] ;
1180 -> 1184 ;
1185 [label="entropy = 0.0\nsamples = 3\nvalue = [3, 0]"] ;
1184 -> 1185 ;
1186 [label="entropy = 0.0\nsamples = 1\nvalue = [0, 1]"] ;
1184 -> 1186 ;
1187 [label="X[8] <= 13.5\nentropy = 0.94\nsamples = 70\nvalue = [45, 25]"] ;
1123 -> 1187 ;
1188 [label="X[14] <= 7.25\nentropy = 0.629\nsamples = 19\nvalue = [16, 3]"] ;
1187 -> 1188 ;
1189 [label="entropy = 0.0\nsamples = 10\nvalue = [10, 0]"] ;
1188 -> 1189 ;
1190 [label="X[26] <= 5.5\nentropy = 0.918\nsamples = 9\nvalue = [6, 3]"] ;
1188 -> 1190 ;
1191 [label="X[62] <= 4.832\nentropy = 0.971\nsamples = 5\nvalue = [2, 3]"] ;
1190 -> 1191 ;
1192 [label="entropy = 0.0\nsamples = 2\nvalue = [0, 2]"] ;
1191 -> 1192 ;
1193 [label="X[36] <= 7.5\nentropy = 0.918\nsamples = 3\nvalue = [2, 1]"] ;
1191 -> 1193 ;
1194 [label="entropy = 0.0\nsamples = 2\nvalue = [2, 0]"] ;
1193 -> 1194 ;
1195 [label="entropy = 0.0\nsamples = 1\nvalue = [0, 1]"] ;
1193 -> 1195 ;
1196 [label="entropy = 0.0\nsamples = 4\nvalue = [4, 0]"] ;
1190 -> 1196 ;
1197 [label="X[8] <= 14.5\nentropy = 0.986\nsamples = 51\nvalue = [29, 22]"] ;
1187 -> 1197 ;
1198 [label="entropy = 0.0\nsamples = 3\nvalue = [0, 3]"] ;
1197 -> 1198 ;
1199 [label="X[8] <= 19.5\nentropy = 0.968\nsamples = 48\nvalue = [29, 19]"] ;
1197 -> 1199 ;
1200 [label="X[28] <= 4.5\nentropy = 0.811\nsamples = 20\nvalue = [15, 5]"] ;
1199 -> 1200 ;
1201 [label="entropy = 0.0\nsamples = 7\nvalue = [7, 0]"] ;
1200 -> 1201 ;
1202 [label="X[3] <= 23.5\nentropy = 0.961\nsamples = 13\nvalue = [8, 5]"] ;
1200 -> 1202 ;
1203 [label="X[58] <= 5.298\nentropy = 0.811\nsamples = 4\nvalue = [1, 3]"] ;
1202 -> 1203 ;
1204 [label="entropy = 0.0\nsamples = 1\nvalue = [1, 0]"] ;
1203 -> 1204 ;
1205 [label="entropy = 0.0\nsamples = 3\nvalue = [0, 3]"] ;
1203 -> 1205 ;
1206 [label="X[149] <= 4.365\nentropy = 0.764\nsamples = 9\nvalue = [7, 2]"] ;
1202 -> 1206 ;
1207 [label="entropy = 0.0\nsamples = 1\nvalue = [0, 1]"] ;
1206 -> 1207 ;
1208 [label="X[1] <= 0.03\nentropy = 0.544\nsamples = 8\nvalue = [7, 1]"] ;
1206 -> 1208 ;
1209 [label="X[1] <= -0.02\nentropy = 0.918\nsamples = 3\nvalue = [2, 1]"] ;
1208 -> 1209 ;
1210 [label="entropy = 0.0\nsamples = 2\nvalue = [2, 0]"] ;
1209 -> 1210 ;
1211 [label="entropy = 0.0\nsamples = 1\nvalue = [0, 1]"] ;
1209 -> 1211 ;
1212 [label="entropy = 0.0\nsamples = 5\nvalue = [5, 0]"] ;
1208 -> 1212 ;
1213 [label="X[20] <= 26.5\nentropy = 1.0\nsamples = 28\nvalue = [14, 14]"] ;
1199 -> 1213 ;
1214 [label="X[85] <= 3.604\nentropy = 0.99\nsamples = 25\nvalue = [11, 14]"] ;
1213 -> 1214 ;
1215 [label="entropy = 0.0\nsamples = 3\nvalue = [0, 3]"] ;
1214 -> 1215 ;
1216 [label="X[14] <= 7.5\nentropy = 1.0\nsamples = 22\nvalue = [11, 11]"] ;
1214 -> 1216 ;
1217 [label="X[8] <= 22.5\nentropy = 0.881\nsamples = 10\nvalue = [7, 3]"] ;
1216 -> 1217 ;
1218 [label="X[158] <= 7.12\nentropy = 1.0\nsamples = 6\nvalue = [3, 3]"] ;
1217 -> 1218 ;
1219 [label="entropy = 0.0\nsamples = 2\nvalue = [2, 0]"] ;
1218 -> 1219 ;
1220 [label="X[65] <= 3.899\nentropy = 0.811\nsamples = 4\nvalue = [1, 3]"] ;
1218 -> 1220 ;
1221 [label="X[1] <= -0.005\nentropy = 1.0\nsamples = 2\nvalue = [1, 1]"] ;
1220 -> 1221 ;
1222 [label="entropy = 0.0\nsamples = 1\nvalue = [0, 1]"] ;
1221 -> 1222 ;
1223 [label="entropy = 0.0\nsamples = 1\nvalue = [1, 0]"] ;
1221 -> 1223 ;
