digraph Tree {
node [shape=box] ;
0 [label="X[86] <= 6.317\ngini = 0.486\nsamples = 5613\nvalue = [3268, 2345]"] ;
1 [label="X[86] <= 5.25\ngini = 0.32\nsamples = 3125\nvalue = [2499, 626]"] ;
0 -> 1 [labeldistance=2.5, labelangle=45, headlabel="True"] ;
2 [label="X[76] <= 4.5\ngini = 0.197\nsamples = 1849\nvalue = [1644, 205]"] ;
1 -> 2 ;
3 [label="X[36] <= 7.5\ngini = 0.36\nsamples = 34\nvalue = [8, 26]"] ;
2 -> 3 ;
4 [label="X[87] <= 2.5\ngini = 0.133\nsamples = 28\nvalue = [2, 26]"] ;
3 -> 4 ;
5 [label="gini = 0.0\nsamples = 1\nvalue = [1, 0]"] ;
4 -> 5 ;
6 [label="X[80] <= 3.5\ngini = 0.071\nsamples = 27\nvalue = [1, 26]"] ;
4 -> 6 ;
7 [label="X[81] <= 4.0\ngini = 0.444\nsamples = 3\nvalue = [1, 2]"] ;
6 -> 7 ;
8 [label="gini = 0.0\nsamples = 2\nvalue = [0, 2]"] ;
7 -> 8 ;
9 [label="gini = 0.0\nsamples = 1\nvalue = [1, 0]"] ;
7 -> 9 ;
10 [label="gini = 0.0\nsamples = 24\nvalue = [0, 24]"] ;
6 -> 10 ;
11 [label="gini = 0.0\nsamples = 6\nvalue = [6, 0]"] ;
3 -> 11 ;
12 [label="X[83] <= 6.2\ngini = 0.178\nsamples = 1815\nvalue = [1636, 179]"] ;
2 -> 12 ;
13 [label="X[122] <= 82.5\ngini = 0.123\nsamples = 1458\nvalue = [1362, 96]"] ;
12 -> 13 ;
14 [label="X[57] <= 19.785\ngini = 0.12\nsamples = 1455\nvalue = [1362, 93]"] ;
13 -> 14 ;
15 [label="X[106] <= 45.0\ngini = 0.087\nsamples = 1222\nvalue = [1166, 56]"] ;
14 -> 15 ;
16 [label="X[160] <= 22.5\ngini = 0.085\nsamples = 1220\nvalue = [1166, 54]"] ;
15 -> 16 ;
17 [label="X[80] <= 4.5\ngini = 0.082\nsamples = 1218\nvalue = [1166, 52]"] ;
16 -> 17 ;
18 [label="X[50] <= 9.5\ngini = 0.017\nsamples = 600\nvalue = [595, 5]"] ;
17 -> 18 ;
19 [label="X[105] <= 24.0\ngini = 0.01\nsamples = 589\nvalue = [586, 3]"] ;
18 -> 19 ;
20 [label="X[32] <= 14.5\ngini = 0.007\nsamples = 585\nvalue = [583, 2]"] ;
19 -> 20 ;
21 [label="X[56] <= 20.205\ngini = 0.003\nsamples = 583\nvalue = [582, 1]"] ;
20 -> 21 ;
22 [label="gini = 0.0\nsamples = 573\nvalue = [573, 0]"] ;
21 -> 22 ;
23 [label="X[3] <= 189.0\ngini = 0.18\nsamples = 10\nvalue = [9, 1]"] ;
21 -> 23 ;
24 [label="gini = 0.0\nsamples = 9\nvalue = [9, 0]"] ;
23 -> 24 ;
25 [label="gini = 0.0\nsamples = 1\nvalue = [0, 1]"] ;
23 -> 25 ;
26 [label="X[12] <= 13.055\ngini = 0.5\nsamples = 2\nvalue = [1, 1]"] ;
20 -> 26 ;
27 [label="gini = 0.0\nsamples = 1\nvalue = [0, 1]"] ;
26 -> 27 ;
28 [label="gini = 0.0\nsamples = 1\nvalue = [1, 0]"] ;
26 -> 28 ;
29 [label="X[151] <= 18.34\ngini = 0.375\nsamples = 4\nvalue = [3, 1]"] ;
19 -> 29 ;
30 [label="gini = 0.0\nsamples = 3\nvalue = [3, 0]"] ;
29 -> 30 ;
31 [label="gini = 0.0\nsamples = 1\nvalue = [0, 1]"] ;
29 -> 31 ;
32 [label="X[4] <= -0.025\ngini = 0.298\nsamples = 11\nvalue = [9, 2]"] ;
18 -> 32 ;
33 [label="gini = 0.0\nsamples = 2\nvalue = [0, 2]"] ;
32 -> 33 ;
34 [label="gini = 0.0\nsamples = 9\nvalue = [9, 0]"] ;
32 -> 34 ;
35 [label="X[22] <= 9.5\ngini = 0.141\nsamples = 618\nvalue = [571, 47]"] ;
17 -> 35 ;
36 [label="X[64] <= 85.0\ngini = 0.133\nsamples = 614\nvalue = [570, 44]"] ;
35 -> 36 ;
37 [label="X[161] <= 6.5\ngini = 0.121\nsamples = 601\nvalue = [562, 39]"] ;
36 -> 37 ;
38 [label="X[9] <= 17.575\ngini = 0.459\nsamples = 14\nvalue = [9, 5]"] ;
37 -> 38 ;
39 [label="gini = 0.0\nsamples = 4\nvalue = [0, 4]"] ;
38 -> 39 ;
40 [label="X[19] <= 5.0\ngini = 0.18\nsamples = 10\nvalue = [9, 1]"] ;
38 -> 40 ;
41 [label="gini = 0.0\nsamples = 1\nvalue = [0, 1]"] ;
40 -> 41 ;
42 [label="gini = 0.0\nsamples = 9\nvalue = [9, 0]"] ;
40 -> 42 ;
43 [label="X[3] <= 36.5\ngini = 0.109\nsamples = 587\nvalue = [553, 34]"] ;
37 -> 43 ;
44 [label="X[35] <= 2.5\ngini = 0.361\nsamples = 38\nvalue = [29, 9]"] ;
43 -> 44 ;
45 [label="gini = 0.0\nsamples = 4\nvalue = [0, 4]"] ;
44 -> 45 ;
46 [label="X[18] <= 3.5\ngini = 0.251\nsamples = 34\nvalue = [29, 5]"] ;
44 -> 46 ;
47 [label="gini = 0.0\nsamples = 3\nvalue = [0, 3]"] ;
46 -> 47 ;
48 [label="X[22] <= 7.5\ngini = 0.121\nsamples = 31\nvalue = [29, 2]"] ;
46 -> 48 ;
49 [label="X[169] <= 8.694\ngini = 0.064\nsamples = 30\nvalue = [29, 1]"] ;
48 -> 49 ;
50 [label="gini = 0.0\nsamples = 29\nvalue = [29, 0]"] ;
49 -> 50 ;
51 [label="gini = 0.0\nsamples = 1\nvalue = [0, 1]"] ;
49 -> 51 ;
52 [label="gini = 0.0\nsamples = 1\nvalue = [0, 1]"] ;
48 -> 52 ;
53 [label="X[10] <= 43.93\ngini = 0.087\nsamples = 549\nvalue = [524, 25]"] ;
43 -> 53 ;
54 [label="X[40] <= 12.0\ngini = 0.081\nsamples = 546\nvalue = [523, 23]"] ;
53 -> 54 ;
55 [label="X[89] <= 11.0\ngini = 0.077\nsamples = 545\nvalue = [523, 22]"] ;
54 -> 55 ;
56 [label="X[33] <= 3.5\ngini = 0.074\nsamples = 544\nvalue = [523, 21]"] ;
55 -> 56 ;
57 [label="X[93] <= 19.805\ngini = 0.221\nsamples = 79\nvalue = [69, 10]"] ;
56 -> 57 ;
58 [label="X[19] <= 2.5\ngini = 0.169\nsamples = 75\nvalue = [68, 7]"] ;
57 -> 58 ;
59 [label="gini = 0.0\nsamples = 2\nvalue = [0, 2]"] ;
58 -> 59 ;
60 [label="X[22] <= 8.5\ngini = 0.128\nsamples = 73\nvalue = [68, 5]"] ;
58 -> 60 ;
61 [label="X[10] <= 2.5\ngini = 0.105\nsamples = 72\nvalue = [68, 4]"] ;
60 -> 61 ;
62 [label="gini = 0.0\nsamples = 1\nvalue = [0, 1]"] ;
61 -> 62 ;
63 [label="X[13] <= 17.045\ngini = 0.081\nsamples = 71\nvalue = [68, 3]"] ;
61 -> 63 ;
64 [label="gini = 0.0\nsamples = 58\nvalue = [58, 0]"] ;
63 -> 64 ;
65 [label="X[13] <= 19.615\ngini = 0.355\nsamples = 13\nvalue = [10, 3]"] ;
63 -> 65 ;
66 [label="gini = 0.0\nsamples = 3\nvalue = [0, 3]"] ;
65 -> 66 ;
67 [label="gini = 0.0\nsamples = 10\nvalue = [10, 0]"] ;
65 -> 67 ;
68 [label="gini = 0.0\nsamples = 1\nvalue = [0, 1]"] ;
60 -> 68 ;
69 [label="X[4] <= 0.085\ngini = 0.375\nsamples = 4\nvalue = [1, 3]"] ;
57 -> 69 ;
70 [label="gini = 0.0\nsamples = 1\nvalue = [1, 0]"] ;
69 -> 70 ;
71 [label="gini = 0.0\nsamples = 3\nvalue = [0, 3]"] ;
69 -> 71 ;
72 [label="X[142] <= 3.0\ngini = 0.046\nsamples = 465\nvalue = [454, 11]"] ;
56 -> 72 ;
73 [label="X[77] <= 6.5\ngini = 0.042\nsamples = 463\nvalue = [453, 10]"] ;
72 -> 73 ;
74 [label="X[121] <= 7.5\ngini = 0.255\nsamples = 20\nvalue = [17, 3]"] ;
73 -> 74 ;
75 [label="X[85] <= 5.5\ngini = 0.444\nsamples = 3\nvalue = [1, 2]"] ;
74 -> 75 ;
76 [label="gini = 0.0\nsamples = 2\nvalue = [0, 2]"] ;
75 -> 76 ;
77 [label="gini = 0.0\nsamples = 1\nvalue = [1, 0]"] ;
75 -> 77 ;
78 [label="X[18] <= 8.5\ngini = 0.111\nsamples = 17\nvalue = [16, 1]"] ;
74 -> 78 ;
79 [label="gini = 0.0\nsamples = 16\nvalue = [16, 0]"] ;
78 -> 79 ;
80 [label="gini = 0.0\nsamples = 1\nvalue = [0, 1]"] ;
78 -> 80 ;
81 [label="X[76] <= 5.5\ngini = 0.031\nsamples = 443\nvalue = [436, 7]"] ;
73 -> 81 ;
82 [label="X[12] <= 16.5\ngini = 0.346\nsamples = 9\nvalue = [7, 2]"] ;
81 -> 82 ;
83 [label="gini = 0.0\nsamples = 7\nvalue = [7, 0]"] ;
82 -> 83 ;
84 [label="gini = 0.0\nsamples = 2\nvalue = [0, 2]"] ;
82 -> 84 ;
85 [label="X[147] <= 18.71\ngini = 0.023\nsamples = 434\nvalue = [429, 5]"] ;
81 -> 85 ;
86 [label="X[9] <= 0.5\ngini = 0.014\nsamples = 423\nvalue = [420, 3]"] ;
85 -> 86 ;
87 [label="X[59] <= 13.036\ngini = 0.375\nsamples = 4\nvalue = [3, 1]"] ;
86 -> 87 ;
88 [label="gini = 0.0\nsamples = 1\nvalue = [0, 1]"] ;
87 -> 88 ;
89 [label="gini = 0.0\nsamples = 3\nvalue = [3, 0]"] ;
87 -> 89 ;
90 [label="X[171] <= 3.5\ngini = 0.01\nsamples = 419\nvalue = [417, 2]"] ;
86 -> 90 ;
91 [label="X[87] <= 5.5\ngini = 0.278\nsamples = 6\nvalue = [5, 1]"] ;
90 -> 91 ;
92 [label="gini = 0.0\nsamples = 5\nvalue = [5, 0]"] ;
91 -> 92 ;
93 [label="gini = 0.0\nsamples = 1\nvalue = [0, 1]"] ;
91 -> 93 ;
94 [label="X[81] <= 2.5\ngini = 0.005\nsamples = 413\nvalue = [412, 1]"] ;
90 -> 94 ;
95 [label="X[110] <= 35.0\ngini = 0.245\nsamples = 7\nvalue = [6, 1]"] ;
94 -> 95 ;
96 [label="gini = 0.0\nsamples = 6\nvalue = [6, 0]"] ;
95 -> 96 ;
97 [label="gini = 0.0\nsamples = 1\nvalue = [0, 1]"] ;
95 -> 97 ;
98 [label="gini = 0.0\nsamples = 406\nvalue = [406, 0]"] ;
94 -> 98 ;
99 [label="X[17] <= 6.5\ngini = 0.298\nsamples = 11\nvalue = [9, 2]"] ;
85 -> 99 ;
100 [label="gini = 0.0\nsamples = 2\nvalue = [0, 2]"] ;
99 -> 100 ;
101 [label="gini = 0.0\nsamples = 9\nvalue = [9, 0]"] ;
99 -> 101 ;
102 [label="X[9] <= 22.5\ngini = 0.5\nsamples = 2\nvalue = [1, 1]"] ;
72 -> 102 ;
103 [label="gini = 0.0\nsamples = 1\nvalue = [0, 1]"] ;
102 -> 103 ;
104 [label="gini = 0.0\nsamples = 1\nvalue = [1, 0]"] ;
102 -> 104 ;
105 [label="gini = 0.0\nsamples = 1\nvalue = [0, 1]"] ;
55 -> 105 ;
106 [label="gini = 0.0\nsamples = 1\nvalue = [0, 1]"] ;
54 -> 106 ;
107 [label="X[69] <= 16.0\ngini = 0.444\nsamples = 3\nvalue = [1, 2]"] ;
53 -> 107 ;
108 [label="gini = 0.0\nsamples = 2\nvalue = [0, 2]"] ;
107 -> 108 ;
109 [label="gini = 0.0\nsamples = 1\nvalue = [1, 0]"] ;
107 -> 109 ;
110 [label="X[87] <= 3.5\ngini = 0.473\nsamples = 13\nvalue = [8, 5]"] ;
36 -> 110 ;
111 [label="X[0] <= 0.5\ngini = 0.219\nsamples = 8\nvalue = [7, 1]"] ;
110 -> 111 ;
112 [label="gini = 0.0\nsamples = 7\nvalue = [7, 0]"] ;
111 -> 112 ;
113 [label="gini = 0.0\nsamples = 1\nvalue = [0, 1]"] ;
111 -> 113 ;
114 [label="X[6] <= 28.5\ngini = 0.32\nsamples = 5\nvalue = [1, 4]"] ;
110 -> 114 ;
115 [label="gini = 0.0\nsamples = 4\nvalue = [0, 4]"] ;
114 -> 115 ;
116 [label="gini = 0.0\nsamples = 1\nvalue = [1, 0]"] ;
114 -> 116 ;
117 [label="X[99] <= 5.846\ngini = 0.375\nsamples = 4\nvalue = [1, 3]"] ;
35 -> 117 ;
118 [label="gini = 0.0\nsamples = 1\nvalue = [1, 0]"] ;
117 -> 118 ;
119 [label="gini = 0.0\nsamples = 3\nvalue = [0, 3]"] ;
117 -> 119 ;
120 [label="gini = 0.0\nsamples = 2\nvalue = [0, 2]"] ;
16 -> 120 ;
121 [label="gini = 0.0\nsamples = 2\nvalue = [0, 2]"] ;
15 -> 121 ;
122 [label="X[64] <= 11.12\ngini = 0.267\nsamples = 233\nvalue = [196, 37]"] ;
14 -> 122 ;
123 [label="X[21] <= 4.5\ngini = 0.337\nsamples = 14\nvalue = [3, 11]"] ;
122 -> 123 ;
124 [label="X[8] <= 17.5\ngini = 0.375\nsamples = 4\nvalue = [3, 1]"] ;
123 -> 124 ;
125 [label="gini = 0.0\nsamples = 1\nvalue = [0, 1]"] ;
124 -> 125 ;
126 [label="gini = 0.0\nsamples = 3\nvalue = [3, 0]"] ;
124 -> 126 ;
127 [label="gini = 0.0\nsamples = 10\nvalue = [0, 10]"] ;
123 -> 127 ;
128 [label="X[72] <= 6.5\ngini = 0.209\nsamples = 219\nvalue = [193, 26]"] ;
122 -> 128 ;
129 [label="X[83] <= 4.5\ngini = 0.435\nsamples = 47\nvalue = [32, 15]"] ;
128 -> 129 ;
130 [label="X[23] <= 1.98\ngini = 0.091\nsamples = 21\nvalue = [20, 1]"] ;
129 -> 130 ;
131 [label="gini = 0.0\nsamples = 1\nvalue = [0, 1]"] ;
130 -> 131 ;
132 [label="gini = 0.0\nsamples = 20\nvalue = [20, 0]"] ;
130 -> 132 ;
133 [label="X[6] <= 27.5\ngini = 0.497\nsamples = 26\nvalue = [12, 14]"] ;
129 -> 133 ;
134 [label="X[84] <= 5.5\ngini = 0.469\nsamples = 16\nvalue = [10, 6]"] ;
133 -> 134 ;
135 [label="X[80] <= 2.5\ngini = 0.469\nsamples = 8\nvalue = [3, 5]"] ;
134 -> 135 ;
136 [label="gini = 0.0\nsamples = 3\nvalue = [3, 0]"] ;
135 -> 136 ;
137 [label="gini = 0.0\nsamples = 5\nvalue = [0, 5]"] ;
135 -> 137 ;
138 [label="X[41] <= 6.5\ngini = 0.219\nsamples = 8\nvalue = [7, 1]"] ;
134 -> 138 ;
139 [label="gini = 0.0\nsamples = 7\nvalue = [7, 0]"] ;
138 -> 139 ;
140 [label="gini = 0.0\nsamples = 1\nvalue = [0, 1]"] ;
138 -> 140 ;
141 [label="X[80] <= 4.5\ngini = 0.32\nsamples = 10\nvalue = [2, 8]"] ;
133 -> 141 ;
142 [label="gini = 0.0\nsamples = 2\nvalue = [2, 0]"] ;
141 -> 142 ;
143 [label="gini = 0.0\nsamples = 8\nvalue = [0, 8]"] ;
141 -> 143 ;
144 [label="X[105] <= 22.5\ngini = 0.12\nsamples = 172\nvalue = [161, 11]"] ;
128 -> 144 ;
145 [label="X[176] <= 9.5\ngini = 0.062\nsamples = 155\nvalue = [150, 5]"] ;
144 -> 145 ;
146 [label="X[17] <= 2.5\ngini = 0.051\nsamples = 154\nvalue = [150, 4]"] ;
145 -> 146 ;
147 [label="gini = 0.0\nsamples = 1\nvalue = [0, 1]"] ;
146 -> 147 ;
148 [label="X[8] <= 54.0\ngini = 0.038\nsamples = 153\nvalue = [150, 3]"] ;
146 -> 148 ;
149 [label="X[57] <= 27.5\ngini = 0.013\nsamples = 149\nvalue = [148, 1]"] ;
148 -> 149 ;
150 [label="gini = 0.0\nsamples = 145\nvalue = [145, 0]"] ;
149 -> 150 ;
151 [label="X[32] <= 4.5\ngini = 0.375\nsamples = 4\nvalue = [3, 1]"] ;
149 -> 151 ;
152 [label="gini = 0.0\nsamples = 1\nvalue = [0, 1]"] ;
151 -> 152 ;
153 [label="gini = 0.0\nsamples = 3\nvalue = [3, 0]"] ;
151 -> 153 ;
154 [label="X[34] <= 4.5\ngini = 0.5\nsamples = 4\nvalue = [2, 2]"] ;
148 -> 154 ;
155 [label="gini = 0.0\nsamples = 2\nvalue = [2, 0]"] ;
154 -> 155 ;
156 [label="gini = 0.0\nsamples = 2\nvalue = [0, 2]"] ;
154 -> 156 ;
157 [label="gini = 0.0\nsamples = 1\nvalue = [0, 1]"] ;
145 -> 157 ;
158 [label="X[87] <= 4.5\ngini = 0.457\nsamples = 17\nvalue = [11, 6]"] ;
144 -> 158 ;
159 [label="X[12] <= 1.5\ngini = 0.18\nsamples = 10\nvalue = [9, 1]"] ;
158 -> 159 ;
160 [label="X[4] <= 0.265\ngini = 0.5\nsamples = 2\nvalue = [1, 1]"] ;
159 -> 160 ;
161 [label="gini = 0.0\nsamples = 1\nvalue = [0, 1]"] ;
160 -> 161 ;
162 [label="gini = 0.0\nsamples = 1\nvalue = [1, 0]"] ;
160 -> 162 ;
163 [label="gini = 0.0\nsamples = 8\nvalue = [8, 0]"] ;
159 -> 163 ;
164 [label="X[12] <= 13.0\ngini = 0.408\nsamples = 7\nvalue = [2, 5]"] ;
158 -> 164 ;
165 [label="gini = 0.0\nsamples = 5\nvalue = [0, 5]"] ;
164 -> 165 ;
166 [label="gini = 0.0\nsamples = 2\nvalue = [2, 0]"] ;
164 -> 166 ;
167 [label="gini = 0.0\nsamples = 3\nvalue = [0, 3]"] ;
13 -> 167 ;
168 [label="X[129] <= 7.466\ngini = 0.357\nsamples = 357\nvalue = [274, 83]"] ;
12 -> 168 ;
169 [label="X[41] <= 6.5\ngini = 0.477\nsamples = 117\nvalue = [71, 46]"] ;
168 -> 169 ;
170 [label="X[120] <= 1.5\ngini = 0.334\nsamples = 66\nvalue = [52, 14]"] ;
169 -> 170 ;
171 [label="X[80] <= 6.0\ngini = 0.408\nsamples = 7\nvalue = [2, 5]"] ;
170 -> 171 ;
172 [label="gini = 0.0\nsamples = 2\nvalue = [2, 0]"] ;
171 -> 172 ;
173 [label="gini = 0.0\nsamples = 5\nvalue = [0, 5]"] ;
171 -> 173 ;
174 [label="X[93] <= 15.13\ngini = 0.259\nsamples = 59\nvalue = [50, 9]"] ;
170 -> 174 ;
175 [label="X[84] <= 7.5\ngini = 0.461\nsamples = 25\nvalue = [16, 9]"] ;
174 -> 175 ;
176 [label="X[87] <= 3.5\ngini = 0.5\nsamples = 18\nvalue = [9, 9]"] ;
175 -> 176 ;
177 [label="X[81] <= 7.088\ngini = 0.346\nsamples = 9\nvalue = [7, 2]"] ;
176 -> 177 ;
178 [label="X[7] <= 5.0\ngini = 0.444\nsamples = 3\nvalue = [1, 2]"] ;
177 -> 178 ;
179 [label="gini = 0.0\nsamples = 2\nvalue = [0, 2]"] ;
178 -> 179 ;
180 [label="gini = 0.0\nsamples = 1\nvalue = [1, 0]"] ;
178 -> 180 ;
181 [label="gini = 0.0\nsamples = 6\nvalue = [6, 0]"] ;
177 -> 181 ;
182 [label="X[20] <= 7.0\ngini = 0.346\nsamples = 9\nvalue = [2, 7]"] ;
176 -> 182 ;
183 [label="gini = 0.0\nsamples = 7\nvalue = [0, 7]"] ;
182 -> 183 ;
184 [label="gini = 0.0\nsamples = 2\nvalue = [2, 0]"] ;
182 -> 184 ;
185 [label="gini = 0.0\nsamples = 7\nvalue = [7, 0]"] ;
175 -> 185 ;
186 [label="gini = 0.0\nsamples = 34\nvalue = [34, 0]"] ;
174 -> 186 ;
187 [label="X[115] <= 14.475\ngini = 0.468\nsamples = 51\nvalue = [19, 32]"] ;
169 -> 187 ;
188 [label="X[19] <= 7.5\ngini = 0.473\nsamples = 26\nvalue = [16, 10]"] ;
187 -> 188 ;
189 [label="X[83] <= 9.5\ngini = 0.291\nsamples = 17\nvalue = [14, 3]"] ;
188 -> 189 ;
190 [label="X[22] <= 2.5\ngini = 0.124\nsamples = 15\nvalue = [14, 1]"] ;
189 -> 190 ;
191 [label="gini = 0.0\nsamples = 1\nvalue = [0, 1]"] ;
190 -> 191 ;
192 [label="gini = 0.0\nsamples = 14\nvalue = [14, 0]"] ;
190 -> 192 ;
193 [label="gini = 0.0\nsamples = 2\nvalue = [0, 2]"] ;
189 -> 193 ;
194 [label="X[4] <= 0.635\ngini = 0.346\nsamples = 9\nvalue = [2, 7]"] ;
188 -> 194 ;
195 [label="gini = 0.0\nsamples = 7\nvalue = [0, 7]"] ;
194 -> 195 ;
196 [label="gini = 0.0\nsamples = 2\nvalue = [2, 0]"] ;
194 -> 196 ;
197 [label="X[64] <= 21.765\ngini = 0.211\nsamples = 25\nvalue = [3, 22]"] ;
187 -> 197 ;
198 [label="X[97] <= 6.541\ngini = 0.375\nsamples = 4\nvalue = [3, 1]"] ;
197 -> 198 ;
199 [label="gini = 0.0\nsamples = 1\nvalue = [0, 1]"] ;
198 -> 199 ;
200 [label="gini = 0.0\nsamples = 3\nvalue = [3, 0]"] ;
198 -> 200 ;
201 [label="gini = 0.0\nsamples = 21\nvalue = [0, 21]"] ;
197 -> 201 ;
202 [label="X[159] <= 2.5\ngini = 0.261\nsamples = 240\nvalue = [203, 37]"] ;
168 -> 202 ;
203 [label="gini = 0.0\nsamples = 4\nvalue = [0, 4]"] ;
202 -> 203 ;
204 [label="X[87] <= 6.5\ngini = 0.241\nsamples = 236\nvalue = [203, 33]"] ;
202 -> 204 ;
205 [label="X[52] <= 17.89\ngini = 0.199\nsamples = 214\nvalue = [190, 24]"] ;
204 -> 205 ;
206 [label="X[72] <= 8.5\ngini = 0.366\nsamples = 83\nvalue = [63, 20]"] ;
205 -> 206 ;
207 [label="X[67] <= 22.775\ngini = 0.486\nsamples = 48\nvalue = [28, 20]"] ;
206 -> 207 ;
208 [label="X[138] <= 0.39\ngini = 0.497\nsamples = 37\nvalue = [17, 20]"] ;
207 -> 208 ;
209 [label="X[14] <= 0.5\ngini = 0.337\nsamples = 14\nvalue = [11, 3]"] ;
208 -> 209 ;
210 [label="gini = 0.0\nsamples = 10\nvalue = [10, 0]"] ;
209 -> 210 ;
211 [label="X[159] <= 8.104\ngini = 0.375\nsamples = 4\nvalue = [1, 3]"] ;
209 -> 211 ;
212 [label="gini = 0.0\nsamples = 3\nvalue = [0, 3]"] ;
211 -> 212 ;
213 [label="gini = 0.0\nsamples = 1\nvalue = [1, 0]"] ;
211 -> 213 ;
214 [label="X[87] <= 5.5\ngini = 0.386\nsamples = 23\nvalue = [6, 17]"] ;
208 -> 214 ;
215 [label="X[9] <= 19.615\ngini = 0.308\nsamples = 21\nvalue = [4, 17]"] ;
214 -> 215 ;
216 [label="X[81] <= 9.0\ngini = 0.124\nsamples = 15\nvalue = [1, 14]"] ;
215 -> 216 ;
217 [label="gini = 0.0\nsamples = 14\nvalue = [0, 14]"] ;
216 -> 217 ;
218 [label="gini = 0.0\nsamples = 1\nvalue = [1, 0]"] ;
216 -> 218 ;
219 [label="X[14] <= 0.5\ngini = 0.5\nsamples = 6\nvalue = [3, 3]"] ;
215 -> 219 ;
220 [label="gini = 0.0\nsamples = 3\nvalue = [3, 0]"] ;
219 -> 220 ;
221 [label="gini = 0.0\nsamples = 3\nvalue = [0, 3]"] ;
219 -> 221 ;
222 [label="gini = 0.0\nsamples = 2\nvalue = [2, 0]"] ;
214 -> 222 ;
223 [label="gini = 0.0\nsamples = 11\nvalue = [11, 0]"] ;
207 -> 223 ;
224 [label="gini = 0.0\nsamples = 35\nvalue = [35, 0]"] ;
206 -> 224 ;
225 [label="X[122] <= 82.5\ngini = 0.059\nsamples = 131\nvalue = [127, 4]"] ;
205 -> 225 ;
226 [label="X[157] <= 6.0\ngini = 0.045\nsamples = 130\nvalue = [127, 3]"] ;
225 -> 226 ;
227 [label="X[84] <= 7.0\ngini = 0.444\nsamples = 6\nvalue = [4, 2]"] ;
226 -> 227 ;
228 [label="gini = 0.0\nsamples = 4\nvalue = [4, 0]"] ;
227 -> 228 ;
229 [label="gini = 0.0\nsamples = 2\nvalue = [0, 2]"] ;
227 -> 229 ;
230 [label="X[64] <= 95.0\ngini = 0.016\nsamples = 124\nvalue = [123, 1]"] ;
226 -> 230 ;
231 [label="gini = 0.0\nsamples = 122\nvalue = [122, 0]"] ;
230 -> 231 ;
232 [label="X[15] <= 7.0\ngini = 0.5\nsamples = 2\nvalue = [1, 1]"] ;
230 -> 232 ;
233 [label="gini = 0.0\nsamples = 1\nvalue = [0, 1]"] ;
232 -> 233 ;
234 [label="gini = 0.0\nsamples = 1\nvalue = [1, 0]"] ;
232 -> 234 ;
235 [label="gini = 0.0\nsamples = 1\nvalue = [0, 1]"] ;
225 -> 235 ;
236 [label="X[81] <= 7.088\ngini = 0.483\nsamples = 22\nvalue = [13, 9]"] ;
204 -> 236 ;
237 [label="X[84] <= 5.5\ngini = 0.346\nsamples = 9\nvalue = [2, 7]"] ;
236 -> 237 ;
238 [label="gini = 0.0\nsamples = 2\nvalue = [2, 0]"] ;
237 -> 238 ;
239 [label="gini = 0.0\nsamples = 7\nvalue = [0, 7]"] ;
237 -> 239 ;
240 [label="X[4] <= 0.6\ngini = 0.26\nsamples = 13\nvalue = [11, 2]"] ;
236 -> 240 ;
241 [label="gini = 0.0\nsamples = 11\nvalue = [11, 0]"] ;
240 -> 241 ;
242 [label="gini = 0.0\nsamples = 2\nvalue = [0, 2]"] ;
240 -> 242 ;
243 [label="X[80] <= 6.345\ngini = 0.442\nsamples = 1276\nvalue = [855, 421]"] ;
1 -> 243 ;
244 [label="X[89] <= 2.75\ngini = 0.383\nsamples = 899\nvalue = [667, 232]"] ;
243 -> 244 ;
245 [label="X[75] <= 2.5\ngini = 0.226\nsamples = 355\nvalue = [309, 46]"] ;
244 -> 245 ;
246 [label="X[16] <= 6.5\ngini = 0.278\nsamples = 6\nvalue = [1, 5]"] ;
245 -> 246 ;
247 [label="gini = 0.0\nsamples = 1\nvalue = [1, 0]"] ;
246 -> 247 ;
248 [label="gini = 0.0\nsamples = 5\nvalue = [0, 5]"] ;
246 -> 248 ;
249 [label="X[4] <= -0.45\ngini = 0.207\nsamples = 349\nvalue = [308, 41]"] ;
245 -> 249 ;
250 [label="X[30] <= 4.5\ngini = 0.32\nsamples = 5\nvalue = [1, 4]"] ;
249 -> 250 ;
251 [label="gini = 0.0\nsamples = 1\nvalue = [1, 0]"] ;
250 -> 251 ;
252 [label="gini = 0.0\nsamples = 4\nvalue = [0, 4]"] ;
250 -> 252 ;
253 [label="X[35] <= 3.5\ngini = 0.192\nsamples = 344\nvalue = [307, 37]"] ;
249 -> 253 ;
254 [label="X[25] <= 8.5\ngini = 0.411\nsamples = 52\nvalue = [37, 15]"] ;
253 -> 254 ;
255 [label="X[155] <= 27.805\ngini = 0.213\nsamples = 33\nvalue = [29, 4]"] ;
254 -> 255 ;
256 [label="X[20] <= 9.0\ngini = 0.071\nsamples = 27\nvalue = [26, 1]"] ;
255 -> 256 ;
257 [label="gini = 0.0\nsamples = 25\nvalue = [25, 0]"] ;
256 -> 257 ;
258 [label="X[125] <= 20.0\ngini = 0.5\nsamples = 2\nvalue = [1, 1]"] ;
256 -> 258 ;
259 [label="gini = 0.0\nsamples = 1\nvalue = [0, 1]"] ;
258 -> 259 ;
260 [label="gini = 0.0\nsamples = 1\nvalue = [1, 0]"] ;
258 -> 260 ;
261 [label="X[22] <= 5.604\ngini = 0.5\nsamples = 6\nvalue = [3, 3]"] ;
255 -> 261 ;
262 [label="gini = 0.0\nsamples = 3\nvalue = [3, 0]"] ;
261 -> 262 ;
263 [label="gini = 0.0\nsamples = 3\nvalue = [0, 3]"] ;
261 -> 263 ;
264 [label="X[86] <= 6.067\ngini = 0.488\nsamples = 19\nvalue = [8, 11]"] ;
254 -> 264 ;
265 [label="X[13] <= 17.09\ngini = 0.391\nsamples = 15\nvalue = [4, 11]"] ;
264 -> 265 ;
266 [label="gini = 0.0\nsamples = 10\nvalue = [0, 10]"] ;
265 -> 266 ;
267 [label="X[113] <= 18.827\ngini = 0.32\nsamples = 5\nvalue = [4, 1]"] ;
265 -> 267 ;
268 [label="gini = 0.0\nsamples = 4\nvalue = [4, 0]"] ;
267 -> 268 ;
269 [label="gini = 0.0\nsamples = 1\nvalue = [0, 1]"] ;
267 -> 269 ;
270 [label="gini = 0.0\nsamples = 4\nvalue = [4, 0]"] ;
264 -> 270 ;
271 [label="X[4] <= 0.725\ngini = 0.139\nsamples = 292\nvalue = [270, 22]"] ;
253 -> 271 ;
272 [label="X[31] <= 6.0\ngini = 0.129\nsamples = 289\nvalue = [269, 20]"] ;
271 -> 272 ;
273 [label="X[20] <= 0.5\ngini = 0.118\nsamples = 286\nvalue = [268, 18]"] ;
272 -> 273 ;
274 [label="gini = 0.0\nsamples = 1\nvalue = [0, 1]"] ;
273 -> 274 ;
275 [label="X[172] <= 8.5\ngini = 0.112\nsamples = 285\nvalue = [268, 17]"] ;
273 -> 275 ;
276 [label="X[138] <= 3.0\ngini = 0.106\nsamples = 284\nvalue = [268, 16]"] ;
275 -> 276 ;
277 [label="X[4] <= -0.205\ngini = 0.1\nsamples = 283\nvalue = [268, 15]"] ;
276 -> 277 ;
278 [label="X[45] <= 9.5\ngini = 0.311\nsamples = 26\nvalue = [21, 5]"] ;
277 -> 278 ;
279 [label="X[170] <= 5.0\ngini = 0.087\nsamples = 22\nvalue = [21, 1]"] ;
278 -> 279 ;
280 [label="gini = 0.0\nsamples = 1\nvalue = [0, 1]"] ;
279 -> 280 ;
281 [label="gini = 0.0\nsamples = 21\nvalue = [21, 0]"] ;
279 -> 281 ;
282 [label="gini = 0.0\nsamples = 4\nvalue = [0, 4]"] ;
278 -> 282 ;
283 [label="X[154] <= 22.5\ngini = 0.075\nsamples = 257\nvalue = [247, 10]"] ;
277 -> 283 ;
284 [label="X[108] <= 12.0\ngini = 0.055\nsamples = 246\nvalue = [239, 7]"] ;
283 -> 284 ;
285 [label="X[64] <= 92.5\ngini = 0.041\nsamples = 239\nvalue = [234, 5]"] ;
284 -> 285 ;
286 [label="X[23] <= 1.48\ngini = 0.033\nsamples = 237\nvalue = [233, 4]"] ;
285 -> 286 ;
287 [label="X[160] <= 13.0\ngini = 0.5\nsamples = 2\nvalue = [1, 1]"] ;
286 -> 287 ;
288 [label="gini = 0.0\nsamples = 1\nvalue = [1, 0]"] ;
287 -> 288 ;
289 [label="gini = 0.0\nsamples = 1\nvalue = [0, 1]"] ;
287 -> 289 ;
290 [label="X[20] <= 8.5\ngini = 0.025\nsamples = 235\nvalue = [232, 3]"] ;
286 -> 290 ;
291 [label="X[98] <= 9.5\ngini = 0.009\nsamples = 220\nvalue = [219, 1]"] ;
290 -> 291 ;
292 [label="gini = 0.0\nsamples = 216\nvalue = [216, 0]"] ;
291 -> 292 ;
293 [label="X[17] <= 7.685\ngini = 0.375\nsamples = 4\nvalue = [3, 1]"] ;
291 -> 293 ;
294 [label="gini = 0.0\nsamples = 3\nvalue = [3, 0]"] ;
293 -> 294 ;
295 [label="gini = 0.0\nsamples = 1\nvalue = [0, 1]"] ;
293 -> 295 ;
296 [label="X[100] <= 8.5\ngini = 0.231\nsamples = 15\nvalue = [13, 2]"] ;
290 -> 296 ;
297 [label="gini = 0.0\nsamples = 12\nvalue = [12, 0]"] ;
296 -> 297 ;
298 [label="X[11] <= 13.335\ngini = 0.444\nsamples = 3\nvalue = [1, 2]"] ;
296 -> 298 ;
299 [label="gini = 0.0\nsamples = 1\nvalue = [1, 0]"] ;
298 -> 299 ;
300 [label="gini = 0.0\nsamples = 2\nvalue = [0, 2]"] ;
298 -> 300 ;
301 [label="X[83] <= 6.0\ngini = 0.5\nsamples = 2\nvalue = [1, 1]"] ;
285 -> 301 ;
302 [label="gini = 0.0\nsamples = 1\nvalue = [0, 1]"] ;
301 -> 302 ;
303 [label="gini = 0.0\nsamples = 1\nvalue = [1, 0]"] ;
301 -> 303 ;
304 [label="X[22] <= 6.104\ngini = 0.408\nsamples = 7\nvalue = [5, 2]"] ;
284 -> 304 ;
305 [label="gini = 0.0\nsamples = 5\nvalue = [5, 0]"] ;
304 -> 305 ;
306 [label="gini = 0.0\nsamples = 2\nvalue = [0, 2]"] ;
304 -> 306 ;
307 [label="X[87] <= 6.5\ngini = 0.397\nsamples = 11\nvalue = [8, 3]"] ;
283 -> 307 ;
308 [label="X[1] <= 7.5\ngini = 0.198\nsamples = 9\nvalue = [8, 1]"] ;
307 -> 308 ;
309 [label="gini = 0.0\nsamples = 8\nvalue = [8, 0]"] ;
308 -> 309 ;
310 [label="gini = 0.0\nsamples = 1\nvalue = [0, 1]"] ;
308 -> 310 ;
311 [label="gini = 0.0\nsamples = 2\nvalue = [0, 2]"] ;
307 -> 311 ;
312 [label="gini = 0.0\nsamples = 1\nvalue = [0, 1]"] ;
276 -> 312 ;
313 [label="gini = 0.0\nsamples = 1\nvalue = [0, 1]"] ;
275 -> 313 ;
314 [label="X[3] <= 98.0\ngini = 0.444\nsamples = 3\nvalue = [1, 2]"] ;
272 -> 314 ;
315 [label="gini = 0.0\nsamples = 1\nvalue = [1, 0]"] ;
314 -> 315 ;
316 [label="gini = 0.0\nsamples = 2\nvalue = [0, 2]"] ;
314 -> 316 ;
317 [label="X[171] <= 7.196\ngini = 0.444\nsamples = 3\nvalue = [1, 2]"] ;
271 -> 317 ;
318 [label="gini = 0.0\nsamples = 1\nvalue = [1, 0]"] ;
317 -> 318 ;
319 [label="gini = 0.0\nsamples = 2\nvalue = [0, 2]"] ;
317 -> 319 ;
320 [label="X[80] <= 6.095\ngini = 0.45\nsamples = 544\nvalue = [358, 186]"] ;
244 -> 320 ;
321 [label="X[26] <= 3.5\ngini = 0.478\nsamples = 462\nvalue = [279, 183]"] ;
320 -> 321 ;
322 [label="X[75] <= 4.5\ngini = 0.422\nsamples = 308\nvalue = [215, 93]"] ;
321 -> 322 ;
323 [label="gini = 0.0\nsamples = 7\nvalue = [0, 7]"] ;
322 -> 323 ;
324 [label="X[66] <= 19.28\ngini = 0.408\nsamples = 301\nvalue = [215, 86]"] ;
322 -> 324 ;
325 [label="X[46] <= 3.5\ngini = 0.334\nsamples = 208\nvalue = [164, 44]"] ;
324 -> 325 ;
326 [label="X[65] <= 15.77\ngini = 0.5\nsamples = 28\nvalue = [14, 14]"] ;
325 -> 326 ;
327 [label="X[16] <= 8.5\ngini = 0.401\nsamples = 18\nvalue = [5, 13]"] ;
326 -> 327 ;
328 [label="X[20] <= 5.237\ngini = 0.305\nsamples = 16\nvalue = [3, 13]"] ;
327 -> 328 ;
329 [label="gini = 0.0\nsamples = 10\nvalue = [0, 10]"] ;
328 -> 329 ;
330 [label="X[13] <= 13.423\ngini = 0.5\nsamples = 6\nvalue = [3, 3]"] ;
328 -> 330 ;
331 [label="gini = 0.0\nsamples = 2\nvalue = [0, 2]"] ;
330 -> 331 ;
332 [label="X[4] <= 0.03\ngini = 0.375\nsamples = 4\nvalue = [3, 1]"] ;
330 -> 332 ;
333 [label="gini = 0.0\nsamples = 3\nvalue = [3, 0]"] ;
332 -> 333 ;
334 [label="gini = 0.0\nsamples = 1\nvalue = [0, 1]"] ;
332 -> 334 ;
335 [label="gini = 0.0\nsamples = 2\nvalue = [2, 0]"] ;
327 -> 335 ;
336 [label="X[9] <= 10.0\ngini = 0.18\nsamples = 10\nvalue = [9, 1]"] ;
326 -> 336 ;
337 [label="gini = 0.0\nsamples = 1\nvalue = [0, 1]"] ;
336 -> 337 ;
338 [label="gini = 0.0\nsamples = 9\nvalue = [9, 0]"] ;
336 -> 338 ;
339 [label="X[83] <= 7.5\ngini = 0.278\nsamples = 180\nvalue = [150, 30]"] ;
325 -> 339 ;
340 [label="X[19] <= 8.5\ngini = 0.216\nsamples = 154\nvalue = [135, 19]"] ;
339 -> 340 ;
341 [label="X[156] <= 12.876\ngini = 0.159\nsamples = 138\nvalue = [126, 12]"] ;
340 -> 341 ;
342 [label="X[121] <= 6.5\ngini = 0.136\nsamples = 136\nvalue = [126, 10]"] ;
341 -> 342 ;
343 [label="X[18] <= 6.2\ngini = 0.42\nsamples = 20\nvalue = [14, 6]"] ;
342 -> 343 ;
344 [label="gini = 0.0\nsamples = 4\nvalue = [0, 4]"] ;
343 -> 344 ;
345 [label="X[84] <= 9.0\ngini = 0.219\nsamples = 16\nvalue = [14, 2]"] ;
343 -> 345 ;
346 [label="X[12] <= 17.16\ngini = 0.124\nsamples = 15\nvalue = [14, 1]"] ;
345 -> 346 ;
347 [label="gini = 0.0\nsamples = 14\nvalue = [14, 0]"] ;
346 -> 347 ;
348 [label="gini = 0.0\nsamples = 1\nvalue = [0, 1]"] ;
346 -> 348 ;
349 [label="gini = 0.0\nsamples = 1\nvalue = [0, 1]"] ;
345 -> 349 ;
350 [label="X[147] <= 18.89\ngini = 0.067\nsamples = 116\nvalue = [112, 4]"] ;
342 -> 350 ;
351 [label="X[139] <= 3.5\ngini = 0.051\nsamples = 115\nvalue = [112, 3]"] ;
350 -> 351 ;
352 [label="X[85] <= 1.0\ngini = 0.034\nsamples = 114\nvalue = [112, 2]"] ;
351 -> 352 ;
353 [label="X[115] <= 13.88\ngini = 0.5\nsamples = 2\nvalue = [1, 1]"] ;
352 -> 353 ;
354 [label="gini = 0.0\nsamples = 1\nvalue = [1, 0]"] ;
353 -> 354 ;
355 [label="gini = 0.0\nsamples = 1\nvalue = [0, 1]"] ;
353 -> 355 ;
356 [label="X[176] <= 9.0\ngini = 0.018\nsamples = 112\nvalue = [111, 1]"] ;
352 -> 356 ;
357 [label="gini = 0.0\nsamples = 109\nvalue = [109, 0]"] ;
356 -> 357 ;
358 [label="X[10] <= 16.5\ngini = 0.444\nsamples = 3\nvalue = [2, 1]"] ;
356 -> 358 ;
359 [label="gini = 0.0\nsamples = 2\nvalue = [2, 0]"] ;
358 -> 359 ;
360 [label="gini = 0.0\nsamples = 1\nvalue = [0, 1]"] ;
358 -> 360 ;
361 [label="gini = 0.0\nsamples = 1\nvalue = [0, 1]"] ;
351 -> 361 ;
362 [label="gini = 0.0\nsamples = 1\nvalue = [0, 1]"] ;
350 -> 362 ;
363 [label="gini = 0.0\nsamples = 2\nvalue = [0, 2]"] ;
341 -> 363 ;
364 [label="X[96] <= 7.606\ngini = 0.492\nsamples = 16\nvalue = [9, 7]"] ;
340 -> 364 ;
365 [label="X[132] <= 5.5\ngini = 0.346\nsamples = 9\nvalue = [2, 7]"] ;
364 -> 365 ;
366 [label="gini = 0.0\nsamples = 2\nvalue = [2, 0]"] ;
365 -> 366 ;
367 [label="gini = 0.0\nsamples = 7\nvalue = [0, 7]"] ;
365 -> 367 ;
368 [label="gini = 0.0\nsamples = 7\nvalue = [7, 0]"] ;
364 -> 368 ;
369 [label="X[14] <= 0.5\ngini = 0.488\nsamples = 26\nvalue = [15, 11]"] ;
339 -> 369 ;
370 [label="X[5] <= 0.5\ngini = 0.444\nsamples = 15\nvalue = [5, 10]"] ;
369 -> 370 ;
371 [label="X[101] <= 6.356\ngini = 0.408\nsamples = 7\nvalue = [5, 2]"] ;
370 -> 371 ;
372 [label="gini = 0.0\nsamples = 4\nvalue = [4, 0]"] ;
371 -> 372 ;
373 [label="X[11] <= 17.5\ngini = 0.444\nsamples = 3\nvalue = [1, 2]"] ;
371 -> 373 ;
374 [label="gini = 0.0\nsamples = 1\nvalue = [1, 0]"] ;
373 -> 374 ;
375 [label="gini = 0.0\nsamples = 2\nvalue = [0, 2]"] ;
373 -> 375 ;
376 [label="gini = 0.0\nsamples = 8\nvalue = [0, 8]"] ;
370 -> 376 ;
377 [label="X[152] <= 25.0\ngini = 0.165\nsamples = 11\nvalue = [10, 1]"] ;
369 -> 377 ;
378 [label="gini = 0.0\nsamples = 10\nvalue = [10, 0]"] ;
377 -> 378 ;
379 [label="gini = 0.0\nsamples = 1\nvalue = [0, 1]"] ;
377 -> 379 ;
380 [label="X[123] <= 18.705\ngini = 0.495\nsamples = 93\nvalue = [51, 42]"] ;
324 -> 380 ;
381 [label="X[110] <= 35.0\ngini = 0.493\nsamples = 68\nvalue = [30, 38]"] ;
380 -> 381 ;
382 [label="X[87] <= 6.5\ngini = 0.415\nsamples = 51\nvalue = [15, 36]"] ;
381 -> 382 ;
383 [label="X[78] <= 8.5\ngini = 0.272\nsamples = 37\nvalue = [6, 31]"] ;
382 -> 383 ;
384 [label="X[30] <= 1.5\ngini = 0.165\nsamples = 33\nvalue = [3, 30]"] ;
383 -> 384 ;
385 [label="gini = 0.0\nsamples = 1\nvalue = [1, 0]"] ;
384 -> 385 ;
386 [label="X[9] <= 35.0\ngini = 0.117\nsamples = 32\nvalue = [2, 30]"] ;
384 -> 386 ;
387 [label="X[85] <= 2.5\ngini = 0.062\nsamples = 31\nvalue = [1, 30]"] ;
386 -> 387 ;
388 [label="X[112] <= 19.0\ngini = 0.5\nsamples = 2\nvalue = [1, 1]"] ;
387 -> 388 ;
389 [label="gini = 0.0\nsamples = 1\nvalue = [0, 1]"] ;
388 -> 389 ;
390 [label="gini = 0.0\nsamples = 1\nvalue = [1, 0]"] ;
388 -> 390 ;
391 [label="gini = 0.0\nsamples = 29\nvalue = [0, 29]"] ;
387 -> 391 ;
392 [label="gini = 0.0\nsamples = 1\nvalue = [1, 0]"] ;
386 -> 392 ;
393 [label="X[19] <= 6.889\ngini = 0.375\nsamples = 4\nvalue = [3, 1]"] ;
383 -> 393 ;
394 [label="gini = 0.0\nsamples = 3\nvalue = [3, 0]"] ;
393 -> 394 ;
395 [label="gini = 0.0\nsamples = 1\nvalue = [0, 1]"] ;
393 -> 395 ;
396 [label="X[6] <= 27.5\ngini = 0.459\nsamples = 14\nvalue = [9, 5]"] ;
382 -> 396 ;
397 [label="gini = 0.0\nsamples = 6\nvalue = [6, 0]"] ;
396 -> 397 ;
398 [label="X[41] <= 7.0\ngini = 0.469\nsamples = 8\nvalue = [3, 5]"] ;
396 -> 398 ;
399 [label="gini = 0.0\nsamples = 4\nvalue = [0, 4]"] ;
398 -> 399 ;
400 [label="X[21] <= 5.5\ngini = 0.375\nsamples = 4\nvalue = [3, 1]"] ;
398 -> 400 ;
401 [label="gini = 0.0\nsamples = 1\nvalue = [0, 1]"] ;
400 -> 401 ;
402 [label="gini = 0.0\nsamples = 3\nvalue = [3, 0]"] ;
400 -> 402 ;
403 [label="X[3] <= 520.0\ngini = 0.208\nsamples = 17\nvalue = [15, 2]"] ;
381 -> 403 ;
404 [label="X[138] <= 3.5\ngini = 0.117\nsamples = 16\nvalue = [15, 1]"] ;
403 -> 404 ;
405 [label="gini = 0.0\nsamples = 14\nvalue = [14, 0]"] ;
404 -> 405 ;
406 [label="X[16] <= 6.0\ngini = 0.5\nsamples = 2\nvalue = [1, 1]"] ;
404 -> 406 ;
407 [label="gini = 0.0\nsamples = 1\nvalue = [0, 1]"] ;
406 -> 407 ;
408 [label="gini = 0.0\nsamples = 1\nvalue = [1, 0]"] ;
406 -> 408 ;
409 [label="gini = 0.0\nsamples = 1\nvalue = [0, 1]"] ;
403 -> 409 ;
410 [label="X[16] <= 9.5\ngini = 0.269\nsamples = 25\nvalue = [21, 4]"] ;
380 -> 410 ;
411 [label="X[85] <= 8.5\ngini = 0.159\nsamples = 23\nvalue = [21, 2]"] ;
410 -> 411 ;
412 [label="X[69] <= 2.5\ngini = 0.087\nsamples = 22\nvalue = [21, 1]"] ;
411 -> 412 ;
413 [label="X[17] <= 8.5\ngini = 0.5\nsamples = 2\nvalue = [1, 1]"] ;
412 -> 413 ;
414 [label="gini = 0.0\nsamples = 1\nvalue = [0, 1]"] ;
413 -> 414 ;
415 [label="gini = 0.0\nsamples = 1\nvalue = [1, 0]"] ;
413 -> 415 ;
416 [label="gini = 0.0\nsamples = 20\nvalue = [20, 0]"] ;
412 -> 416 ;
417 [label="gini = 0.0\nsamples = 1\nvalue = [0, 1]"] ;
411 -> 417 ;
418 [label="gini = 0.0\nsamples = 2\nvalue = [0, 2]"] ;
410 -> 418 ;
419 [label="X[147] <= 10.449\ngini = 0.486\nsamples = 154\nvalue = [64, 90]"] ;
321 -> 419 ;
420 [label="X[56] <= 1.0\ngini = 0.346\nsamples = 27\nvalue = [21, 6]"] ;
419 -> 420 ;
421 [label="gini = 0.0\nsamples = 3\nvalue = [0, 3]"] ;
420 -> 421 ;
422 [label="X[85] <= 7.5\ngini = 0.219\nsamples = 24\nvalue = [21, 3]"] ;
420 -> 422 ;
423 [label="X[10] <= 7.5\ngini = 0.159\nsamples = 23\nvalue = [21, 2]"] ;
422 -> 423 ;
424 [label="gini = 0.0\nsamples = 1\nvalue = [0, 1]"] ;
423 -> 424 ;
425 [label="X[18] <= 3.0\ngini = 0.087\nsamples = 22\nvalue = [21, 1]"] ;
423 -> 425 ;
426 [label="gini = 0.0\nsamples = 1\nvalue = [0, 1]"] ;
425 -> 426 ;
427 [label="gini = 0.0\nsamples = 21\nvalue = [21, 0]"] ;
425 -> 427 ;
428 [label="gini = 0.0\nsamples = 1\nvalue = [0, 1]"] ;
422 -> 428 ;
429 [label="X[80] <= 4.5\ngini = 0.448\nsamples = 127\nvalue = [43, 84]"] ;
419 -> 429 ;
430 [label="X[114] <= 13.055\ngini = 0.332\nsamples = 19\nvalue = [15, 4]"] ;
429 -> 430 ;
431 [label="X[85] <= 8.5\ngini = 0.124\nsamples = 15\nvalue = [14, 1]"] ;
430 -> 431 ;
432 [label="gini = 0.0\nsamples = 14\nvalue = [14, 0]"] ;
431 -> 432 ;
433 [label="gini = 0.0\nsamples = 1\nvalue = [0, 1]"] ;
431 -> 433 ;
434 [label="X[18] <= 7.0\ngini = 0.375\nsamples = 4\nvalue = [1, 3]"] ;
430 -> 434 ;
435 [label="gini = 0.0\nsamples = 1\nvalue = [1, 0]"] ;
434 -> 435 ;
436 [label="gini = 0.0\nsamples = 3\nvalue = [0, 3]"] ;
434 -> 436 ;
437 [label="X[132] <= 7.243\ngini = 0.384\nsamples = 108\nvalue = [28, 80]"] ;
429 -> 437 ;
438 [label="X[52] <= 16.49\ngini = 0.497\nsamples = 39\nvalue = [18, 21]"] ;
437 -> 438 ;
439 [label="X[27] <= 3.0\ngini = 0.351\nsamples = 22\nvalue = [5, 17]"] ;
438 -> 439 ;
440 [label="X[8] <= 40.0\ngini = 0.198\nsamples = 18\nvalue = [2, 16]"] ;
439 -> 440 ;
441 [label="gini = 0.0\nsamples = 15\nvalue = [0, 15]"] ;
440 -> 441 ;
442 [label="X[145] <= 19.0\ngini = 0.444\nsamples = 3\nvalue = [2, 1]"] ;
440 -> 442 ;
443 [label="gini = 0.0\nsamples = 2\nvalue = [2, 0]"] ;
442 -> 443 ;
444 [label="gini = 0.0\nsamples = 1\nvalue = [0, 1]"] ;
442 -> 444 ;
445 [label="X[10] <= 16.49\ngini = 0.375\nsamples = 4\nvalue = [3, 1]"] ;
439 -> 445 ;
446 [label="gini = 0.0\nsamples = 1\nvalue = [0, 1]"] ;
445 -> 446 ;
447 [label="gini = 0.0\nsamples = 3\nvalue = [3, 0]"] ;
445 -> 447 ;
448 [label="X[13] <= 19.0\ngini = 0.36\nsamples = 17\nvalue = [13, 4]"] ;
438 -> 448 ;
449 [label="X[6] <= 31.5\ngini = 0.133\nsamples = 14\nvalue = [13, 1]"] ;
448 -> 449 ;
450 [label="gini = 0.0\nsamples = 12\nvalue = [12, 0]"] ;
449 -> 450 ;
451 [label="X[123] <= 15.0\ngini = 0.5\nsamples = 2\nvalue = [1, 1]"] ;
449 -> 451 ;
452 [label="gini = 0.0\nsamples = 1\nvalue = [0, 1]"] ;
451 -> 452 ;
453 [label="gini = 0.0\nsamples = 1\nvalue = [1, 0]"] ;
451 -> 453 ;
454 [label="gini = 0.0\nsamples = 3\nvalue = [0, 3]"] ;
448 -> 454 ;
455 [label="X[56] <= 14.445\ngini = 0.248\nsamples = 69\nvalue = [10, 59]"] ;
437 -> 455 ;
456 [label="X[101] <= 3.5\ngini = 0.04\nsamples = 49\nvalue = [1, 48]"] ;
455 -> 456 ;
457 [label="gini = 0.0\nsamples = 1\nvalue = [1, 0]"] ;
456 -> 457 ;
458 [label="gini = 0.0\nsamples = 48\nvalue = [0, 48]"] ;
456 -> 458 ;
459 [label="X[115] <= 16.51\ngini = 0.495\nsamples = 20\nvalue = [9, 11]"] ;
455 -> 459 ;
460 [label="X[59] <= 6.5\ngini = 0.397\nsamples = 11\nvalue = [8, 3]"] ;
459 -> 460 ;
461 [label="gini = 0.0\nsamples = 2\nvalue = [0, 2]"] ;
460 -> 461 ;
462 [label="X[12] <= 17.84\ngini = 0.198\nsamples = 9\nvalue = [8, 1]"] ;
460 -> 462 ;
463 [label="gini = 0.0\nsamples = 8\nvalue = [8, 0]"] ;
462 -> 463 ;
464 [label="gini = 0.0\nsamples = 1\nvalue = [0, 1]"] ;
462 -> 464 ;
465 [label="X[6] <= 22.5\ngini = 0.198\nsamples = 9\nvalue = [1, 8]"] ;
459 -> 465 ;
466 [label="gini = 0.0\nsamples = 1\nvalue = [1, 0]"] ;
465 -> 466 ;
467 [label="gini = 0.0\nsamples = 8\nvalue = [0, 8]"] ;
465 -> 467 ;
468 [label="X[88] <= 0.474\ngini = 0.07\nsamples = 82\nvalue = [79, 3]"] ;
320 -> 468 ;
469 [label="gini = 0.0\nsamples = 1\nvalue = [0, 1]"] ;
468 -> 469 ;
470 [label="X[105] <= 22.5\ngini = 0.048\nsamples = 81\nvalue = [79, 2]"] ;
468 -> 470 ;
471 [label="X[12] <= 25.0\ngini = 0.025\nsamples = 80\nvalue = [79, 1]"] ;
470 -> 471 ;
472 [label="gini = 0.0\nsamples = 78\nvalue = [78, 0]"] ;
471 -> 472 ;
473 [label="X[77] <= 7.0\ngini = 0.5\nsamples = 2\nvalue = [1, 1]"] ;
471 -> 473 ;
474 [label="gini = 0.0\nsamples = 1\nvalue = [0, 1]"] ;
473 -> 474 ;
475 [label="gini = 0.0\nsamples = 1\nvalue = [1, 0]"] ;
473 -> 475 ;
476 [label="gini = 0.0\nsamples = 1\nvalue = [0, 1]"] ;
470 -> 476 ;
477 [label="X[89] <= 0.75\ngini = 0.5\nsamples = 377\nvalue = [188, 189]"] ;
243 -> 477 ;
478 [label="X[72] <= 5.0\ngini = 0.231\nsamples = 30\nvalue = [26, 4]"] ;
477 -> 478 ;
479 [label="gini = 0.0\nsamples = 3\nvalue = [0, 3]"] ;
478 -> 479 ;
480 [label="X[167] <= 3.5\ngini = 0.071\nsamples = 27\nvalue = [26, 1]"] ;
478 -> 480 ;
481 [label="gini = 0.0\nsamples = 1\nvalue = [0, 1]"] ;
480 -> 481 ;
482 [label="gini = 0.0\nsamples = 26\nvalue = [26, 0]"] ;
480 -> 482 ;
483 [label="X[66] <= 6.07\ngini = 0.498\nsamples = 347\nvalue = [162, 185]"] ;
477 -> 483 ;
484 [label="X[63] <= 17.5\ngini = 0.26\nsamples = 26\nvalue = [22, 4]"] ;
483 -> 484 ;
485 [label="X[27] <= 0.5\ngini = 0.087\nsamples = 22\nvalue = [21, 1]"] ;
484 -> 485 ;
486 [label="gini = 0.0\nsamples = 1\nvalue = [0, 1]"] ;
485 -> 486 ;
487 [label="gini = 0.0\nsamples = 21\nvalue = [21, 0]"] ;
485 -> 487 ;
488 [label="X[76] <= 7.464\ngini = 0.375\nsamples = 4\nvalue = [1, 3]"] ;
484 -> 488 ;
489 [label="gini = 0.0\nsamples = 1\nvalue = [1, 0]"] ;
488 -> 489 ;
490 [label="gini = 0.0\nsamples = 3\nvalue = [0, 3]"] ;
488 -> 490 ;
491 [label="X[128] <= 6.5\ngini = 0.492\nsamples = 321\nvalue = [140, 181]"] ;
483 -> 491 ;
492 [label="X[135] <= 8.5\ngini = 0.353\nsamples = 70\nvalue = [16, 54]"] ;
491 -> 492 ;
493 [label="X[12] <= 10.77\ngini = 0.255\nsamples = 60\nvalue = [9, 51]"] ;
492 -> 493 ;
494 [label="X[65] <= 13.137\ngini = 0.412\nsamples = 31\nvalue = [9, 22]"] ;
493 -> 494 ;
495 [label="X[1] <= 6.0\ngini = 0.117\nsamples = 16\nvalue = [1, 15]"] ;
494 -> 495 ;
496 [label="gini = 0.0\nsamples = 1\nvalue = [1, 0]"] ;
495 -> 496 ;
497 [label="gini = 0.0\nsamples = 15\nvalue = [0, 15]"] ;
495 -> 497 ;
498 [label="X[4] <= 0.33\ngini = 0.498\nsamples = 15\nvalue = [8, 7]"] ;
494 -> 498 ;
499 [label="X[9] <= 22.5\ngini = 0.32\nsamples = 10\nvalue = [8, 2]"] ;
498 -> 499 ;
500 [label="gini = 0.0\nsamples = 7\nvalue = [7, 0]"] ;
499 -> 500 ;
501 [label="X[6] <= 25.5\ngini = 0.444\nsamples = 3\nvalue = [1, 2]"] ;
499 -> 501 ;
502 [label="gini = 0.0\nsamples = 1\nvalue = [1, 0]"] ;
501 -> 502 ;
503 [label="gini = 0.0\nsamples = 2\nvalue = [0, 2]"] ;
501 -> 503 ;
504 [label="gini = 0.0\nsamples = 5\nvalue = [0, 5]"] ;
498 -> 504 ;
505 [label="gini = 0.0\nsamples = 29\nvalue = [0, 29]"] ;
493 -> 505 ;
506 [label="X[4] <= 0.24\ngini = 0.42\nsamples = 10\nvalue = [7, 3]"] ;
492 -> 506 ;
507 [label="gini = 0.0\nsamples = 3\nvalue = [0, 3]"] ;
506 -> 507 ;
508 [label="gini = 0.0\nsamples = 7\nvalue = [7, 0]"] ;
506 -> 508 ;
509 [label="X[9] <= 17.715\ngini = 0.5\nsamples = 251\nvalue = [124, 127]"] ;
491 -> 509 ;
510 [label="X[115] <= 16.445\ngini = 0.475\nsamples = 129\nvalue = [50, 79]"] ;
509 -> 510 ;
511 [label="X[74] <= 5.5\ngini = 0.496\nsamples = 106\nvalue = [48, 58]"] ;
510 -> 511 ;
512 [label="X[17] <= 5.5\ngini = 0.231\nsamples = 15\nvalue = [13, 2]"] ;
511 -> 512 ;
513 [label="gini = 0.0\nsamples = 2\nvalue = [0, 2]"] ;
512 -> 513 ;
514 [label="gini = 0.0\nsamples = 13\nvalue = [13, 0]"] ;
512 -> 514 ;
515 [label="X[16] <= 4.5\ngini = 0.473\nsamples = 91\nvalue = [35, 56]"] ;
511 -> 515 ;
516 [label="gini = 0.0\nsamples = 6\nvalue = [6, 0]"] ;
515 -> 516 ;
517 [label="X[128] <= 7.063\ngini = 0.45\nsamples = 85\nvalue = [29, 56]"] ;
515 -> 517 ;
518 [label="X[60] <= 17.5\ngini = 0.5\nsamples = 37\nvalue = [19, 18]"] ;
517 -> 518 ;
519 [label="X[146] <= 17.695\ngini = 0.487\nsamples = 31\nvalue = [13, 18]"] ;
518 -> 519 ;
520 [label="X[70] <= 7.5\ngini = 0.32\nsamples = 20\nvalue = [4, 16]"] ;
519 -> 520 ;
521 [label="X[80] <= 8.5\ngini = 0.117\nsamples = 16\nvalue = [1, 15]"] ;
520 -> 521 ;
522 [label="gini = 0.0\nsamples = 15\nvalue = [0, 15]"] ;
521 -> 522 ;
523 [label="gini = 0.0\nsamples = 1\nvalue = [1, 0]"] ;
521 -> 523 ;
524 [label="X[17] <= 6.5\ngini = 0.375\nsamples = 4\nvalue = [3, 1]"] ;
520 -> 524 ;
525 [label="gini = 0.0\nsamples = 1\nvalue = [0, 1]"] ;
524 -> 525 ;
526 [label="gini = 0.0\nsamples = 3\nvalue = [3, 0]"] ;
524 -> 526 ;
527 [label="X[59] <= 7.5\ngini = 0.298\nsamples = 11\nvalue = [9, 2]"] ;
519 -> 527 ;
528 [label="X[85] <= 6.5\ngini = 0.444\nsamples = 3\nvalue = [1, 2]"] ;
527 -> 528 ;
529 [label="gini = 0.0\nsamples = 1\nvalue = [1, 0]"] ;
528 -> 529 ;
530 [label="gini = 0.0\nsamples = 2\nvalue = [0, 2]"] ;
528 -> 530 ;
531 [label="gini = 0.0\nsamples = 8\nvalue = [8, 0]"] ;
527 -> 531 ;
532 [label="gini = 0.0\nsamples = 6\nvalue = [6, 0]"] ;
518 -> 532 ;
533 [label="X[24] <= 22.5\ngini = 0.33\nsamples = 48\nvalue = [10, 38]"] ;
517 -> 533 ;
534 [label="X[89] <= 3.604\ngini = 0.444\nsamples = 6\nvalue = [4, 2]"] ;
533 -> 534 ;
535 [label="gini = 0.0\nsamples = 4\nvalue = [4, 0]"] ;
534 -> 535 ;
536 [label="gini = 0.0\nsamples = 2\nvalue = [0, 2]"] ;
534 -> 536 ;
537 [label="X[24] <= 32.5\ngini = 0.245\nsamples = 42\nvalue = [6, 36]"] ;
533 -> 537 ;
538 [label="X[78] <= 4.5\ngini = 0.184\nsamples = 39\nvalue = [4, 35]"] ;
537 -> 538 ;
539 [label="gini = 0.0\nsamples = 1\nvalue = [1, 0]"] ;
538 -> 539 ;
540 [label="X[98] <= 7.5\ngini = 0.145\nsamples = 38\nvalue = [3, 35]"] ;
538 -> 540 ;
541 [label="X[4] <= 0.16\ngini = 0.469\nsamples = 8\nvalue = [3, 5]"] ;
540 -> 541 ;
542 [label="X[11] <= 18.695\ngini = 0.375\nsamples = 4\nvalue = [3, 1]"] ;
541 -> 542 ;
543 [label="gini = 0.0\nsamples = 3\nvalue = [3, 0]"] ;
542 -> 543 ;
544 [label="gini = 0.0\nsamples = 1\nvalue = [0, 1]"] ;
542 -> 544 ;
545 [label="gini = 0.0\nsamples = 4\nvalue = [0, 4]"] ;
541 -> 545 ;
546 [label="gini = 0.0\nsamples = 30\nvalue = [0, 30]"] ;
540 -> 546 ;
547 [label="X[9] <= 7.5\ngini = 0.444\nsamples = 3\nvalue = [2, 1]"] ;
537 -> 547 ;
548 [label="gini = 0.0\nsamples = 1\nvalue = [0, 1]"] ;
547 -> 548 ;
549 [label="gini = 0.0\nsamples = 2\nvalue = [2, 0]"] ;
547 -> 549 ;
550 [label="X[32] <= 9.0\ngini = 0.159\nsamples = 23\nvalue = [2, 21]"] ;
510 -> 550 ;
551 [label="X[83] <= 3.5\ngini = 0.087\nsamples = 22\nvalue = [1, 21]"] ;
550 -> 551 ;
552 [label="gini = 0.0\nsamples = 1\nvalue = [1, 0]"] ;
551 -> 552 ;
553 [label="gini = 0.0\nsamples = 21\nvalue = [0, 21]"] ;
551 -> 553 ;
554 [label="gini = 0.0\nsamples = 1\nvalue = [1, 0]"] ;
550 -> 554 ;
555 [label="X[125] <= 17.874\ngini = 0.477\nsamples = 122\nvalue = [74, 48]"] ;
509 -> 555 ;
556 [label="X[24] <= 21.5\ngini = 0.337\nsamples = 42\nvalue = [33, 9]"] ;
555 -> 556 ;
557 [label="gini = 0.0\nsamples = 2\nvalue = [0, 2]"] ;
556 -> 557 ;
558 [label="X[105] <= 7.5\ngini = 0.289\nsamples = 40\nvalue = [33, 7]"] ;
556 -> 558 ;
559 [label="gini = 0.0\nsamples = 2\nvalue = [0, 2]"] ;
558 -> 559 ;
560 [label="X[97] <= 7.5\ngini = 0.229\nsamples = 38\nvalue = [33, 5]"] ;
558 -> 560 ;
561 [label="X[3] <= 383.0\ngini = 0.5\nsamples = 6\nvalue = [3, 3]"] ;
560 -> 561 ;
562 [label="gini = 0.0\nsamples = 3\nvalue = [0, 3]"] ;
561 -> 562 ;
563 [label="gini = 0.0\nsamples = 3\nvalue = [3, 0]"] ;
561 -> 563 ;
564 [label="X[22] <= 9.5\ngini = 0.117\nsamples = 32\nvalue = [30, 2]"] ;
560 -> 564 ;
565 [label="X[56] <= 17.84\ngini = 0.062\nsamples = 31\nvalue = [30, 1]"] ;
564 -> 565 ;
566 [label="gini = 0.0\nsamples = 29\nvalue = [29, 0]"] ;
565 -> 566 ;
567 [label="X[12] <= 17.155\ngini = 0.5\nsamples = 2\nvalue = [1, 1]"] ;
565 -> 567 ;
568 [label="gini = 0.0\nsamples = 1\nvalue = [1, 0]"] ;
567 -> 568 ;
569 [label="gini = 0.0\nsamples = 1\nvalue = [0, 1]"] ;
567 -> 569 ;
570 [label="gini = 0.0\nsamples = 1\nvalue = [0, 1]"] ;
564 -> 570 ;
571 [label="X[25] <= 3.5\ngini = 0.5\nsamples = 80\nvalue = [41, 39]"] ;
555 -> 571 ;
572 [label="X[138] <= 0.39\ngini = 0.305\nsamples = 16\nvalue = [3, 13]"] ;
571 -> 572 ;
573 [label="X[19] <= 9.0\ngini = 0.375\nsamples = 4\nvalue = [3, 1]"] ;
572 -> 573 ;
574 [label="gini = 0.0\nsamples = 3\nvalue = [3, 0]"] ;
573 -> 574 ;
575 [label="gini = 0.0\nsamples = 1\nvalue = [0, 1]"] ;
573 -> 575 ;
576 [label="gini = 0.0\nsamples = 12\nvalue = [0, 12]"] ;
572 -> 576 ;
577 [label="X[65] <= 19.0\ngini = 0.482\nsamples = 64\nvalue = [38, 26]"] ;
571 -> 577 ;
578 [label="X[169] <= 8.694\ngini = 0.418\nsamples = 47\nvalue = [33, 14]"] ;
577 -> 578 ;
579 [label="X[29] <= 4.5\ngini = 0.284\nsamples = 35\nvalue = [29, 6]"] ;
578 -> 579 ;
580 [label="X[161] <= 10.5\ngini = 0.17\nsamples = 32\nvalue = [29, 3]"] ;
579 -> 580 ;
581 [label="gini = 0.0\nsamples = 1\nvalue = [0, 1]"] ;
580 -> 581 ;
582 [label="X[55] <= 9.76\ngini = 0.121\nsamples = 31\nvalue = [29, 2]"] ;
580 -> 582 ;
583 [label="X[19] <= 6.889\ngini = 0.444\nsamples = 6\nvalue = [4, 2]"] ;
582 -> 583 ;
584 [label="gini = 0.0\nsamples = 2\nvalue = [0, 2]"] ;
583 -> 584 ;
585 [label="gini = 0.0\nsamples = 4\nvalue = [4, 0]"] ;
583 -> 585 ;
586 [label="gini = 0.0\nsamples = 25\nvalue = [25, 0]"] ;
582 -> 586 ;
587 [label="gini = 0.0\nsamples = 3\nvalue = [0, 3]"] ;
579 -> 587 ;
588 [label="X[21] <= 6.5\ngini = 0.444\nsamples = 12\nvalue = [4, 8]"] ;
578 -> 588 ;
589 [label="X[25] <= 10.5\ngini = 0.32\nsamples = 5\nvalue = [4, 1]"] ;
588 -> 589 ;
590 [label="gini = 0.0\nsamples = 4\nvalue = [4, 0]"] ;
589 -> 590 ;
591 [label="gini = 0.0\nsamples = 1\nvalue = [0, 1]"] ;
589 -> 591 ;
592 [label="gini = 0.0\nsamples = 7\nvalue = [0, 7]"] ;
588 -> 592 ;
593 [label="X[84] <= 6.389\ngini = 0.415\nsamples = 17\nvalue = [5, 12]"] ;
577 -> 593 ;
594 [label="X[83] <= 4.0\ngini = 0.165\nsamples = 11\nvalue = [1, 10]"] ;
593 -> 594 ;
595 [label="gini = 0.0\nsamples = 1\nvalue = [1, 0]"] ;
594 -> 595 ;
596 [label="gini = 0.0\nsamples = 10\nvalue = [0, 10]"] ;
594 -> 596 ;
597 [label="X[117] <= 17.5\ngini = 0.444\nsamples = 6\nvalue = [4, 2]"] ;
593 -> 597 ;
598 [label="gini = 0.0\nsamples = 4\nvalue = [4, 0]"] ;
597 -> 598 ;
599 [label="gini = 0.0\nsamples = 2\nvalue = [0, 2]"] ;
597 -> 599 ;
600 [label="X[80] <= 6.095\ngini = 0.427\nsamples = 2488\nvalue = [769, 1719]"] ;
0 -> 600 [labeldistance=2.5, labelangle=-45, headlabel="False"] ;
601 [label="X[89] <= 2.75\ngini = 0.492\nsamples = 641\nvalue = [362, 279]"] ;
600 -> 601 ;
602 [label="X[40] <= 7.5\ngini = 0.405\nsamples = 269\nvalue = [193, 76]"] ;
601 -> 602 ;
603 [label="X[175] <= 5.5\ngini = 0.372\nsamples = 251\nvalue = [189, 62]"] ;
602 -> 603 ;
604 [label="gini = 0.0\nsamples = 7\nvalue = [0, 7]"] ;
603 -> 604 ;
605 [label="X[53] <= 20.415\ngini = 0.349\nsamples = 244\nvalue = [189, 55]"] ;
603 -> 605 ;
606 [label="X[41] <= 9.5\ngini = 0.272\nsamples = 191\nvalue = [160, 31]"] ;
605 -> 606 ;
607 [label="X[112] <= 3.5\ngini = 0.249\nsamples = 185\nvalue = [158, 27]"] ;
606 -> 607 ;
608 [label="X[20] <= 4.5\ngini = 0.444\nsamples = 6\nvalue = [2, 4]"] ;
607 -> 608 ;
609 [label="gini = 0.0\nsamples = 2\nvalue = [2, 0]"] ;
608 -> 609 ;
610 [label="gini = 0.0\nsamples = 4\nvalue = [0, 4]"] ;
608 -> 610 ;
611 [label="X[59] <= 2.5\ngini = 0.224\nsamples = 179\nvalue = [156, 23]"] ;
607 -> 611 ;
612 [label="gini = 0.0\nsamples = 2\nvalue = [0, 2]"] ;
611 -> 612 ;
613 [label="X[139] <= 3.0\ngini = 0.209\nsamples = 177\nvalue = [156, 21]"] ;
611 -> 613 ;
614 [label="X[96] <= 8.5\ngini = 0.194\nsamples = 175\nvalue = [156, 19]"] ;
613 -> 614 ;
615 [label="X[70] <= 4.5\ngini = 0.164\nsamples = 166\nvalue = [151, 15]"] ;
614 -> 615 ;
616 [label="gini = 0.0\nsamples = 1\nvalue = [0, 1]"] ;
615 -> 616 ;
617 [label="X[76] <= 3.5\ngini = 0.155\nsamples = 165\nvalue = [151, 14]"] ;
615 -> 617 ;
618 [label="gini = 0.0\nsamples = 1\nvalue = [0, 1]"] ;
617 -> 618 ;
619 [label="X[12] <= 20.205\ngini = 0.146\nsamples = 164\nvalue = [151, 13]"] ;
617 -> 619 ;
620 [label="X[143] <= 2.5\ngini = 0.136\nsamples = 163\nvalue = [151, 12]"] ;
619 -> 620 ;
621 [label="gini = 0.0\nsamples = 1\nvalue = [0, 1]"] ;
620 -> 621 ;
622 [label="X[45] <= 4.5\ngini = 0.127\nsamples = 162\nvalue = [151, 11]"] ;
620 -> 622 ;
623 [label="X[6] <= 24.5\ngini = 0.444\nsamples = 9\nvalue = [6, 3]"] ;
622 -> 623 ;
624 [label="gini = 0.0\nsamples = 2\nvalue = [0, 2]"] ;
623 -> 624 ;
625 [label="X[3] <= 245.0\ngini = 0.245\nsamples = 7\nvalue = [6, 1]"] ;
623 -> 625 ;
626 [label="gini = 0.0\nsamples = 1\nvalue = [0, 1]"] ;
625 -> 626 ;
627 [label="gini = 0.0\nsamples = 6\nvalue = [6, 0]"] ;
625 -> 627 ;
628 [label="X[90] <= 6.5\ngini = 0.099\nsamples = 153\nvalue = [145, 8]"] ;
622 -> 628 ;
629 [label="gini = 0.0\nsamples = 1\nvalue = [0, 1]"] ;
628 -> 629 ;
630 [label="X[6] <= 21.5\ngini = 0.088\nsamples = 152\nvalue = [145, 7]"] ;
628 -> 630 ;
631 [label="X[52] <= 17.0\ngini = 0.48\nsamples = 5\nvalue = [3, 2]"] ;
630 -> 631 ;
632 [label="gini = 0.0\nsamples = 3\nvalue = [3, 0]"] ;
631 -> 632 ;
633 [label="gini = 0.0\nsamples = 2\nvalue = [0, 2]"] ;
631 -> 633 ;
634 [label="X[164] <= 22.5\ngini = 0.066\nsamples = 147\nvalue = [142, 5]"] ;
630 -> 634 ;
635 [label="X[22] <= 1.5\ngini = 0.042\nsamples = 141\nvalue = [138, 3]"] ;
634 -> 635 ;
636 [label="X[47] <= 9.5\ngini = 0.346\nsamples = 9\nvalue = [7, 2]"] ;
635 -> 636 ;
637 [label="gini = 0.0\nsamples = 7\nvalue = [7, 0]"] ;
636 -> 637 ;
638 [label="gini = 0.0\nsamples = 2\nvalue = [0, 2]"] ;
636 -> 638 ;
639 [label="X[116] <= 6.5\ngini = 0.015\nsamples = 132\nvalue = [131, 1]"] ;
635 -> 639 ;
640 [label="X[19] <= 6.389\ngini = 0.375\nsamples = 4\nvalue = [3, 1]"] ;
639 -> 640 ;
641 [label="gini = 0.0\nsamples = 3\nvalue = [3, 0]"] ;
640 -> 641 ;
642 [label="gini = 0.0\nsamples = 1\nvalue = [0, 1]"] ;
640 -> 642 ;
643 [label="gini = 0.0\nsamples = 128\nvalue = [128, 0]"] ;
639 -> 643 ;
644 [label="X[20] <= 5.237\ngini = 0.444\nsamples = 6\nvalue = [4, 2]"] ;
634 -> 644 ;
645 [label="gini = 0.0\nsamples = 2\nvalue = [0, 2]"] ;
644 -> 645 ;
646 [label="gini = 0.0\nsamples = 4\nvalue = [4, 0]"] ;
644 -> 646 ;
647 [label="gini = 0.0\nsamples = 1\nvalue = [0, 1]"] ;
619 -> 647 ;
648 [label="X[80] <= 5.5\ngini = 0.494\nsamples = 9\nvalue = [5, 4]"] ;
614 -> 648 ;
649 [label="gini = 0.0\nsamples = 5\nvalue = [5, 0]"] ;
648 -> 649 ;
650 [label="gini = 0.0\nsamples = 4\nvalue = [0, 4]"] ;
648 -> 650 ;
651 [label="gini = 0.0\nsamples = 2\nvalue = [0, 2]"] ;
613 -> 651 ;
652 [label="X[82] <= 8.5\ngini = 0.444\nsamples = 6\nvalue = [2, 4]"] ;
606 -> 652 ;
653 [label="gini = 0.0\nsamples = 2\nvalue = [2, 0]"] ;
652 -> 653 ;
654 [label="gini = 0.0\nsamples = 4\nvalue = [0, 4]"] ;
652 -> 654 ;
655 [label="X[114] <= 9.957\ngini = 0.496\nsamples = 53\nvalue = [29, 24]"] ;
605 -> 655 ;
656 [label="X[66] <= 18.335\ngini = 0.413\nsamples = 24\nvalue = [7, 17]"] ;
655 -> 656 ;
657 [label="X[68] <= 2.5\ngini = 0.208\nsamples = 17\nvalue = [2, 15]"] ;
656 -> 657 ;
658 [label="X[14] <= 0.5\ngini = 0.444\nsamples = 3\nvalue = [2, 1]"] ;
657 -> 658 ;
659 [label="gini = 0.0\nsamples = 2\nvalue = [2, 0]"] ;
658 -> 659 ;
660 [label="gini = 0.0\nsamples = 1\nvalue = [0, 1]"] ;
658 -> 660 ;
661 [label="gini = 0.0\nsamples = 14\nvalue = [0, 14]"] ;
657 -> 661 ;
662 [label="X[81] <= 8.5\ngini = 0.408\nsamples = 7\nvalue = [5, 2]"] ;
656 -> 662 ;
663 [label="gini = 0.0\nsamples = 4\nvalue = [4, 0]"] ;
662 -> 663 ;
664 [label="X[19] <= 6.5\ngini = 0.444\nsamples = 3\nvalue = [1, 2]"] ;
662 -> 664 ;
665 [label="gini = 0.0\nsamples = 1\nvalue = [1, 0]"] ;
664 -> 665 ;
666 [label="gini = 0.0\nsamples = 2\nvalue = [0, 2]"] ;
664 -> 666 ;
667 [label="X[53] <= 23.5\ngini = 0.366\nsamples = 29\nvalue = [22, 7]"] ;
655 -> 667 ;
668 [label="gini = 0.0\nsamples = 3\nvalue = [0, 3]"] ;
667 -> 668 ;
669 [label="X[82] <= 6.5\ngini = 0.26\nsamples = 26\nvalue = [22, 4]"] ;
667 -> 669 ;
670 [label="gini = 0.0\nsamples = 2\nvalue = [0, 2]"] ;
669 -> 670 ;
671 [label="X[87] <= 7.5\ngini = 0.153\nsamples = 24\nvalue = [22, 2]"] ;
669 -> 671 ;
672 [label="gini = 0.0\nsamples = 21\nvalue = [21, 0]"] ;
671 -> 672 ;
673 [label="X[16] <= 7.5\ngini = 0.444\nsamples = 3\nvalue = [1, 2]"] ;
671 -> 673 ;
674 [label="gini = 0.0\nsamples = 2\nvalue = [0, 2]"] ;
673 -> 674 ;
675 [label="gini = 0.0\nsamples = 1\nvalue = [1, 0]"] ;
673 -> 675 ;
676 [label="X[41] <= 6.5\ngini = 0.346\nsamples = 18\nvalue = [4, 14]"] ;
602 -> 676 ;
677 [label="gini = 0.0\nsamples = 11\nvalue = [0, 11]"] ;
676 -> 677 ;
678 [label="X[12] <= 7.5\ngini = 0.49\nsamples = 7\nvalue = [4, 3]"] ;
676 -> 678 ;
679 [label="X[9] <= 12.5\ngini = 0.375\nsamples = 4\nvalue = [1, 3]"] ;
678 -> 679 ;
680 [label="gini = 0.0\nsamples = 1\nvalue = [1, 0]"] ;
679 -> 680 ;
681 [label="gini = 0.0\nsamples = 3\nvalue = [0, 3]"] ;
679 -> 681 ;
682 [label="gini = 0.0\nsamples = 3\nvalue = [3, 0]"] ;
678 -> 682 ;
683 [label="X[26] <= 3.5\ngini = 0.496\nsamples = 372\nvalue = [169, 203]"] ;
601 -> 683 ;
684 [label="X[87] <= 5.5\ngini = 0.496\nsamples = 247\nvalue = [135, 112]"] ;
683 -> 684 ;
685 [label="X[128] <= 6.5\ngini = 0.359\nsamples = 81\nvalue = [62, 19]"] ;
684 -> 685 ;
686 [label="X[85] <= 4.5\ngini = 0.459\nsamples = 14\nvalue = [5, 9]"] ;
685 -> 686 ;
687 [label="gini = 0.0\nsamples = 3\nvalue = [3, 0]"] ;
686 -> 687 ;
688 [label="X[39] <= 3.5\ngini = 0.298\nsamples = 11\nvalue = [2, 9]"] ;
686 -> 688 ;
689 [label="gini = 0.0\nsamples = 2\nvalue = [2, 0]"] ;
688 -> 689 ;
690 [label="gini = 0.0\nsamples = 9\nvalue = [0, 9]"] ;
688 -> 690 ;
691 [label="X[91] <= 21.525\ngini = 0.254\nsamples = 67\nvalue = [57, 10]"] ;
685 -> 691 ;
692 [label="X[134] <= 4.5\ngini = 0.198\nsamples = 63\nvalue = [56, 7]"] ;
691 -> 692 ;
693 [label="gini = 0.0\nsamples = 2\nvalue = [0, 2]"] ;
692 -> 693 ;
694 [label="X[92] <= 22.215\ngini = 0.15\nsamples = 61\nvalue = [56, 5]"] ;
692 -> 694 ;
695 [label="X[38] <= 9.5\ngini = 0.098\nsamples = 58\nvalue = [55, 3]"] ;
694 -> 695 ;
696 [label="X[72] <= 4.0\ngini = 0.036\nsamples = 54\nvalue = [53, 1]"] ;
695 -> 696 ;
697 [label="X[10] <= 27.5\ngini = 0.444\nsamples = 3\nvalue = [2, 1]"] ;
696 -> 697 ;
698 [label="gini = 0.0\nsamples = 2\nvalue = [2, 0]"] ;
697 -> 698 ;
699 [label="gini = 0.0\nsamples = 1\nvalue = [0, 1]"] ;
697 -> 699 ;
700 [label="gini = 0.0\nsamples = 51\nvalue = [51, 0]"] ;
696 -> 700 ;
701 [label="X[8] <= 13.755\ngini = 0.5\nsamples = 4\nvalue = [2, 2]"] ;
695 -> 701 ;
702 [label="gini = 0.0\nsamples = 2\nvalue = [2, 0]"] ;
701 -> 702 ;
703 [label="gini = 0.0\nsamples = 2\nvalue = [0, 2]"] ;
701 -> 703 ;
704 [label="X[10] <= 25.0\ngini = 0.444\nsamples = 3\nvalue = [1, 2]"] ;
694 -> 704 ;
705 [label="gini = 0.0\nsamples = 2\nvalue = [0, 2]"] ;
704 -> 705 ;
706 [label="gini = 0.0\nsamples = 1\nvalue = [1, 0]"] ;
704 -> 706 ;
707 [label="X[54] <= 23.215\ngini = 0.375\nsamples = 4\nvalue = [1, 3]"] ;
691 -> 707 ;
708 [label="gini = 0.0\nsamples = 3\nvalue = [0, 3]"] ;
707 -> 708 ;
709 [label="gini = 0.0\nsamples = 1\nvalue = [1, 0]"] ;
707 -> 709 ;
710 [label="X[123] <= 13.425\ngini = 0.493\nsamples = 166\nvalue = [73, 93]"] ;
684 -> 710 ;
711 [label="X[54] <= 24.895\ngini = 0.449\nsamples = 44\nvalue = [29, 15]"] ;
710 -> 711 ;
712 [label="X[69] <= 17.815\ngini = 0.353\nsamples = 35\nvalue = [27, 8]"] ;
711 -> 712 ;
713 [label="X[4] <= -0.265\ngini = 0.298\nsamples = 33\nvalue = [27, 6]"] ;
712 -> 713 ;
714 [label="gini = 0.0\nsamples = 2\nvalue = [0, 2]"] ;
713 -> 714 ;
715 [label="X[24] <= 27.5\ngini = 0.225\nsamples = 31\nvalue = [27, 4]"] ;
713 -> 715 ;
716 [label="gini = 0.0\nsamples = 19\nvalue = [19, 0]"] ;
715 -> 716 ;
717 [label="X[13] <= 13.665\ngini = 0.444\nsamples = 12\nvalue = [8, 4]"] ;
715 -> 717 ;
718 [label="X[13] <= 9.255\ngini = 0.444\nsamples = 6\nvalue = [2, 4]"] ;
717 -> 718 ;
719 [label="gini = 0.0\nsamples = 2\nvalue = [2, 0]"] ;
718 -> 719 ;
720 [label="gini = 0.0\nsamples = 4\nvalue = [0, 4]"] ;
718 -> 720 ;
721 [label="gini = 0.0\nsamples = 6\nvalue = [6, 0]"] ;
717 -> 721 ;
722 [label="gini = 0.0\nsamples = 2\nvalue = [0, 2]"] ;
712 -> 722 ;
723 [label="X[6] <= 29.5\ngini = 0.346\nsamples = 9\nvalue = [2, 7]"] ;
711 -> 723 ;
724 [label="gini = 0.0\nsamples = 6\nvalue = [0, 6]"] ;
723 -> 724 ;
725 [label="X[19] <= 5.5\ngini = 0.444\nsamples = 3\nvalue = [2, 1]"] ;
723 -> 725 ;
726 [label="gini = 0.0\nsamples = 2\nvalue = [2, 0]"] ;
725 -> 726 ;
727 [label="gini = 0.0\nsamples = 1\nvalue = [0, 1]"] ;
725 -> 727 ;
728 [label="X[131] <= 7.801\ngini = 0.461\nsamples = 122\nvalue = [44, 78]"] ;
710 -> 728 ;
729 [label="X[159] <= 13.604\ngini = 0.224\nsamples = 39\nvalue = [5, 34]"] ;
728 -> 729 ;
730 [label="X[10] <= 7.5\ngini = 0.149\nsamples = 37\nvalue = [3, 34]"] ;
729 -> 730 ;
731 [label="gini = 0.0\nsamples = 1\nvalue = [1, 0]"] ;
730 -> 731 ;
732 [label="X[6] <= 20.5\ngini = 0.105\nsamples = 36\nvalue = [2, 34]"] ;
730 -> 732 ;
733 [label="gini = 0.0\nsamples = 1\nvalue = [1, 0]"] ;
732 -> 733 ;
734 [label="X[97] <= 9.5\ngini = 0.056\nsamples = 35\nvalue = [1, 34]"] ;
732 -> 734 ;
735 [label="gini = 0.0\nsamples = 32\nvalue = [0, 32]"] ;
734 -> 735 ;
736 [label="X[86] <= 7.5\ngini = 0.444\nsamples = 3\nvalue = [1, 2]"] ;
734 -> 736 ;
737 [label="gini = 0.0\nsamples = 1\nvalue = [1, 0]"] ;
736 -> 737 ;
738 [label="gini = 0.0\nsamples = 2\nvalue = [0, 2]"] ;
736 -> 738 ;
739 [label="gini = 0.0\nsamples = 2\nvalue = [2, 0]"] ;
729 -> 739 ;
740 [label="X[54] <= 15.19\ngini = 0.498\nsamples = 83\nvalue = [39, 44]"] ;
728 -> 740 ;
741 [label="X[8] <= 35.0\ngini = 0.236\nsamples = 22\nvalue = [3, 19]"] ;
740 -> 741 ;
742 [label="X[144] <= 7.5\ngini = 0.1\nsamples = 19\nvalue = [1, 18]"] ;
741 -> 742 ;
743 [label="X[17] <= 8.185\ngini = 0.5\nsamples = 2\nvalue = [1, 1]"] ;
742 -> 743 ;
744 [label="gini = 0.0\nsamples = 1\nvalue = [1, 0]"] ;
743 -> 744 ;
745 [label="gini = 0.0\nsamples = 1\nvalue = [0, 1]"] ;
743 -> 745 ;
746 [label="gini = 0.0\nsamples = 17\nvalue = [0, 17]"] ;
742 -> 746 ;
747 [label="X[132] <= 8.5\ngini = 0.444\nsamples = 3\nvalue = [2, 1]"] ;
741 -> 747 ;
748 [label="gini = 0.0\nsamples = 2\nvalue = [2, 0]"] ;
747 -> 748 ;
749 [label="gini = 0.0\nsamples = 1\nvalue = [0, 1]"] ;
747 -> 749 ;
750 [label="X[4] <= -0.025\ngini = 0.484\nsamples = 61\nvalue = [36, 25]"] ;
740 -> 750 ;
751 [label="X[60] <= 13.818\ngini = 0.32\nsamples = 15\nvalue = [3, 12]"] ;
750 -> 751 ;
752 [label="X[9] <= 20.465\ngini = 0.142\nsamples = 13\nvalue = [1, 12]"] ;
751 -> 752 ;
753 [label="gini = 0.0\nsamples = 11\nvalue = [0, 11]"] ;
752 -> 753 ;
754 [label="X[77] <= 9.142\ngini = 0.5\nsamples = 2\nvalue = [1, 1]"] ;
752 -> 754 ;
755 [label="gini = 0.0\nsamples = 1\nvalue = [1, 0]"] ;
754 -> 755 ;
756 [label="gini = 0.0\nsamples = 1\nvalue = [0, 1]"] ;
754 -> 756 ;
757 [label="gini = 0.0\nsamples = 2\nvalue = [2, 0]"] ;
751 -> 757 ;
758 [label="X[115] <= 19.185\ngini = 0.405\nsamples = 46\nvalue = [33, 13]"] ;
750 -> 758 ;
759 [label="X[11] <= 18.09\ngini = 0.357\nsamples = 43\nvalue = [33, 10]"] ;
758 -> 759 ;
760 [label="X[13] <= 22.5\ngini = 0.083\nsamples = 23\nvalue = [22, 1]"] ;
759 -> 760 ;
761 [label="gini = 0.0\nsamples = 22\nvalue = [22, 0]"] ;
760 -> 761 ;
762 [label="gini = 0.0\nsamples = 1\nvalue = [0, 1]"] ;
760 -> 762 ;
763 [label="X[101] <= 6.5\ngini = 0.495\nsamples = 20\nvalue = [11, 9]"] ;
759 -> 763 ;
764 [label="X[8] <= 19.3\ngini = 0.391\nsamples = 15\nvalue = [11, 4]"] ;
763 -> 764 ;
765 [label="X[85] <= 4.5\ngini = 0.153\nsamples = 12\nvalue = [11, 1]"] ;
764 -> 765 ;
766 [label="gini = 0.0\nsamples = 1\nvalue = [0, 1]"] ;
765 -> 766 ;
767 [label="gini = 0.0\nsamples = 11\nvalue = [11, 0]"] ;
765 -> 767 ;
768 [label="gini = 0.0\nsamples = 3\nvalue = [0, 3]"] ;
764 -> 768 ;
769 [label="gini = 0.0\nsamples = 5\nvalue = [0, 5]"] ;
763 -> 769 ;
770 [label="gini = 0.0\nsamples = 3\nvalue = [0, 3]"] ;
758 -> 770 ;
771 [label="X[43] <= 7.5\ngini = 0.396\nsamples = 125\nvalue = [34, 91]"] ;
683 -> 771 ;
772 [label="X[131] <= 9.5\ngini = 0.29\nsamples = 91\nvalue = [16, 75]"] ;
771 -> 772 ;
773 [label="X[154] <= 7.5\ngini = 0.188\nsamples = 76\nvalue = [8, 68]"] ;
772 -> 773 ;
774 [label="X[11] <= 12.5\ngini = 0.5\nsamples = 6\nvalue = [3, 3]"] ;
773 -> 774 ;
775 [label="gini = 0.0\nsamples = 2\nvalue = [2, 0]"] ;
774 -> 775 ;
776 [label="X[9] <= 15.0\ngini = 0.375\nsamples = 4\nvalue = [1, 3]"] ;
774 -> 776 ;
777 [label="gini = 0.0\nsamples = 1\nvalue = [1, 0]"] ;
776 -> 777 ;
778 [label="gini = 0.0\nsamples = 3\nvalue = [0, 3]"] ;
776 -> 778 ;
779 [label="X[61] <= 7.5\ngini = 0.133\nsamples = 70\nvalue = [5, 65]"] ;
773 -> 779 ;
780 [label="X[13] <= 7.385\ngini = 0.444\nsamples = 3\nvalue = [2, 1]"] ;
779 -> 780 ;
781 [label="gini = 0.0\nsamples = 1\nvalue = [0, 1]"] ;
780 -> 781 ;
782 [label="gini = 0.0\nsamples = 2\nvalue = [2, 0]"] ;
780 -> 782 ;
783 [label="X[23] <= 1.48\ngini = 0.086\nsamples = 67\nvalue = [3, 64]"] ;
779 -> 783 ;
784 [label="X[168] <= 8.547\ngini = 0.5\nsamples = 4\nvalue = [2, 2]"] ;
783 -> 784 ;
785 [label="gini = 0.0\nsamples = 2\nvalue = [0, 2]"] ;
784 -> 785 ;
786 [label="gini = 0.0\nsamples = 2\nvalue = [2, 0]"] ;
784 -> 786 ;
787 [label="X[11] <= 7.26\ngini = 0.031\nsamples = 63\nvalue = [1, 62]"] ;
783 -> 787 ;
788 [label="X[153] <= 10.912\ngini = 0.5\nsamples = 2\nvalue = [1, 1]"] ;
787 -> 788 ;
789 [label="gini = 0.0\nsamples = 1\nvalue = [0, 1]"] ;
788 -> 789 ;
790 [label="gini = 0.0\nsamples = 1\nvalue = [1, 0]"] ;
788 -> 790 ;
791 [label="gini = 0.0\nsamples = 61\nvalue = [0, 61]"] ;
787 -> 791 ;
792 [label="X[79] <= 8.5\ngini = 0.498\nsamples = 15\nvalue = [8, 7]"] ;
772 -> 792 ;
793 [label="X[82] <= 9.5\ngini = 0.444\nsamples = 12\nvalue = [8, 4]"] ;
792 -> 793 ;
794 [label="X[128] <= 7.5\ngini = 0.32\nsamples = 10\nvalue = [8, 2]"] ;
793 -> 794 ;
795 [label="X[6] <= 26.5\ngini = 0.444\nsamples = 3\nvalue = [1, 2]"] ;
794 -> 795 ;
796 [label="gini = 0.0\nsamples = 1\nvalue = [1, 0]"] ;
795 -> 796 ;
797 [label="gini = 0.0\nsamples = 2\nvalue = [0, 2]"] ;
795 -> 797 ;
798 [label="gini = 0.0\nsamples = 7\nvalue = [7, 0]"] ;
794 -> 798 ;
799 [label="gini = 0.0\nsamples = 2\nvalue = [0, 2]"] ;
793 -> 799 ;
800 [label="gini = 0.0\nsamples = 3\nvalue = [0, 3]"] ;
792 -> 800 ;
801 [label="X[66] <= 14.775\ngini = 0.498\nsamples = 34\nvalue = [18, 16]"] ;
771 -> 801 ;
802 [label="X[10] <= 27.5\ngini = 0.375\nsamples = 20\nvalue = [15, 5]"] ;
801 -> 802 ;
803 [label="X[83] <= 8.5\ngini = 0.219\nsamples = 16\nvalue = [14, 2]"] ;
802 -> 803 ;
804 [label="X[3] <= 517.0\ngini = 0.124\nsamples = 15\nvalue = [14, 1]"] ;
803 -> 804 ;
805 [label="gini = 0.0\nsamples = 13\nvalue = [13, 0]"] ;
804 -> 805 ;
806 [label="X[82] <= 6.0\ngini = 0.5\nsamples = 2\nvalue = [1, 1]"] ;
804 -> 806 ;
807 [label="gini = 0.0\nsamples = 1\nvalue = [1, 0]"] ;
806 -> 807 ;
808 [label="gini = 0.0\nsamples = 1\nvalue = [0, 1]"] ;
806 -> 808 ;
809 [label="gini = 0.0\nsamples = 1\nvalue = [0, 1]"] ;
803 -> 809 ;
810 [label="X[7] <= 2.5\ngini = 0.375\nsamples = 4\nvalue = [1, 3]"] ;
802 -> 810 ;
811 [label="gini = 0.0\nsamples = 1\nvalue = [1, 0]"] ;
810 -> 811 ;
812 [label="gini = 0.0\nsamples = 3\nvalue = [0, 3]"] ;
810 -> 812 ;
813 [label="X[3] <= 491.0\ngini = 0.337\nsamples = 14\nvalue = [3, 11]"] ;
801 -> 813 ;
814 [label="gini = 0.0\nsamples = 10\nvalue = [0, 10]"] ;
813 -> 814 ;
815 [label="X[4] <= -0.23\ngini = 0.375\nsamples = 4\nvalue = [3, 1]"] ;
813 -> 815 ;
816 [label="gini = 0.0\nsamples = 1\nvalue = [0, 1]"] ;
815 -> 816 ;
817 [label="gini = 0.0\nsamples = 3\nvalue = [3, 0]"] ;
815 -> 817 ;
818 [label="X[89] <= 1.75\ngini = 0.344\nsamples = 1847\nvalue = [407, 1440]"] ;
600 -> 818 ;
819 [label="X[112] <= 17.907\ngini = 0.495\nsamples = 259\nvalue = [117, 142]"] ;
818 -> 819 ;
820 [label="X[20] <= 5.737\ngini = 0.476\nsamples = 128\nvalue = [78, 50]"] ;
819 -> 820 ;
821 [label="X[131] <= 9.5\ngini = 0.328\nsamples = 63\nvalue = [50, 13]"] ;
820 -> 821 ;
822 [label="X[168] <= 7.5\ngini = 0.198\nsamples = 54\nvalue = [48, 6]"] ;
821 -> 822 ;
823 [label="X[22] <= 3.5\ngini = 0.494\nsamples = 9\nvalue = [5, 4]"] ;
822 -> 823 ;
824 [label="gini = 0.0\nsamples = 3\nvalue = [3, 0]"] ;
823 -> 824 ;
825 [label="X[132] <= 6.5\ngini = 0.444\nsamples = 6\nvalue = [2, 4]"] ;
823 -> 825 ;
826 [label="gini = 0.0\nsamples = 3\nvalue = [0, 3]"] ;
825 -> 826 ;
827 [label="X[80] <= 7.5\ngini = 0.444\nsamples = 3\nvalue = [2, 1]"] ;
825 -> 827 ;
828 [label="gini = 0.0\nsamples = 2\nvalue = [2, 0]"] ;
827 -> 828 ;
829 [label="gini = 0.0\nsamples = 1\nvalue = [0, 1]"] ;
827 -> 829 ;
830 [label="X[73] <= 7.5\ngini = 0.085\nsamples = 45\nvalue = [43, 2]"] ;
822 -> 830 ;
831 [label="X[117] <= 15.965\ngini = 0.444\nsamples = 3\nvalue = [1, 2]"] ;
830 -> 831 ;
832 [label="gini = 0.0\nsamples = 2\nvalue = [0, 2]"] ;
831 -> 832 ;
833 [label="gini = 0.0\nsamples = 1\nvalue = [1, 0]"] ;
831 -> 833 ;
834 [label="gini = 0.0\nsamples = 42\nvalue = [42, 0]"] ;
830 -> 834 ;
835 [label="X[4] <= 0.275\ngini = 0.346\nsamples = 9\nvalue = [2, 7]"] ;
821 -> 835 ;
836 [label="gini = 0.0\nsamples = 7\nvalue = [0, 7]"] ;
835 -> 836 ;
837 [label="gini = 0.0\nsamples = 2\nvalue = [2, 0]"] ;
835 -> 837 ;
838 [label="X[46] <= 6.913\ngini = 0.49\nsamples = 65\nvalue = [28, 37]"] ;
820 -> 838 ;
839 [label="X[9] <= 12.5\ngini = 0.459\nsamples = 28\nvalue = [18, 10]"] ;
838 -> 839 ;
840 [label="X[20] <= 6.5\ngini = 0.245\nsamples = 7\nvalue = [1, 6]"] ;
839 -> 840 ;
841 [label="gini = 0.0\nsamples = 1\nvalue = [1, 0]"] ;
840 -> 841 ;
842 [label="gini = 0.0\nsamples = 6\nvalue = [0, 6]"] ;
840 -> 842 ;
843 [label="X[16] <= 7.5\ngini = 0.308\nsamples = 21\nvalue = [17, 4]"] ;
839 -> 843 ;
844 [label="X[78] <= 7.713\ngini = 0.49\nsamples = 7\nvalue = [3, 4]"] ;
843 -> 844 ;
845 [label="gini = 0.0\nsamples = 4\nvalue = [0, 4]"] ;
844 -> 845 ;
846 [label="gini = 0.0\nsamples = 3\nvalue = [3, 0]"] ;
844 -> 846 ;
847 [label="gini = 0.0\nsamples = 14\nvalue = [14, 0]"] ;
843 -> 847 ;
848 [label="X[18] <= 6.5\ngini = 0.394\nsamples = 37\nvalue = [10, 27]"] ;
838 -> 848 ;
849 [label="X[80] <= 7.5\ngini = 0.469\nsamples = 8\nvalue = [5, 3]"] ;
848 -> 849 ;
850 [label="gini = 0.0\nsamples = 5\nvalue = [5, 0]"] ;
849 -> 850 ;
851 [label="gini = 0.0\nsamples = 3\nvalue = [0, 3]"] ;
849 -> 851 ;
852 [label="X[19] <= 5.5\ngini = 0.285\nsamples = 29\nvalue = [5, 24]"] ;
848 -> 852 ;
853 [label="X[92] <= 23.622\ngini = 0.444\nsamples = 3\nvalue = [2, 1]"] ;
852 -> 853 ;
854 [label="gini = 0.0\nsamples = 2\nvalue = [2, 0]"] ;
853 -> 854 ;
855 [label="gini = 0.0\nsamples = 1\nvalue = [0, 1]"] ;
853 -> 855 ;
856 [label="X[3] <= 49.5\ngini = 0.204\nsamples = 26\nvalue = [3, 23]"] ;
852 -> 856 ;
857 [label="gini = 0.0\nsamples = 1\nvalue = [1, 0]"] ;
856 -> 857 ;
858 [label="X[16] <= 6.0\ngini = 0.147\nsamples = 25\nvalue = [2, 23]"] ;
856 -> 858 ;
859 [label="gini = 0.0\nsamples = 1\nvalue = [1, 0]"] ;
858 -> 859 ;
860 [label="X[70] <= 8.5\ngini = 0.08\nsamples = 24\nvalue = [1, 23]"] ;
858 -> 860 ;
861 [label="gini = 0.0\nsamples = 21\nvalue = [0, 21]"] ;
860 -> 861 ;
862 [label="X[9] <= 19.185\ngini = 0.444\nsamples = 3\nvalue = [1, 2]"] ;
860 -> 862 ;
863 [label="gini = 0.0\nsamples = 2\nvalue = [0, 2]"] ;
862 -> 863 ;
864 [label="gini = 0.0\nsamples = 1\nvalue = [1, 0]"] ;
862 -> 864 ;
865 [label="X[82] <= 8.5\ngini = 0.418\nsamples = 131\nvalue = [39, 92]"] ;
819 -> 865 ;
866 [label="X[34] <= 6.5\ngini = 0.48\nsamples = 95\nvalue = [38, 57]"] ;
865 -> 866 ;
867 [label="X[68] <= 0.5\ngini = 0.429\nsamples = 77\nvalue = [24, 53]"] ;
866 -> 867 ;
868 [label="X[61] <= 10.0\ngini = 0.32\nsamples = 10\nvalue = [8, 2]"] ;
867 -> 868 ;
869 [label="X[4] <= 0.69\ngini = 0.444\nsamples = 3\nvalue = [1, 2]"] ;
868 -> 869 ;
870 [label="gini = 0.0\nsamples = 2\nvalue = [0, 2]"] ;
869 -> 870 ;
871 [label="gini = 0.0\nsamples = 1\nvalue = [1, 0]"] ;
869 -> 871 ;
872 [label="gini = 0.0\nsamples = 7\nvalue = [7, 0]"] ;
868 -> 872 ;
873 [label="X[86] <= 7.5\ngini = 0.364\nsamples = 67\nvalue = [16, 51]"] ;
867 -> 873 ;
874 [label="X[20] <= 4.5\ngini = 0.482\nsamples = 37\nvalue = [15, 22]"] ;
873 -> 874 ;
875 [label="X[21] <= 6.5\ngini = 0.153\nsamples = 12\nvalue = [1, 11]"] ;
874 -> 875 ;
876 [label="gini = 0.0\nsamples = 11\nvalue = [0, 11]"] ;
875 -> 876 ;
877 [label="gini = 0.0\nsamples = 1\nvalue = [1, 0]"] ;
875 -> 877 ;
878 [label="X[76] <= 7.964\ngini = 0.493\nsamples = 25\nvalue = [14, 11]"] ;
874 -> 878 ;
879 [label="X[10] <= 19.615\ngini = 0.457\nsamples = 17\nvalue = [6, 11]"] ;
878 -> 879 ;
880 [label="X[44] <= 3.0\ngini = 0.18\nsamples = 10\nvalue = [1, 9]"] ;
879 -> 880 ;
881 [label="gini = 0.0\nsamples = 1\nvalue = [1, 0]"] ;
880 -> 881 ;
882 [label="gini = 0.0\nsamples = 9\nvalue = [0, 9]"] ;
880 -> 882 ;
883 [label="X[170] <= 7.829\ngini = 0.408\nsamples = 7\nvalue = [5, 2]"] ;
879 -> 883 ;
884 [label="gini = 0.0\nsamples = 4\nvalue = [4, 0]"] ;
883 -> 884 ;
885 [label="X[3] <= 101.0\ngini = 0.444\nsamples = 3\nvalue = [1, 2]"] ;
883 -> 885 ;
886 [label="gini = 0.0\nsamples = 2\nvalue = [0, 2]"] ;
885 -> 886 ;
887 [label="gini = 0.0\nsamples = 1\nvalue = [1, 0]"] ;
885 -> 887 ;
888 [label="gini = 0.0\nsamples = 8\nvalue = [8, 0]"] ;
878 -> 888 ;
889 [label="X[147] <= 1.5\ngini = 0.064\nsamples = 30\nvalue = [1, 29]"] ;
873 -> 889 ;
890 [label="gini = 0.0\nsamples = 1\nvalue = [1, 0]"] ;
889 -> 890 ;
891 [label="gini = 0.0\nsamples = 29\nvalue = [0, 29]"] ;
889 -> 891 ;
892 [label="X[167] <= 5.5\ngini = 0.346\nsamples = 18\nvalue = [14, 4]"] ;
866 -> 892 ;
893 [label="gini = 0.0\nsamples = 2\nvalue = [0, 2]"] ;
892 -> 893 ;
894 [label="X[15] <= 8.5\ngini = 0.219\nsamples = 16\nvalue = [14, 2]"] ;
892 -> 894 ;
895 [label="X[12] <= 2.5\ngini = 0.124\nsamples = 15\nvalue = [14, 1]"] ;
894 -> 895 ;
896 [label="gini = 0.0\nsamples = 1\nvalue = [0, 1]"] ;
895 -> 896 ;
897 [label="gini = 0.0\nsamples = 14\nvalue = [14, 0]"] ;
895 -> 897 ;
898 [label="gini = 0.0\nsamples = 1\nvalue = [0, 1]"] ;
894 -> 898 ;
899 [label="X[13] <= 22.5\ngini = 0.054\nsamples = 36\nvalue = [1, 35]"] ;
865 -> 899 ;
900 [label="gini = 0.0\nsamples = 35\nvalue = [0, 35]"] ;
899 -> 900 ;
901 [label="gini = 0.0\nsamples = 1\nvalue = [1, 0]"] ;
899 -> 901 ;
902 [label="X[80] <= 7.25\ngini = 0.299\nsamples = 1588\nvalue = [290, 1298]"] ;
818 -> 902 ;
903 [label="X[119] <= 12.5\ngini = 0.402\nsamples = 596\nvalue = [166, 430]"] ;
902 -> 903 ;
904 [label="X[128] <= 7.5\ngini = 0.492\nsamples = 146\nvalue = [64, 82]"] ;
903 -> 904 ;
905 [label="X[110] <= 35.0\ngini = 0.368\nsamples = 70\nvalue = [17, 53]"] ;
904 -> 905 ;
906 [label="X[57] <= 17.165\ngini = 0.204\nsamples = 52\nvalue = [6, 46]"] ;
905 -> 906 ;
907 [label="gini = 0.0\nsamples = 37\nvalue = [0, 37]"] ;
906 -> 907 ;
908 [label="X[1] <= 7.5\ngini = 0.48\nsamples = 15\nvalue = [6, 9]"] ;
906 -> 908 ;
909 [label="gini = 0.0\nsamples = 4\nvalue = [4, 0]"] ;
908 -> 909 ;
910 [label="X[9] <= 20.305\ngini = 0.298\nsamples = 11\nvalue = [2, 9]"] ;
908 -> 910 ;
911 [label="gini = 0.0\nsamples = 9\nvalue = [0, 9]"] ;
910 -> 911 ;
912 [label="gini = 0.0\nsamples = 2\nvalue = [2, 0]"] ;
910 -> 912 ;
913 [label="X[126] <= 12.5\ngini = 0.475\nsamples = 18\nvalue = [11, 7]"] ;
905 -> 913 ;
914 [label="X[4] <= 0.42\ngini = 0.337\nsamples = 14\nvalue = [11, 3]"] ;
913 -> 914 ;
915 [label="gini = 0.0\nsamples = 9\nvalue = [9, 0]"] ;
914 -> 915 ;
916 [label="X[21] <= 7.5\ngini = 0.48\nsamples = 5\nvalue = [2, 3]"] ;
914 -> 916 ;
917 [label="gini = 0.0\nsamples = 3\nvalue = [0, 3]"] ;
916 -> 917 ;
918 [label="gini = 0.0\nsamples = 2\nvalue = [2, 0]"] ;
916 -> 918 ;
919 [label="gini = 0.0\nsamples = 4\nvalue = [0, 4]"] ;
913 -> 919 ;
920 [label="X[124] <= 17.0\ngini = 0.472\nsamples = 76\nvalue = [47, 29]"] ;
904 -> 920 ;
921 [label="X[172] <= 7.5\ngini = 0.383\nsamples = 62\nvalue = [46, 16]"] ;
920 -> 921 ;
922 [label="X[57] <= 15.69\ngini = 0.328\nsamples = 58\nvalue = [46, 12]"] ;
921 -> 922 ;
923 [label="X[90] <= 45.0\ngini = 0.201\nsamples = 44\nvalue = [39, 5]"] ;
922 -> 923 ;
924 [label="X[40] <= 6.0\ngini = 0.169\nsamples = 43\nvalue = [39, 4]"] ;
923 -> 924 ;
925 [label="X[81] <= 9.5\ngini = 0.057\nsamples = 34\nvalue = [33, 1]"] ;
924 -> 925 ;
926 [label="gini = 0.0\nsamples = 32\nvalue = [32, 0]"] ;
925 -> 926 ;
927 [label="X[11] <= 16.12\ngini = 0.5\nsamples = 2\nvalue = [1, 1]"] ;
925 -> 927 ;
928 [label="gini = 0.0\nsamples = 1\nvalue = [1, 0]"] ;
927 -> 928 ;
929 [label="gini = 0.0\nsamples = 1\nvalue = [0, 1]"] ;
927 -> 929 ;
930 [label="X[4] <= 0.335\ngini = 0.444\nsamples = 9\nvalue = [6, 3]"] ;
924 -> 930 ;
931 [label="X[83] <= 9.5\ngini = 0.245\nsamples = 7\nvalue = [6, 1]"] ;
930 -> 931 ;
932 [label="gini = 0.0\nsamples = 6\nvalue = [6, 0]"] ;
931 -> 932 ;
933 [label="gini = 0.0\nsamples = 1\nvalue = [0, 1]"] ;
931 -> 933 ;
934 [label="gini = 0.0\nsamples = 2\nvalue = [0, 2]"] ;
930 -> 934 ;
935 [label="gini = 0.0\nsamples = 1\nvalue = [0, 1]"] ;
923 -> 935 ;
936 [label="X[22] <= 4.5\ngini = 0.5\nsamples = 14\nvalue = [7, 7]"] ;
922 -> 936 ;
937 [label="gini = 0.0\nsamples = 4\nvalue = [4, 0]"] ;
936 -> 937 ;
938 [label="X[17] <= 8.5\ngini = 0.42\nsamples = 10\nvalue = [3, 7]"] ;
936 -> 938 ;
939 [label="X[10] <= 21.0\ngini = 0.219\nsamples = 8\nvalue = [1, 7]"] ;
938 -> 939 ;
940 [label="gini = 0.0\nsamples = 7\nvalue = [0, 7]"] ;
939 -> 940 ;
941 [label="gini = 0.0\nsamples = 1\nvalue = [1, 0]"] ;
939 -> 941 ;
942 [label="gini = 0.0\nsamples = 2\nvalue = [2, 0]"] ;
938 -> 942 ;
943 [label="gini = 0.0\nsamples = 4\nvalue = [0, 4]"] ;
921 -> 943 ;
944 [label="X[45] <= 5.5\ngini = 0.133\nsamples = 14\nvalue = [1, 13]"] ;
920 -> 944 ;
945 [label="gini = 0.0\nsamples = 1\nvalue = [1, 0]"] ;
944 -> 945 ;
946 [label="gini = 0.0\nsamples = 13\nvalue = [0, 13]"] ;
944 -> 946 ;
947 [label="X[69] <= 27.5\ngini = 0.351\nsamples = 450\nvalue = [102, 348]"] ;
903 -> 947 ;
948 [label="X[67] <= 47.0\ngini = 0.339\nsamples = 444\nvalue = [96, 348]"] ;
947 -> 948 ;
949 [label="X[51] <= 2.5\ngini = 0.327\nsamples = 438\nvalue = [90, 348]"] ;
948 -> 949 ;
950 [label="X[145] <= 19.706\ngini = 0.496\nsamples = 35\nvalue = [16, 19]"] ;
949 -> 950 ;
951 [label="X[15] <= 5.5\ngini = 0.346\nsamples = 18\nvalue = [14, 4]"] ;
950 -> 951 ;
952 [label="X[68] <= 5.0\ngini = 0.375\nsamples = 4\nvalue = [1, 3]"] ;
951 -> 952 ;
953 [label="gini = 0.0\nsamples = 1\nvalue = [1, 0]"] ;
952 -> 953 ;
954 [label="gini = 0.0\nsamples = 3\nvalue = [0, 3]"] ;
952 -> 954 ;
955 [label="X[3] <= 130.0\ngini = 0.133\nsamples = 14\nvalue = [13, 1]"] ;
951 -> 955 ;
956 [label="gini = 0.0\nsamples = 13\nvalue = [13, 0]"] ;
955 -> 956 ;
957 [label="gini = 0.0\nsamples = 1\nvalue = [0, 1]"] ;
955 -> 957 ;
958 [label="X[21] <= 9.0\ngini = 0.208\nsamples = 17\nvalue = [2, 15]"] ;
950 -> 958 ;
959 [label="X[3] <= 109.0\ngini = 0.117\nsamples = 16\nvalue = [1, 15]"] ;
958 -> 959 ;
960 [label="gini = 0.0\nsamples = 15\nvalue = [0, 15]"] ;
959 -> 960 ;
961 [label="gini = 0.0\nsamples = 1\nvalue = [1, 0]"] ;
959 -> 961 ;
962 [label="gini = 0.0\nsamples = 1\nvalue = [1, 0]"] ;
958 -> 962 ;
963 [label="X[63] <= 27.5\ngini = 0.3\nsamples = 403\nvalue = [74, 329]"] ;
949 -> 963 ;
964 [label="X[83] <= 6.2\ngini = 0.287\nsamples = 397\nvalue = [69, 328]"] ;
963 -> 964 ;
965 [label="X[149] <= 19.0\ngini = 0.417\nsamples = 81\nvalue = [24, 57]"] ;
964 -> 965 ;
966 [label="X[19] <= 8.5\ngini = 0.219\nsamples = 8\nvalue = [7, 1]"] ;
965 -> 966 ;
967 [label="gini = 0.0\nsamples = 6\nvalue = [6, 0]"] ;
966 -> 967 ;
968 [label="X[102] <= 2.0\ngini = 0.5\nsamples = 2\nvalue = [1, 1]"] ;
966 -> 968 ;
969 [label="gini = 0.0\nsamples = 1\nvalue = [0, 1]"] ;
968 -> 969 ;
970 [label="gini = 0.0\nsamples = 1\nvalue = [1, 0]"] ;
968 -> 970 ;
971 [label="X[79] <= 7.309\ngini = 0.357\nsamples = 73\nvalue = [17, 56]"] ;
965 -> 971 ;
972 [label="X[4] <= 0.225\ngini = 0.5\nsamples = 22\nvalue = [11, 11]"] ;
971 -> 972 ;
973 [label="X[87] <= 6.5\ngini = 0.391\nsamples = 15\nvalue = [11, 4]"] ;
972 -> 973 ;
974 [label="gini = 0.0\nsamples = 10\nvalue = [10, 0]"] ;
973 -> 974 ;
975 [label="X[154] <= 7.5\ngini = 0.32\nsamples = 5\nvalue = [1, 4]"] ;
973 -> 975 ;
976 [label="gini = 0.0\nsamples = 1\nvalue = [1, 0]"] ;
975 -> 976 ;
977 [label="gini = 0.0\nsamples = 4\nvalue = [0, 4]"] ;
975 -> 977 ;
978 [label="gini = 0.0\nsamples = 7\nvalue = [0, 7]"] ;
972 -> 978 ;
979 [label="X[61] <= 9.5\ngini = 0.208\nsamples = 51\nvalue = [6, 45]"] ;
971 -> 979 ;
980 [label="gini = 0.0\nsamples = 2\nvalue = [2, 0]"] ;
979 -> 980 ;
981 [label="X[13] <= 21.0\ngini = 0.15\nsamples = 49\nvalue = [4, 45]"] ;
979 -> 981 ;
982 [label="X[65] <= 23.0\ngini = 0.117\nsamples = 48\nvalue = [3, 45]"] ;
981 -> 982 ;
983 [label="X[97] <= 6.0\ngini = 0.044\nsamples = 44\nvalue = [1, 43]"] ;
982 -> 983 ;
984 [label="X[4] <= -0.085\ngini = 0.5\nsamples = 2\nvalue = [1, 1]"] ;
983 -> 984 ;
985 [label="gini = 0.0\nsamples = 1\nvalue = [1, 0]"] ;
984 -> 985 ;
986 [label="gini = 0.0\nsamples = 1\nvalue = [0, 1]"] ;
984 -> 986 ;
987 [label="gini = 0.0\nsamples = 42\nvalue = [0, 42]"] ;
983 -> 987 ;
988 [label="X[16] <= 7.0\ngini = 0.5\nsamples = 4\nvalue = [2, 2]"] ;
982 -> 988 ;
989 [label="gini = 0.0\nsamples = 2\nvalue = [2, 0]"] ;
988 -> 989 ;
990 [label="gini = 0.0\nsamples = 2\nvalue = [0, 2]"] ;
988 -> 990 ;
991 [label="gini = 0.0\nsamples = 1\nvalue = [1, 0]"] ;
981 -> 991 ;
992 [label="X[8] <= 10.68\ngini = 0.244\nsamples = 316\nvalue = [45, 271]"] ;
964 -> 992 ;
993 [label="X[39] <= 7.5\ngini = 0.444\nsamples = 39\nvalue = [13, 26]"] ;
992 -> 993 ;
994 [label="X[17] <= 8.5\ngini = 0.311\nsamples = 26\nvalue = [5, 21]"] ;
993 -> 994 ;
995 [label="X[1] <= 3.0\ngini = 0.105\nsamples = 18\nvalue = [1, 17]"] ;
994 -> 995 ;
996 [label="X[6] <= 30.0\ngini = 0.5\nsamples = 2\nvalue = [1, 1]"] ;
995 -> 996 ;
997 [label="gini = 0.0\nsamples = 1\nvalue = [1, 0]"] ;
996 -> 997 ;
998 [label="gini = 0.0\nsamples = 1\nvalue = [0, 1]"] ;
996 -> 998 ;
999 [label="gini = 0.0\nsamples = 16\nvalue = [0, 16]"] ;
995 -> 999 ;
1000 [label="X[49] <= 2.5\ngini = 0.5\nsamples = 8\nvalue = [4, 4]"] ;
994 -> 1000 ;
1001 [label="gini = 0.0\nsamples = 4\nvalue = [4, 0]"] ;
1000 -> 1001 ;
1002 [label="gini = 0.0\nsamples = 4\nvalue = [0, 4]"] ;
1000 -> 1002 ;
1003 [label="X[132] <= 7.743\ngini = 0.473\nsamples = 13\nvalue = [8, 5]"] ;
993 -> 1003 ;
1004 [label="gini = 0.0\nsamples = 5\nvalue = [5, 0]"] ;
1003 -> 1004 ;
1005 [label="X[1] <= 25.0\ngini = 0.469\nsamples = 8\nvalue = [3, 5]"] ;
1003 -> 1005 ;
1006 [label="gini = 0.0\nsamples = 4\nvalue = [0, 4]"] ;
1005 -> 1006 ;
1007 [label="X[3] <= 30.0\ngini = 0.375\nsamples = 4\nvalue = [3, 1]"] ;
1005 -> 1007 ;
1008 [label="gini = 0.0\nsamples = 1\nvalue = [0, 1]"] ;
1007 -> 1008 ;
1009 [label="gini = 0.0\nsamples = 3\nvalue = [3, 0]"] ;
1007 -> 1009 ;
1010 [label="X[94] <= 14.645\ngini = 0.204\nsamples = 277\nvalue = [32, 245]"] ;
992 -> 1010 ;
1011 [label="X[20] <= 4.5\ngini = 0.17\nsamples = 245\nvalue = [23, 222]"] ;
1010 -> 1011 ;
1012 [label="X[7] <= 1.5\ngini = 0.306\nsamples = 69\nvalue = [13, 56]"] ;
1011 -> 1012 ;
1013 [label="gini = 0.0\nsamples = 3\nvalue = [3, 0]"] ;
1012 -> 1013 ;
1014 [label="X[101] <= 3.5\ngini = 0.257\nsamples = 66\nvalue = [10, 56]"] ;
1012 -> 1014 ;
1015 [label="gini = 0.0\nsamples = 3\nvalue = [3, 0]"] ;
1014 -> 1015 ;
1016 [label="X[71] <= 4.5\ngini = 0.198\nsamples = 63\nvalue = [7, 56]"] ;
1014 -> 1016 ;
1017 [label="gini = 0.0\nsamples = 2\nvalue = [2, 0]"] ;
1016 -> 1017 ;
1018 [label="X[142] <= 0.467\ngini = 0.15\nsamples = 61\nvalue = [5, 56]"] ;
1016 -> 1018 ;
1019 [label="gini = 0.0\nsamples = 1\nvalue = [1, 0]"] ;
1018 -> 1019 ;
1020 [label="X[35] <= 1.5\ngini = 0.124\nsamples = 60\nvalue = [4, 56]"] ;
1018 -> 1020 ;
1021 [label="gini = 0.0\nsamples = 1\nvalue = [1, 0]"] ;
1020 -> 1021 ;
1022 [label="X[3] <= 89.5\ngini = 0.097\nsamples = 59\nvalue = [3, 56]"] ;
1020 -> 1022 ;
1023 [label="X[19] <= 7.5\ngini = 0.375\nsamples = 12\nvalue = [3, 9]"] ;
1022 -> 1023 ;
1024 [label="gini = 0.0\nsamples = 7\nvalue = [0, 7]"] ;
1023 -> 1024 ;
1025 [label="X[167] <= 7.12\ngini = 0.48\nsamples = 5\nvalue = [3, 2]"] ;
1023 -> 1025 ;
1026 [label="gini = 0.0\nsamples = 2\nvalue = [0, 2]"] ;
1025 -> 1026 ;
1027 [label="gini = 0.0\nsamples = 3\nvalue = [3, 0]"] ;
1025 -> 1027 ;
1028 [label="gini = 0.0\nsamples = 47\nvalue = [0, 47]"] ;
1022 -> 1028 ;
1029 [label="X[17] <= 4.5\ngini = 0.107\nsamples = 176\nvalue = [10, 166]"] ;
1011 -> 1029 ;
1030 [label="gini = 0.0\nsamples = 1\nvalue = [1, 0]"] ;
1029 -> 1030 ;
1031 [label="X[4] <= 0.825\ngini = 0.098\nsamples = 175\nvalue = [9, 166]"] ;
1029 -> 1031 ;
1032 [label="X[106] <= 9.0\ngini = 0.088\nsamples = 174\nvalue = [8, 166]"] ;
1031 -> 1032 ;
1033 [label="X[82] <= 7.5\ngini = 0.444\nsamples = 6\nvalue = [2, 4]"] ;
1032 -> 1033 ;
1034 [label="gini = 0.0\nsamples = 3\nvalue = [0, 3]"] ;
1033 -> 1034 ;
1035 [label="X[4] <= 0.245\ngini = 0.444\nsamples = 3\nvalue = [2, 1]"] ;
1033 -> 1035 ;
1036 [label="gini = 0.0\nsamples = 2\nvalue = [2, 0]"] ;
1035 -> 1036 ;
1037 [label="gini = 0.0\nsamples = 1\nvalue = [0, 1]"] ;
1035 -> 1037 ;
1038 [label="X[69] <= 22.5\ngini = 0.069\nsamples = 168\nvalue = [6, 162]"] ;
1032 -> 1038 ;
1039 [label="X[65] <= 29.0\ngini = 0.058\nsamples = 166\nvalue = [5, 161]"] ;
1038 -> 1039 ;
1040 [label="X[134] <= 6.5\ngini = 0.048\nsamples = 163\nvalue = [4, 159]"] ;
1039 -> 1040 ;
1041 [label="X[6] <= 25.5\ngini = 0.227\nsamples = 23\nvalue = [3, 20]"] ;
1040 -> 1041 ;
1042 [label="X[84] <= 6.5\ngini = 0.49\nsamples = 7\nvalue = [3, 4]"] ;
1041 -> 1042 ;
1043 [label="gini = 0.0\nsamples = 4\nvalue = [0, 4]"] ;
1042 -> 1043 ;
1044 [label="gini = 0.0\nsamples = 3\nvalue = [3, 0]"] ;
1042 -> 1044 ;
1045 [label="gini = 0.0\nsamples = 16\nvalue = [0, 16]"] ;
1041 -> 1045 ;
1046 [label="X[8] <= 72.5\ngini = 0.014\nsamples = 140\nvalue = [1, 139]"] ;
1040 -> 1046 ;
1047 [label="gini = 0.0\nsamples = 137\nvalue = [0, 137]"] ;
1046 -> 1047 ;
1048 [label="X[28] <= 6.5\ngini = 0.444\nsamples = 3\nvalue = [1, 2]"] ;
1046 -> 1048 ;
1049 [label="gini = 0.0\nsamples = 2\nvalue = [0, 2]"] ;
1048 -> 1049 ;
1050 [label="gini = 0.0\nsamples = 1\nvalue = [1, 0]"] ;
1048 -> 1050 ;
1051 [label="X[16] <= 5.5\ngini = 0.444\nsamples = 3\nvalue = [1, 2]"] ;
1039 -> 1051 ;
1052 [label="gini = 0.0\nsamples = 1\nvalue = [1, 0]"] ;
1051 -> 1052 ;
1053 [label="gini = 0.0\nsamples = 2\nvalue = [0, 2]"] ;
1051 -> 1053 ;
1054 [label="X[154] <= 16.104\ngini = 0.5\nsamples = 2\nvalue = [1, 1]"] ;
1038 -> 1054 ;
1055 [label="gini = 0.0\nsamples = 1\nvalue = [0, 1]"] ;
1054 -> 1055 ;
1056 [label="gini = 0.0\nsamples = 1\nvalue = [1, 0]"] ;
1054 -> 1056 ;
1057 [label="gini = 0.0\nsamples = 1\nvalue = [1, 0]"] ;
1031 -> 1057 ;
1058 [label="X[173] <= 7.808\ngini = 0.404\nsamples = 32\nvalue = [9, 23]"] ;
1010 -> 1058 ;
1059 [label="X[9] <= 20.5\ngini = 0.328\nsamples = 29\nvalue = [6, 23]"] ;
1058 -> 1059 ;
1060 [label="X[18] <= 9.5\ngini = 0.219\nsamples = 24\nvalue = [3, 21]"] ;
1059 -> 1060 ;
1061 [label="X[22] <= 3.5\ngini = 0.159\nsamples = 23\nvalue = [2, 21]"] ;
1060 -> 1061 ;
1062 [label="X[22] <= 2.5\ngini = 0.444\nsamples = 6\nvalue = [2, 4]"] ;
1061 -> 1062 ;
1063 [label="gini = 0.0\nsamples = 4\nvalue = [0, 4]"] ;
1062 -> 1063 ;
1064 [label="gini = 0.0\nsamples = 2\nvalue = [2, 0]"] ;
1062 -> 1064 ;
1065 [label="gini = 0.0\nsamples = 17\nvalue = [0, 17]"] ;
1061 -> 1065 ;
1066 [label="gini = 0.0\nsamples = 1\nvalue = [1, 0]"] ;
1060 -> 1066 ;
1067 [label="X[31] <= 2.5\ngini = 0.48\nsamples = 5\nvalue = [3, 2]"] ;
1059 -> 1067 ;
1068 [label="gini = 0.0\nsamples = 3\nvalue = [3, 0]"] ;
1067 -> 1068 ;
1069 [label="gini = 0.0\nsamples = 2\nvalue = [0, 2]"] ;
1067 -> 1069 ;
1070 [label="gini = 0.0\nsamples = 3\nvalue = [3, 0]"] ;
1058 -> 1070 ;
1071 [label="X[83] <= 9.5\ngini = 0.278\nsamples = 6\nvalue = [5, 1]"] ;
963 -> 1071 ;
1072 [label="gini = 0.0\nsamples = 5\nvalue = [5, 0]"] ;
1071 -> 1072 ;
1073 [label="gini = 0.0\nsamples = 1\nvalue = [0, 1]"] ;
1071 -> 1073 ;
1074 [label="gini = 0.0\nsamples = 6\nvalue = [6, 0]"] ;
948 -> 1074 ;
1075 [label="gini = 0.0\nsamples = 6\nvalue = [6, 0]"] ;
947 -> 1075 ;
1076 [label="X[87] <= 4.25\ngini = 0.219\nsamples = 992\nvalue = [124, 868]"] ;
902 -> 1076 ;
1077 [label="X[67] <= 21.06\ngini = 0.414\nsamples = 140\nvalue = [41, 99]"] ;
1076 -> 1077 ;
1078 [label="X[168] <= 9.5\ngini = 0.349\nsamples = 120\nvalue = [27, 93]"] ;
1077 -> 1078 ;
1079 [label="X[133] <= 6.914\ngini = 0.318\nsamples = 116\nvalue = [23, 93]"] ;
1078 -> 1079 ;
1080 [label="X[27] <= 8.5\ngini = 0.236\nsamples = 95\nvalue = [13, 82]"] ;
1079 -> 1080 ;
1081 [label="X[4] <= 0.69\ngini = 0.167\nsamples = 87\nvalue = [8, 79]"] ;
1080 -> 1081 ;
1082 [label="X[76] <= 8.5\ngini = 0.133\nsamples = 84\nvalue = [6, 78]"] ;
1081 -> 1082 ;
1083 [label="X[171] <= 11.0\ngini = 0.075\nsamples = 77\nvalue = [3, 74]"] ;
1082 -> 1083 ;
1084 [label="X[22] <= 0.5\ngini = 0.051\nsamples = 76\nvalue = [2, 74]"] ;
1083 -> 1084 ;
1085 [label="X[54] <= 20.0\ngini = 0.5\nsamples = 2\nvalue = [1, 1]"] ;
1084 -> 1085 ;
1086 [label="gini = 0.0\nsamples = 1\nvalue = [0, 1]"] ;
1085 -> 1086 ;
1087 [label="gini = 0.0\nsamples = 1\nvalue = [1, 0]"] ;
1085 -> 1087 ;
1088 [label="X[129] <= 3.5\ngini = 0.027\nsamples = 74\nvalue = [1, 73]"] ;
1084 -> 1088 ;
1089 [label="X[17] <= 8.0\ngini = 0.444\nsamples = 3\nvalue = [1, 2]"] ;
1088 -> 1089 ;
1090 [label="gini = 0.0\nsamples = 2\nvalue = [0, 2]"] ;
1089 -> 1090 ;
1091 [label="gini = 0.0\nsamples = 1\nvalue = [1, 0]"] ;
1089 -> 1091 ;
1092 [label="gini = 0.0\nsamples = 71\nvalue = [0, 71]"] ;
1088 -> 1092 ;
1093 [label="gini = 0.0\nsamples = 1\nvalue = [1, 0]"] ;
1083 -> 1093 ;
1094 [label="X[124] <= 14.0\ngini = 0.49\nsamples = 7\nvalue = [3, 4]"] ;
1082 -> 1094 ;
1095 [label="gini = 0.0\nsamples = 3\nvalue = [0, 3]"] ;
1094 -> 1095 ;
1096 [label="X[8] <= 24.5\ngini = 0.375\nsamples = 4\nvalue = [3, 1]"] ;
1094 -> 1096 ;
1097 [label="gini = 0.0\nsamples = 3\nvalue = [3, 0]"] ;
1096 -> 1097 ;
1098 [label="gini = 0.0\nsamples = 1\nvalue = [0, 1]"] ;
1096 -> 1098 ;
1099 [label="X[4] <= 0.765\ngini = 0.444\nsamples = 3\nvalue = [2, 1]"] ;
1081 -> 1099 ;
1100 [label="gini = 0.0\nsamples = 2\nvalue = [2, 0]"] ;
1099 -> 1100 ;
1101 [label="gini = 0.0\nsamples = 1\nvalue = [0, 1]"] ;
1099 -> 1101 ;
1102 [label="X[19] <= 5.5\ngini = 0.469\nsamples = 8\nvalue = [5, 3]"] ;
1080 -> 1102 ;
1103 [label="X[85] <= 5.5\ngini = 0.375\nsamples = 4\nvalue = [1, 3]"] ;
1102 -> 1103 ;
1104 [label="gini = 0.0\nsamples = 1\nvalue = [1, 0]"] ;
1103 -> 1104 ;
1105 [label="gini = 0.0\nsamples = 3\nvalue = [0, 3]"] ;
1103 -> 1105 ;
1106 [label="gini = 0.0\nsamples = 4\nvalue = [4, 0]"] ;
1102 -> 1106 ;
1107 [label="X[44] <= 7.5\ngini = 0.499\nsamples = 21\nvalue = [10, 11]"] ;
1079 -> 1107 ;
1108 [label="X[17] <= 8.5\ngini = 0.444\nsamples = 15\nvalue = [10, 5]"] ;
1107 -> 1108 ;
1109 [label="X[3] <= 263.0\ngini = 0.278\nsamples = 12\nvalue = [10, 2]"] ;
1108 -> 1109 ;
1110 [label="gini = 0.0\nsamples = 1\nvalue = [0, 1]"] ;
1109 -> 1110 ;
1111 [label="X[3] <= 539.0\ngini = 0.165\nsamples = 11\nvalue = [10, 1]"] ;
1109 -> 1111 ;
1112 [label="gini = 0.0\nsamples = 10\nvalue = [10, 0]"] ;
1111 -> 1112 ;
1113 [label="gini = 0.0\nsamples = 1\nvalue = [0, 1]"] ;
1111 -> 1113 ;
1114 [label="gini = 0.0\nsamples = 3\nvalue = [0, 3]"] ;
1108 -> 1114 ;
1115 [label="gini = 0.0\nsamples = 6\nvalue = [0, 6]"] ;
1107 -> 1115 ;
1116 [label="gini = 0.0\nsamples = 4\nvalue = [4, 0]"] ;
1078 -> 1116 ;
1117 [label="X[45] <= 7.5\ngini = 0.42\nsamples = 20\nvalue = [14, 6]"] ;
1077 -> 1117 ;
1118 [label="X[21] <= 7.75\ngini = 0.245\nsamples = 7\nvalue = [1, 6]"] ;
1117 -> 1118 ;
1119 [label="gini = 0.0\nsamples = 6\nvalue = [0, 6]"] ;
1118 -> 1119 ;
1120 [label="gini = 0.0\nsamples = 1\nvalue = [1, 0]"] ;
1118 -> 1120 ;
1121 [label="gini = 0.0\nsamples = 13\nvalue = [13, 0]"] ;
1117 -> 1121 ;
1122 [label="X[116] <= 6.5\ngini = 0.176\nsamples = 852\nvalue = [83, 769]"] ;
1076 -> 1122 ;
1123 [label="gini = 0.0\nsamples = 4\nvalue = [4, 0]"] ;
1122 -> 1123 ;
1124 [label="X[24] <= 33.5\ngini = 0.169\nsamples = 848\nvalue = [79, 769]"] ;
1122 -> 1124 ;
1125 [label="X[29] <= 4.5\ngini = 0.151\nsamples = 803\nvalue = [66, 737]"] ;
1124 -> 1125 ;
1126 [label="X[143] <= 11.63\ngini = 0.121\nsamples = 711\nvalue = [46, 665]"] ;
1125 -> 1126 ;
1127 [label="X[9] <= 2.5\ngini = 0.384\nsamples = 27\nvalue = [7, 20]"] ;
1126 -> 1127 ;
1128 [label="gini = 0.0\nsamples = 2\nvalue = [2, 0]"] ;
1127 -> 1128 ;
1129 [label="X[3] <= 69.5\ngini = 0.32\nsamples = 25\nvalue = [5, 20]"] ;
1127 -> 1129 ;
1130 [label="gini = 0.0\nsamples = 2\nvalue = [2, 0]"] ;
1129 -> 1130 ;
1131 [label="X[61] <= 10.0\ngini = 0.227\nsamples = 23\nvalue = [3, 20]"] ;
1129 -> 1131 ;
1132 [label="gini = 0.0\nsamples = 1\nvalue = [1, 0]"] ;
1131 -> 1132 ;
1133 [label="X[8] <= 72.5\ngini = 0.165\nsamples = 22\nvalue = [2, 20]"] ;
1131 -> 1133 ;
1134 [label="X[7] <= 5.0\ngini = 0.091\nsamples = 21\nvalue = [1, 20]"] ;
1133 -> 1134 ;
1135 [label="gini = 0.0\nsamples = 20\nvalue = [0, 20]"] ;
1134 -> 1135 ;
1136 [label="gini = 0.0\nsamples = 1\nvalue = [1, 0]"] ;
1134 -> 1136 ;
1137 [label="gini = 0.0\nsamples = 1\nvalue = [1, 0]"] ;
1133 -> 1137 ;
1138 [label="X[110] <= 80.0\ngini = 0.108\nsamples = 684\nvalue = [39, 645]"] ;
1126 -> 1138 ;
1139 [label="X[63] <= 27.5\ngini = 0.101\nsamples = 677\nvalue = [36, 641]"] ;
1138 -> 1139 ;
1140 [label="X[128] <= 7.563\ngini = 0.094\nsamples = 668\nvalue = [33, 635]"] ;
1139 -> 1140 ;
1141 [label="X[141] <= 0.5\ngini = 0.051\nsamples = 382\nvalue = [10, 372]"] ;
1140 -> 1141 ;
1142 [label="X[82] <= 7.0\ngini = 0.375\nsamples = 8\nvalue = [2, 6]"] ;
1141 -> 1142 ;
1143 [label="gini = 0.0\nsamples = 1\nvalue = [1, 0]"] ;
1142 -> 1143 ;
1144 [label="X[85] <= 9.0\ngini = 0.245\nsamples = 7\nvalue = [1, 6]"] ;
1142 -> 1144 ;
1145 [label="gini = 0.0\nsamples = 6\nvalue = [0, 6]"] ;
1144 -> 1145 ;
1146 [label="gini = 0.0\nsamples = 1\nvalue = [1, 0]"] ;
1144 -> 1146 ;
1147 [label="X[4] <= -0.54\ngini = 0.042\nsamples = 374\nvalue = [8, 366]"] ;
1141 -> 1147 ;
1148 [label="X[19] <= 5.5\ngini = 0.444\nsamples = 3\nvalue = [1, 2]"] ;
1147 -> 1148 ;
1149 [label="gini = 0.0\nsamples = 2\nvalue = [0, 2]"] ;
1148 -> 1149 ;
1150 [label="gini = 0.0\nsamples = 1\nvalue = [1, 0]"] ;
1148 -> 1150 ;
1151 [label="X[159] <= 16.5\ngini = 0.037\nsamples = 371\nvalue = [7, 364]"] ;
1147 -> 1151 ;
1152 [label="X[96] <= 8.5\ngini = 0.023\nsamples = 348\nvalue = [4, 344]"] ;
1151 -> 1152 ;
1153 [label="X[67] <= 32.5\ngini = 0.017\nsamples = 345\nvalue = [3, 342]"] ;
1152 -> 1153 ;
1154 [label="X[50] <= 1.5\ngini = 0.012\nsamples = 341\nvalue = [2, 339]"] ;
1153 -> 1154 ;
1155 [label="X[4] <= 0.46\ngini = 0.278\nsamples = 6\nvalue = [1, 5]"] ;
1154 -> 1155 ;
1156 [label="gini = 0.0\nsamples = 5\nvalue = [0, 5]"] ;
1155 -> 1156 ;
1157 [label="gini = 0.0\nsamples = 1\nvalue = [1, 0]"] ;
1155 -> 1157 ;
1158 [label="X[7] <= 1.5\ngini = 0.006\nsamples = 335\nvalue = [1, 334]"] ;
1154 -> 1158 ;
1159 [label="X[71] <= 5.5\ngini = 0.198\nsamples = 9\nvalue = [1, 8]"] ;
1158 -> 1159 ;
1160 [label="gini = 0.0\nsamples = 1\nvalue = [1, 0]"] ;
1159 -> 1160 ;
1161 [label="gini = 0.0\nsamples = 8\nvalue = [0, 8]"] ;
1159 -> 1161 ;
1162 [label="gini = 0.0\nsamples = 326\nvalue = [0, 326]"] ;
1158 -> 1162 ;
1163 [label="X[105] <= 9.5\ngini = 0.375\nsamples = 4\nvalue = [1, 3]"] ;
1153 -> 1163 ;
1164 [label="gini = 0.0\nsamples = 3\nvalue = [0, 3]"] ;
1163 -> 1164 ;
1165 [label="gini = 0.0\nsamples = 1\nvalue = [1, 0]"] ;
1163 -> 1165 ;
1166 [label="X[123] <= 16.449\ngini = 0.444\nsamples = 3\nvalue = [1, 2]"] ;
1152 -> 1166 ;
1167 [label="gini = 0.0\nsamples = 1\nvalue = [1, 0]"] ;
1166 -> 1167 ;
1168 [label="gini = 0.0\nsamples = 2\nvalue = [0, 2]"] ;
1166 -> 1168 ;
1169 [label="X[3] <= 237.0\ngini = 0.227\nsamples = 23\nvalue = [3, 20]"] ;
1151 -> 1169 ;
1170 [label="gini = 0.0\nsamples = 1\nvalue = [1, 0]"] ;
1169 -> 1170 ;
1171 [label="X[6] <= 29.5\ngini = 0.165\nsamples = 22\nvalue = [2, 20]"] ;
1169 -> 1171 ;
1172 [label="gini = 0.0\nsamples = 16\nvalue = [0, 16]"] ;
1171 -> 1172 ;
1173 [label="X[81] <= 8.5\ngini = 0.444\nsamples = 6\nvalue = [2, 4]"] ;
1171 -> 1173 ;
1174 [label="X[83] <= 7.5\ngini = 0.444\nsamples = 3\nvalue = [2, 1]"] ;
1173 -> 1174 ;
1175 [label="gini = 0.0\nsamples = 1\nvalue = [0, 1]"] ;
1174 -> 1175 ;
1176 [label="gini = 0.0\nsamples = 2\nvalue = [2, 0]"] ;
1174 -> 1176 ;
1177 [label="gini = 0.0\nsamples = 3\nvalue = [0, 3]"] ;
1173 -> 1177 ;
1178 [label="X[12] <= 16.14\ngini = 0.148\nsamples = 286\nvalue = [23, 263]"] ;
1140 -> 1178 ;
1179 [label="X[6] <= 33.5\ngini = 0.074\nsamples = 207\nvalue = [8, 199]"] ;
1178 -> 1179 ;
1180 [label="X[58] <= 6.5\ngini = 0.058\nsamples = 201\nvalue = [6, 195]"] ;
1179 -> 1180 ;
1181 [label="X[7] <= 3.0\ngini = 0.444\nsamples = 3\nvalue = [1, 2]"] ;
1180 -> 1181 ;
1182 [label="gini = 0.0\nsamples = 2\nvalue = [0, 2]"] ;
1181 -> 1182 ;
1183 [label="gini = 0.0\nsamples = 1\nvalue = [1, 0]"] ;
1181 -> 1183 ;
1184 [label="X[67] <= 30.625\ngini = 0.049\nsamples = 198\nvalue = [5, 193]"] ;
1180 -> 1184 ;
1185 [label="X[108] <= 18.5\ngini = 0.032\nsamples = 187\nvalue = [3, 184]"] ;
1184 -> 1185 ;
1186 [label="X[134] <= 2.5\ngini = 0.022\nsamples = 183\nvalue = [2, 181]"] ;
1185 -> 1186 ;
1187 [label="X[87] <= 6.5\ngini = 0.278\nsamples = 6\nvalue = [1, 5]"] ;
1186 -> 1187 ;
1188 [label="gini = 0.0\nsamples = 1\nvalue = [1, 0]"] ;
1187 -> 1188 ;
1189 [label="gini = 0.0\nsamples = 5\nvalue = [0, 5]"] ;
1187 -> 1189 ;
1190 [label="X[10] <= 45.0\ngini = 0.011\nsamples = 177\nvalue = [1, 176]"] ;
1186 -> 1190 ;
1191 [label="gini = 0.0\nsamples = 170\nvalue = [0, 170]"] ;
1190 -> 1191 ;
1192 [label="X[131] <= 7.5\ngini = 0.245\nsamples = 7\nvalue = [1, 6]"] ;
1190 -> 1192 ;
1193 [label="gini = 0.0\nsamples = 1\nvalue = [1, 0]"] ;
1192 -> 1193 ;
1194 [label="gini = 0.0\nsamples = 6\nvalue = [0, 6]"] ;
1192 -> 1194 ;
1195 [label="X[18] <= 8.0\ngini = 0.375\nsamples = 4\nvalue = [1, 3]"] ;
1185 -> 1195 ;
1196 [label="gini = 0.0\nsamples = 1\nvalue = [1, 0]"] ;
1195 -> 1196 ;
1197 [label="gini = 0.0\nsamples = 3\nvalue = [0, 3]"] ;
1195 -> 1197 ;
1198 [label="X[21] <= 4.5\ngini = 0.298\nsamples = 11\nvalue = [2, 9]"] ;
1184 -> 1198 ;
1199 [label="gini = 0.0\nsamples = 2\nvalue = [2, 0]"] ;
1198 -> 1199 ;
1200 [label="gini = 0.0\nsamples = 9\nvalue = [0, 9]"] ;
1198 -> 1200 ;
1201 [label="X[43] <= 5.652\ngini = 0.444\nsamples = 6\nvalue = [2, 4]"] ;
1179 -> 1201 ;
1202 [label="gini = 0.0\nsamples = 4\nvalue = [0, 4]"] ;
1201 -> 1202 ;
1203 [label="gini = 0.0\nsamples = 2\nvalue = [2, 0]"] ;
1201 -> 1203 ;
1204 [label="X[15] <= 6.5\ngini = 0.308\nsamples = 79\nvalue = [15, 64]"] ;
1178 -> 1204 ;
1205 [label="gini = 0.0\nsamples = 31\nvalue = [0, 31]"] ;
1204 -> 1205 ;
1206 [label="X[74] <= 8.5\ngini = 0.43\nsamples = 48\nvalue = [15, 33]"] ;
1204 -> 1206 ;
1207 [label="X[39] <= 6.5\ngini = 0.5\nsamples = 28\nvalue = [14, 14]"] ;
1206 -> 1207 ;
1208 [label="X[46] <= 4.0\ngini = 0.219\nsamples = 8\nvalue = [1, 7]"] ;
1207 -> 1208 ;
1209 [label="X[6] <= 28.0\ngini = 0.5\nsamples = 2\nvalue = [1, 1]"] ;
1208 -> 1209 ;
1210 [label="gini = 0.0\nsamples = 1\nvalue = [1, 0]"] ;
1209 -> 1210 ;
1211 [label="gini = 0.0\nsamples = 1\nvalue = [0, 1]"] ;
1209 -> 1211 ;
1212 [label="gini = 0.0\nsamples = 6\nvalue = [0, 6]"] ;
1208 -> 1212 ;
1213 [label="X[80] <= 9.5\ngini = 0.455\nsamples = 20\nvalue = [13, 7]"] ;
1207 -> 1213 ;
1214 [label="X[20] <= 5.737\ngini = 0.36\nsamples = 17\nvalue = [13, 4]"] ;
1213 -> 1214 ;
1215 [label="X[66] <= 18.89\ngini = 0.375\nsamples = 4\nvalue = [1, 3]"] ;
1214 -> 1215 ;
1216 [label="gini = 0.0\nsamples = 3\nvalue = [0, 3]"] ;
1215 -> 1216 ;
1217 [label="gini = 0.0\nsamples = 1\nvalue = [1, 0]"] ;
1215 -> 1217 ;
1218 [label="X[116] <= 8.5\ngini = 0.142\nsamples = 13\nvalue = [12, 1]"] ;
1214 -> 1218 ;
1219 [label="X[3] <= 148.0\ngini = 0.5\nsamples = 2\nvalue = [1, 1]"] ;
1218 -> 1219 ;
1220 [label="gini = 0.0\nsamples = 1\nvalue = [1, 0]"] ;
1219 -> 1220 ;
1221 [label="gini = 0.0\nsamples = 1\nvalue = [0, 1]"] ;
1219 -> 1221 ;
1222 [label="gini = 0.0\nsamples = 11\nvalue = [11, 0]"] ;
1218 -> 1222 ;
1223 [label="gini = 0.0\nsamples = 3\nvalue = [0, 3]"] ;
1213 -> 1223 ;
1224 [label="X[28] <= 9.0\ngini = 0.095\nsamples = 20\nvalue = [1, 19]"] ;
1206 -> 1224 ;
1225 [label="gini = 0.0\nsamples = 19\nvalue = [0, 19]"] ;
1224 -> 1225 ;
1226 [label="gini = 0.0\nsamples = 1\nvalue = [1, 0]"] ;
1224 -> 1226 ;
1227 [label="X[6] <= 29.5\ngini = 0.444\nsamples = 9\nvalue = [3, 6]"] ;
1139 -> 1227 ;
1228 [label="X[18] <= 8.5\ngini = 0.245\nsamples = 7\nvalue = [1, 6]"] ;
1227 -> 1228 ;
1229 [label="gini = 0.0\nsamples = 6\nvalue = [0, 6]"] ;
1228 -> 1229 ;
1230 [label="gini = 0.0\nsamples = 1\nvalue = [1, 0]"] ;
1228 -> 1230 ;
1231 [label="gini = 0.0\nsamples = 2\nvalue = [2, 0]"] ;
1227 -> 1231 ;
1232 [label="X[6] <= 26.182\ngini = 0.49\nsamples = 7\nvalue = [3, 4]"] ;
1138 -> 1232 ;
1233 [label="gini = 0.0\nsamples = 3\nvalue = [3, 0]"] ;
1232 -> 1233 ;
1234 [label="gini = 0.0\nsamples = 4\nvalue = [0, 4]"] ;
1232 -> 1234 ;
1235 [label="X[48] <= 7.5\ngini = 0.34\nsamples = 92\nvalue = [20, 72]"] ;
1125 -> 1235 ;
1236 [label="X[83] <= 6.2\ngini = 0.182\nsamples = 69\nvalue = [7, 62]"] ;
1235 -> 1236 ;
1237 [label="X[49] <= 6.0\ngini = 0.496\nsamples = 11\nvalue = [5, 6]"] ;
1236 -> 1237 ;
1238 [label="X[63] <= 20.0\ngini = 0.278\nsamples = 6\nvalue = [5, 1]"] ;
1237 -> 1238 ;
1239 [label="gini = 0.0\nsamples = 5\nvalue = [5, 0]"] ;
1238 -> 1239 ;
1240 [label="gini = 0.0\nsamples = 1\nvalue = [0, 1]"] ;
1238 -> 1240 ;
1241 [label="gini = 0.0\nsamples = 5\nvalue = [0, 5]"] ;
1237 -> 1241 ;
1242 [label="X[168] <= 11.0\ngini = 0.067\nsamples = 58\nvalue = [2, 56]"] ;
1236 -> 1242 ;
1243 [label="X[7] <= 1.5\ngini = 0.034\nsamples = 57\nvalue = [1, 56]"] ;
1242 -> 1243 ;
1244 [label="X[37] <= 5.5\ngini = 0.444\nsamples = 3\nvalue = [1, 2]"] ;
1243 -> 1244 ;
1245 [label="gini = 0.0\nsamples = 2\nvalue = [0, 2]"] ;
1244 -> 1245 ;
1246 [label="gini = 0.0\nsamples = 1\nvalue = [1, 0]"] ;
1244 -> 1246 ;
1247 [label="gini = 0.0\nsamples = 54\nvalue = [0, 54]"] ;
1243 -> 1247 ;
1248 [label="gini = 0.0\nsamples = 1\nvalue = [1, 0]"] ;
1242 -> 1248 ;
1249 [label="X[88] <= 1.5\ngini = 0.491\nsamples = 23\nvalue = [13, 10]"] ;
1235 -> 1249 ;
1250 [label="X[8] <= 17.5\ngini = 0.408\nsamples = 14\nvalue = [4, 10]"] ;
1249 -> 1250 ;
1251 [label="gini = 0.0\nsamples = 3\nvalue = [3, 0]"] ;
1250 -> 1251 ;
1252 [label="X[4] <= 0.765\ngini = 0.165\nsamples = 11\nvalue = [1, 10]"] ;
1250 -> 1252 ;
1253 [label="gini = 0.0\nsamples = 10\nvalue = [0, 10]"] ;
1252 -> 1253 ;
1254 [label="gini = 0.0\nsamples = 1\nvalue = [1, 0]"] ;
1252 -> 1254 ;
1255 [label="gini = 0.0\nsamples = 9\nvalue = [9, 0]"] ;
1249 -> 1255 ;
1256 [label="X[36] <= 5.5\ngini = 0.411\nsamples = 45\nvalue = [13, 32]"] ;
1124 -> 1256 ;
1257 [label="X[10] <= 24.0\ngini = 0.219\nsamples = 8\nvalue = [7, 1]"] ;
1256 -> 1257 ;
1258 [label="gini = 0.0\nsamples = 7\nvalue = [7, 0]"] ;
1257 -> 1258 ;
1259 [label="gini = 0.0\nsamples = 1\nvalue = [0, 1]"] ;
1257 -> 1259 ;
1260 [label="X[10] <= 16.99\ngini = 0.272\nsamples = 37\nvalue = [6, 31]"] ;
1256 -> 1260 ;
1261 [label="X[4] <= 0.53\ngini = 0.49\nsamples = 14\nvalue = [6, 8]"] ;
1260 -> 1261 ;
1262 [label="X[85] <= 9.5\ngini = 0.32\nsamples = 10\nvalue = [2, 8]"] ;
1261 -> 1262 ;
1263 [label="gini = 0.0\nsamples = 7\nvalue = [0, 7]"] ;
1262 -> 1263 ;
1264 [label="X[144] <= 17.869\ngini = 0.444\nsamples = 3\nvalue = [2, 1]"] ;
1262 -> 1264 ;
